#ifndef WEIGHTS_LSTM_H
#define WEIGHTS_LSTM_H

// Auto-generated from lstm_model_5.h5
// Shapes:
// lstm_kernel           : [32][512]
// lstm_recurrent_kernel : [128][512]
// lstm_bias             : [512]
// lstm_dense1_W         : [128][128]
// lstm_dense1_b         : [128]
// lstm_dense2_W         : [128][5]
// lstm_dense2_b         : [5]

#include <stdint.h>

static const float lstm_kernel[32][512] = {
  -3.03406149e-01f, 3.44628155e-01f, 1.87436119e-01f, 1.01633929e-01f, 2.92746663e-01f, 6.17693365e-02f,
  2.13309582e-02f, -3.56648937e-02f, 3.03551614e-01f, 2.20576063e-01f, -1.41838342e-01f, 2.32287437e-01f,
  5.56282960e-02f, -1.13799557e-01f, -2.17308760e-01f, 1.73522592e-01f, 8.24948370e-01f, 4.11216617e-01f,
  1.41719237e-01f, -2.25943521e-01f, -1.90758318e-01f, 4.81502376e-02f, 1.27812013e-01f, -2.79571861e-01f,
  7.94894472e-02f, -2.57354140e-01f, -3.20705801e-01f, -3.41887176e-01f, -3.37137915e-02f, 4.02957022e-01f,
  -2.40285516e-01f, 3.93537074e-01f, -9.57546383e-02f, -6.61573112e-02f, 4.85442951e-02f, 3.66121791e-02f,
  -3.53750810e-02f, 3.41621935e-01f, 1.67234927e-01f, -1.06838197e-01f, -9.27603766e-02f, -1.71152994e-01f,
  -5.85371405e-02f, -3.97848368e-01f, -2.35781968e-01f, 5.47044910e-02f, 3.48838747e-01f, -1.38051361e-01f,
  -1.16967581e-01f, 4.91080880e-01f, 2.37963833e-02f, 5.50993569e-02f, 1.13372862e-01f, 5.73106147e-02f,
  1.31236434e-01f, -7.66579881e-02f, -1.74329147e-01f, -3.57826464e-02f, 1.18543878e-01f, -6.52750731e-02f,
  5.27006984e-02f, -1.70322776e-01f, 3.78212519e-02f, -1.33812100e-01f, -3.34564477e-01f, -2.07806423e-01f,
  -2.33730637e-02f, -1.83521301e-01f, 3.64819854e-01f, 6.69485033e-02f, 2.73169018e-02f, 1.65841043e-01f,
  1.85384363e-01f, 1.98909461e-01f, -1.26639664e-01f, 2.71301061e-01f, 6.07441217e-02f, 3.39518666e-01f,
  8.27173516e-02f, 6.42197281e-02f, -2.01815039e-01f, -2.67667890e-01f, 3.28374840e-02f, 2.01938190e-02f,
  1.56256855e-01f, 6.91345409e-02f, -1.59798563e-01f, -1.30687356e-01f, 2.33781174e-01f, 2.60736868e-02f,
  2.00746208e-02f, -1.86208248e-01f, 3.66076320e-01f, -8.34182724e-02f, 3.01473271e-02f, -1.73957348e-01f,
  2.21888982e-02f, -3.63120660e-02f, 1.51192948e-01f, 9.07281339e-02f, -4.27029282e-01f, 1.25049308e-01f,
  1.74517557e-02f, 5.41466996e-02f, -2.90080786e-01f, 3.24946791e-01f, 2.62804359e-01f, -2.14457829e-02f,
  -1.81034192e-01f, 1.52792856e-02f, -1.16466478e-01f, -2.71025956e-01f, -1.48907468e-01f, 3.54627132e-01f,
  -2.73616046e-01f, -1.39117464e-02f, -1.84273496e-01f, 1.01908863e-01f, 1.82275012e-01f, 2.85188019e-01f,
  1.90673187e-01f, 2.19317138e-01f, -1.31141454e-01f, 3.98093387e-02f, -8.75095725e-02f, 2.29109198e-01f,
  -1.84668731e-02f, -6.03657179e-02f, 1.27692640e-01f, -1.15268320e-01f, -8.50457624e-02f, -4.43657428e-01f,
  -1.94131538e-01f, 7.26740435e-02f, -1.02085181e-01f, 3.36520404e-01f, -2.51816958e-02f, 1.79472446e-01f,
  2.40437180e-01f, -2.37478033e-01f, -9.12909508e-02f, -4.32932712e-02f, 3.74853909e-01f, -2.81000555e-01f,
  -1.83274195e-01f, 3.19422036e-02f, -2.46800154e-01f, 2.52803471e-02f, -3.54006112e-01f, 5.45675941e-02f,
  -3.18297207e-01f, 7.16859475e-02f, -1.71010464e-01f, 3.44088376e-02f, 1.52197154e-02f, 1.71411317e-02f,
  1.60605744e-01f, 4.06019017e-02f, 3.13784778e-01f, -4.90534157e-01f, 4.76085208e-02f, 1.88218690e-02f,
  -2.47807071e-01f, 6.47373572e-02f, -3.86131182e-02f, -1.24357015e-01f, -3.50941718e-01f, 1.13114178e-01f,
  9.72795710e-02f, 2.81377196e-01f, 8.95199087e-03f, 8.56163427e-02f, -3.75973061e-02f, -2.32042372e-02f,
  -2.23224640e-01f, -9.41760242e-02f, -3.30336750e-01f, 5.78802153e-02f, 4.01632227e-02f, 1.17733717e-01f,
  6.94494694e-02f, 4.90263291e-02f, 1.14180647e-01f, -6.87635019e-02f, -1.50129333e-01f, -6.36566356e-02f,
  -4.16257828e-01f, 5.41523285e-03f, -8.04441273e-02f, 2.80676872e-01f, -2.05008641e-01f, -1.44693255e-01f,
  -1.06301807e-01f, -6.02607839e-02f, 9.15620551e-02f, 2.12660685e-01f, -1.71087578e-01f, -1.64609887e-02f,
  -2.16001570e-02f, 2.07969531e-01f, -7.63093308e-02f, 7.93475956e-02f, 7.21441954e-02f, 8.96573663e-02f,
  8.74178335e-02f, -5.50983660e-02f, -9.10331681e-02f, 1.90798178e-01f, 4.60468717e-02f, -3.26029072e-03f,
  5.26091456e-03f, 1.46281105e-02f, -3.44266705e-02f, 1.68633889e-02f, -5.03309667e-02f, 3.66782814e-01f,
  -3.84905608e-03f, -2.00237110e-01f, -1.02498688e-01f, 1.37787223e-01f, -1.05803795e-01f, 1.64071135e-02f,
  2.13462561e-01f, 2.14992583e-01f, 7.99602345e-02f, 1.34963706e-01f, -8.87785256e-02f, 1.89893752e-01f,
  8.29239711e-02f, -8.89460668e-02f, 1.90313514e-02f, -1.62820667e-01f, 2.12442055e-01f, -3.79003942e-01f,
  -2.06589088e-01f, -5.45022935e-02f, -1.98542312e-01f, -1.37024641e-01f, -4.79533039e-02f, 3.23674202e-01f,
  -1.34009346e-01f, -2.39246845e-01f, 9.84312370e-02f, 3.62528488e-02f, -1.62347332e-01f, -8.61378834e-02f,
  -1.67723596e-01f, -3.05142224e-01f, -2.16493651e-01f, -4.74204011e-02f, 1.51989967e-01f, 3.26345526e-02f,
  1.42472595e-01f, -3.19536477e-01f, -1.93569604e-02f, -9.45548937e-02f, -4.22143251e-01f, -1.52857631e-01f,
  -1.20347641e-01f, -2.90307581e-01f, 3.38899523e-01f, 6.63777217e-02f, 4.26784083e-02f, 3.93589884e-01f,
  5.47360852e-02f, 2.32505381e-01f, 1.00875378e-01f, -7.73936450e-01f, -1.14651434e-01f, 3.53391528e-01f,
  2.70325243e-01f, -1.31318852e-01f, 1.91340074e-01f, -4.41756621e-02f, 3.15616071e-01f, -1.24750666e-01f,
  -8.71541649e-02f, 2.70840466e-01f, 2.28276908e-01f, -5.09288073e-01f, 1.77653749e-02f, -2.74845332e-01f,
  -1.71411142e-01f, 1.62557229e-01f, -4.74518359e-01f, -4.99394268e-01f, 1.77953333e-01f, -5.06149113e-01f,
  1.11901037e-01f, -2.34023616e-01f, 3.67191702e-01f, 1.13638543e-01f, 8.97034109e-02f, -3.36193115e-01f,
  5.02187490e-01f, -1.40300943e-02f, 3.33144814e-01f, 1.01586334e-01f, 7.82845318e-02f, 1.15863851e-03f,
  -8.40703771e-02f, -1.65905654e-01f, 3.05758622e-02f, -3.36883932e-01f, 2.38336980e-01f, -9.34509411e-02f,
  -3.59669119e-01f, 9.96638313e-02f, 4.71568644e-01f, 1.89655170e-01f, -2.49758586e-01f, 1.69162735e-01f,
  -1.77624136e-01f, -9.88415405e-02f, -2.97441095e-01f, 1.09236531e-01f, 2.31889397e-01f, 6.61097243e-02f,
  -1.01713731e-03f, 1.85294345e-01f, -1.23642109e-01f, -2.06025958e-01f, 4.82704610e-01f, 9.25081223e-02f,
  -2.82177508e-01f, -2.31460884e-01f, 4.88554001e-01f, -1.52104661e-01f, -1.05746605e-01f, 1.53335929e-01f,
  -1.16905823e-01f, -3.30923706e-01f, 9.72676873e-02f, 3.56679440e-01f, -2.09542274e-01f, 1.89809456e-01f,
  -3.27619821e-01f, -1.34708494e-01f, 1.30884964e-02f, 3.05633128e-01f, -5.19802511e-01f, -4.97572031e-03f,
  3.36163640e-01f, 2.39579335e-01f, -3.03183973e-01f, -2.33024269e-01f, -1.45522282e-01f, 5.73501289e-01f,
  -1.65840834e-01f, 6.57962441e-01f, -1.56135082e-01f, -2.26896733e-01f, 3.14839482e-01f, 9.52557027e-02f,
  3.34503412e-01f, 1.10680878e-01f, -1.00975551e-01f, 2.33408585e-01f, 7.16988295e-02f, 3.60139906e-01f,
  -3.20310086e-01f, -4.44957256e-01f, -2.60008335e-01f, 8.84651542e-02f, 1.64272964e-01f, -2.05017954e-01f,
  9.49579179e-02f, 4.11955081e-03f, -3.28569442e-01f, -1.24350183e-01f, 6.39686584e-02f, 1.27046809e-01f,
  5.52918836e-02f, -7.95341879e-02f, 6.31944090e-03f, 3.26424062e-01f, 3.23249474e-02f, 1.57102160e-02f,
  -4.78471704e-02f, -3.45293432e-01f, -1.57090239e-02f, 6.53973147e-02f, -1.34694472e-01f, -2.37440839e-01f,
  1.72424167e-01f, 2.00491488e-01f, -7.84109160e-02f, 2.06541047e-01f, 1.44707248e-01f, 5.18014804e-02f,
  5.17768152e-02f, 1.00253373e-01f, 1.34866089e-01f, -1.35299996e-01f, 3.65479477e-02f, 1.31152287e-01f,
  -2.51578838e-01f, 4.06069636e-01f, -3.56569365e-02f, -2.84661278e-02f, 5.58582187e-01f, 2.14882474e-02f,
  -1.36625767e-01f, -2.98434049e-01f, -1.57384276e-01f, 3.05889975e-02f, -1.86933398e-01f, -5.17572045e-01f,
  4.31525946e-01f, -5.75441606e-02f, -2.07145333e-01f, -1.48241743e-01f, -1.02644116e-01f, -1.84978396e-01f,
  -1.79254681e-01f, 4.90770489e-01f, 1.16208762e-01f, -1.53560683e-01f, -3.27350944e-01f, -2.73867399e-01f,
  2.04802454e-02f, -5.70709519e-02f, 1.81103066e-01f, -1.73575088e-01f, 4.25217152e-02f, -6.58813417e-02f,
  -1.43345175e-02f, 2.33779456e-02f, -3.22791934e-01f, 4.53655183e-01f, 3.08685660e-01f, 7.01944008e-02f,
  -1.42977610e-01f, 3.53852451e-01f, 2.17338745e-02f, 6.69389516e-02f, 1.21596195e-01f, 4.46099527e-02f,
  -8.18392448e-03f, 5.44518344e-02f, -1.35483086e-01f, 3.59450966e-01f, -2.83319622e-01f, -4.45172377e-02f,
  -2.60673791e-01f, -9.70937982e-02f, -1.14136033e-01f, -9.66383144e-02f, -5.09614110e-01f, 2.88400846e-03f,
  1.62796482e-01f, -1.41210675e-01f, 2.03410655e-01f, 2.38109194e-02f, 8.59490409e-02f, -3.30609567e-02f,
  1.28491774e-01f, 2.37194136e-01f, -7.61243328e-02f, 3.58195782e-01f, 1.43203199e-01f, 1.49212535e-02f,
  1.45866767e-01f, -2.95320392e-01f, 9.44412202e-02f, -8.88853241e-03f, -4.10131276e-01f, -3.50092910e-02f,
  -9.54836980e-02f, 6.15797900e-02f, -3.36243659e-01f, -9.31748152e-02f, -1.50621027e-01f, -1.61335841e-02f,
  -2.95200236e-02f, -3.38897556e-01f, 3.00540596e-01f, -9.98088568e-02f, 1.06950387e-01f, 3.03507447e-01f,
  3.67636144e-01f, 8.27340176e-04f, 1.77300975e-01f, 1.34603471e-01f, -5.32491982e-01f, -1.67942986e-01f,
  -1.53070772e-02f, -3.41752507e-02f, -6.47180006e-02f, 4.28167731e-01f, -2.00060055e-01f, -4.38629746e-01f,
  -4.76629466e-01f, -1.05219901e-01f, -1.73726290e-01f, -9.57348198e-02f, 6.07299898e-03f, -4.54377271e-02f,
  -3.30983624e-02f, 1.91517174e-02f, -3.96574855e-01f, -3.05819958e-01f, 3.84703338e-01f, 8.95441845e-02f,
  1.49377868e-01f, -2.00278997e-01f, -8.21011290e-02f, 2.64406484e-02f, 4.70930226e-02f, 7.74561986e-02f,
  5.79634607e-02f, -2.63452847e-02f, -2.96951592e-01f, 2.89532065e-01f, 2.39646852e-01f, 3.33406985e-01f,
  2.23012775e-01f, 1.31486833e-01f, 5.79008386e-02f, 1.23488583e-01f, 1.63548723e-01f, 3.23623568e-01f,
  -1.85394481e-01f, 2.28263170e-01f, -5.31241589e-04f, -1.98804200e-01f, -3.73158872e-01f, 2.12346792e-01f,
  8.53900313e-01f, 4.45253491e-01f, 2.97832400e-01f, -3.35777253e-01f, -1.81248963e-01f, -1.38287852e-02f,
  5.59768528e-02f, -2.44882226e-01f, -2.52917595e-02f, -1.13782994e-01f, -1.74762055e-01f, 4.88426313e-02f,
  -4.49772514e-02f, 3.11581194e-01f, -1.52131125e-01f, 3.67460251e-01f, -1.71629384e-01f, -1.48623720e-01f,
  6.79256320e-02f, 5.53417914e-02f, -4.96464074e-02f, 3.69520813e-01f, 2.97663450e-01f, -1.33457914e-01f,
  -3.44495326e-02f, -1.95430949e-01f, -6.68503270e-02f, -3.77957672e-01f, -2.12425530e-01f, 1.12598844e-01f,
  2.77293354e-01f, -1.91176265e-01f, -1.24641387e-02f, 4.04641062e-01f, 1.31380204e-02f, 2.60225743e-01f,
  -1.60414893e-02f, 7.04455450e-02f, 9.42608416e-02f, 7.59805217e-02f, -2.98250824e-01f, 7.30501581e-03f,
  4.49157832e-03f, -3.67881991e-02f, 1.15438618e-01f, 4.26346585e-02f, -2.91017815e-02f, -1.15801387e-01f,
  -3.82382870e-01f, -1.28870785e-01f, -1.27198696e-01f, -1.26815230e-01f, 4.25712973e-01f, -3.05147599e-02f,
  4.92266007e-02f, 1.47053406e-01f, 1.92757964e-01f, 2.17765465e-01f, -3.11466545e-01f, 3.42445970e-01f,
  1.08041435e-01f, 3.08368295e-01f, -5.82564510e-02f, -4.36645448e-02f, -3.48398864e-01f, -1.11982986e-01f,
  -2.15065349e-02f, 1.45922571e-01f, 3.63960385e-01f, 2.35149398e-01f, -1.32008091e-01f, -1.42637342e-01f,
  2.42698744e-01f, 3.87046970e-02f, -7.81215206e-02f, -9.30583626e-02f, 1.62851602e-01f, 1.61003752e-03f,
  -1.41584933e-01f, -7.17218518e-02f, -1.88432783e-01f, 3.85989733e-02f, 2.93640308e-02f, -8.68478790e-02f,
  -2.53420144e-01f, 2.07572833e-01f, -2.97466088e-02f, 5.27755767e-02f, -2.30035350e-01f, 4.08141196e-01f,
  2.15868697e-01f, 4.95377295e-02f, -2.85460681e-01f, 7.03924894e-02f, -9.67302546e-02f, -2.36271307e-01f,
  -3.55071947e-02f, 2.87404358e-01f, -2.92952150e-01f, 1.03975594e-01f, -3.26263636e-01f, 1.22704670e-01f,
  2.65681267e-01f, 2.93637753e-01f, 2.85044670e-01f, 2.46611074e-01f, -9.33599100e-03f, -7.28499368e-02f,
  -1.24076284e-01f, 3.79113853e-01f, 2.82455653e-01f, -8.26509669e-02f, 8.21966752e-02f, -2.90182307e-02f,
  -2.75819078e-02f, -3.20392638e-01f, -1.99792594e-01f, 4.60023321e-02f, -1.24145769e-01f, 2.12739870e-01f,
  -5.32002859e-02f, 1.73448086e-01f, 3.42885256e-01f, -1.06047794e-01f, -5.75905703e-02f, -9.78696719e-03f,
  2.53488213e-01f, -1.13982223e-01f, -2.59858876e-01f, -1.37961637e-02f, -2.19518781e-01f, 1.37287781e-01f,
  -3.12871456e-01f, 6.57124370e-02f, -4.12972242e-01f, 1.28365263e-01f, -1.71005264e-01f, 9.55892131e-02f,
  1.29969433e-01f, 1.97529942e-01f, 1.54071897e-01f, -9.33255777e-02f, 2.43545517e-01f, -2.74355352e-01f,
  1.21320739e-01f, 8.00236315e-02f, -3.79998565e-01f, 3.32864635e-02f, 3.71058322e-02f, -1.36781543e-01f,
  -4.15628701e-01f, -3.22117284e-02f, 8.83547217e-02f, 2.19224125e-01f, -4.12838943e-02f, -9.34558660e-02f,
  -6.69647902e-02f, -9.64706466e-02f, -3.28604639e-01f, 9.60729178e-03f, -3.19127023e-01f, 1.09960534e-01f,
  2.13108823e-01f, 9.50044915e-02f, 1.30518660e-01f, -1.12013541e-01f, 2.57256031e-01f, -2.07157537e-01f,
  -1.14417054e-01f, -1.03530020e-01f, -4.61292267e-01f, 1.09717757e-01f, 6.69264123e-02f, 1.98829934e-01f,
  -1.90855697e-01f, -8.96968096e-02f, 3.25259864e-02f, -6.17456995e-03f, -2.50832010e-02f, 1.96917757e-01f,
  -2.78388351e-01f, 8.09137896e-02f, 9.23088863e-02f, 1.87545657e-01f, 2.66824625e-02f, 2.69039989e-01f,
  7.66565055e-02f, 9.04070884e-02f, 9.58967656e-02f, -1.57364368e-01f, -4.32029702e-02f, 7.59941190e-02f,
  -1.97435748e-02f, 7.72324577e-02f, -1.08922310e-01f, -5.31606674e-02f, -3.50710899e-02f, 3.62319164e-02f,
  -1.67140767e-01f, 1.90231964e-01f, 2.35110950e-02f, -3.05260330e-01f, -6.35725781e-02f, 2.78089549e-02f,
  -2.97120541e-01f, -1.48574151e-02f, 4.47714657e-01f, 1.71720967e-01f, 4.48775813e-02f, 2.47843131e-01f,
  1.48117393e-02f, 1.62270457e-01f, 9.23343226e-02f, -1.66704178e-01f, 6.50044084e-02f, -2.10407808e-01f,
  2.05279589e-01f, -1.83021843e-01f, -3.36723119e-01f, -9.15352479e-02f, -8.08906481e-02f, -4.45127636e-02f,
  -9.36360210e-02f, 2.92282403e-01f, -1.20826989e-01f, -3.18813741e-01f, 2.73575634e-01f, 5.67789227e-02f,
  -6.82179183e-02f, -1.21608175e-01f, -3.11960936e-01f, -2.08561093e-01f, -1.28443152e-01f, 6.24852404e-02f,
  2.07466647e-01f, -4.98459004e-02f, 2.35696495e-01f, -3.83632481e-01f, 6.13170629e-03f, -3.50351818e-02f,
  -3.43571156e-01f, -8.83999467e-02f, -2.67463386e-01f, -1.48709908e-01f, 3.32550406e-01f, 8.36821720e-02f,
  -8.92093256e-02f, 3.73915702e-01f, 1.15813024e-01f, 6.30071834e-02f, 1.87456456e-03f, -6.57309711e-01f,
  -5.42733893e-02f, 3.95526588e-01f, 2.32821867e-01f, -2.71386243e-02f, 1.52562276e-01f, -1.02341205e-01f,
  2.90663421e-01f, -2.51310706e-01f, -1.53622091e-01f, 2.51230419e-01f, 9.66814011e-02f, -3.14547837e-01f,
  -2.72681341e-02f, -2.58897126e-01f, -1.04648232e-01f, 2.70760879e-02f, -4.76064712e-01f, -3.13767970e-01f,
  1.43479556e-01f, -4.85302687e-01f, -1.53759122e-01f, -2.70008385e-01f, 3.15934271e-01f, 1.18595913e-01f,
  1.94956630e-01f, -4.03245479e-01f, 5.21888077e-01f, -1.03020765e-01f, 2.47276932e-01f, 2.13176057e-01f,
  1.18961586e-02f, 2.05406416e-02f, -1.75021738e-01f, -8.57929140e-02f, -2.93048937e-03f, -4.77287203e-01f,
  3.54985625e-01f, -2.23284680e-02f, -3.00332576e-01f, 1.71637759e-01f, 3.40036631e-01f, 2.12672561e-01f,
  -3.97132039e-01f, 2.58226674e-02f, -1.32112473e-01f, -1.03553012e-01f, -1.99818969e-01f, 3.28718513e-01f,
  2.81085074e-01f, -5.10023395e-03f, -1.93673581e-01f, 2.37146974e-01f, -1.25524327e-01f, -1.34616777e-01f,
  2.54139751e-01f, 2.66240574e-02f, -3.32349837e-01f, -2.67374128e-01f, 5.07098556e-01f, -3.51244271e-01f,
  6.18781261e-02f, 7.77949318e-02f, -1.53790012e-01f, -1.64252326e-01f, 1.57406107e-01f, 3.83989006e-01f,
  -2.21289486e-01f, 1.83818892e-01f, -2.90554196e-01f, -2.86272734e-01f, 1.04571238e-01f, 2.63115019e-01f,
  -3.40648651e-01f, 1.77113056e-01f, 3.21420401e-01f, 3.64848197e-01f, -1.77911133e-01f, -1.07474558e-01f,
  2.38562375e-02f, 6.42639279e-01f, -2.59297848e-01f, 5.60794950e-01f, -2.95232892e-01f, -1.00468636e-01f,
  1.34492517e-01f, 1.87148243e-01f, 1.75031066e-01f, 1.00210279e-01f, -1.71440065e-01f, 2.82355756e-01f,
  1.20126598e-01f, 2.72392690e-01f, -2.87570983e-01f, -2.32682243e-01f, -1.36351421e-01f, 2.88276136e-01f,
  1.87308103e-01f, -2.11445630e-01f, 2.20075492e-02f, -1.02285586e-01f, -2.97348410e-01f, -2.90639773e-02f,
  2.20065817e-01f, -8.09290558e-02f, -6.00426123e-02f, 1.15580805e-01f, -7.96553120e-02f, 2.99957126e-01f,
  2.49062236e-02f, -1.46878019e-01f, -1.10992871e-01f, -1.99602649e-01f, 1.03573382e-01f, -9.52781662e-02f,
  8.26756880e-02f, -2.24181712e-01f, 1.86319262e-01f, 3.38906854e-01f, -1.84791327e-01f, 2.94981509e-01f,
  1.35171851e-02f, 6.94532096e-02f, 2.80144531e-02f, 7.49256611e-02f, 9.50962007e-02f, 8.20001438e-02f,
  6.08103238e-02f, 1.12127841e-01f, -1.52198359e-01f, 3.37526530e-01f, 1.10846378e-01f, -3.01382784e-02f,
  4.66327459e-01f, 1.37759089e-01f, 2.95449607e-03f, -2.11374179e-01f, -2.40976214e-01f, 1.81744605e-01f,
  -1.74381301e-01f, -3.92107159e-01f, 5.43354273e-01f, 1.14077836e-01f, -1.19811684e-01f, -4.45576236e-02f,
  -8.15418288e-02f, -2.03893647e-01f, -2.31109992e-01f, 5.31283200e-01f, 1.38876170e-01f, -1.09112360e-01f,
  -4.31254983e-01f, -2.02239648e-01f, -2.96423561e-03f, -2.13939935e-01f, 2.15510383e-01f, -1.87148273e-01f,
  1.93596244e-01f, 9.82705951e-02f, 7.76177570e-02f, 1.19968310e-01f, -4.50705826e-01f, 5.16617358e-01f,
  1.15486450e-01f, -5.57229258e-02f, 6.24189666e-03f, 1.88117310e-01f, 3.86492349e-02f, -2.19674557e-02f,
  1.09581977e-01f, 1.21194951e-01f, 1.18362710e-01f, -1.39691666e-01f, -1.71472691e-02f, 3.76087129e-01f,
  -2.38656029e-01f, -8.35055858e-02f, -1.16721980e-01f, 7.77825862e-02f, -1.62978455e-01f, -8.02924111e-02f,
  -3.32020819e-01f, 5.01015373e-02f, 2.62728661e-01f, -1.11405835e-01f, 2.54201382e-01f, -4.32067662e-02f,
  5.49296290e-02f, -2.85022855e-02f, 2.42027387e-01f, 1.78737998e-01f, -9.15154964e-02f, 4.12798405e-01f,
  1.36333704e-01f, 5.37460484e-02f, 8.97293016e-02f, -2.24609688e-01f, 1.51877701e-01f, 9.31020901e-02f,
  -2.78202921e-01f, -1.65449530e-01f, -1.30058527e-01f, 2.25008070e-01f, -8.46054330e-02f, -1.19332172e-01f,
  -1.82895079e-01f, 6.67452291e-02f, 1.26623780e-01f, -4.87827450e-01f, 2.44869769e-01f, 5.52749075e-02f,
  2.94916421e-01f, 4.00433123e-01f, 3.86282772e-01f, 7.34881610e-02f, 2.69202262e-01f, 3.68281566e-02f,
  -5.60924649e-01f, -2.17830658e-01f, 9.76547152e-02f, 4.53048851e-04f, -3.95576246e-02f, 4.42007363e-01f,
  -7.45013803e-02f, -4.90314364e-01f, -4.87397105e-01f, 1.95998102e-02f, -5.84695153e-02f, 1.03576846e-01f,
  -1.09815635e-01f, 7.56076872e-02f, -1.19829945e-01f, 1.80922195e-01f, -2.95488209e-01f, -2.25430414e-01f,
  3.29210222e-01f, 5.58700003e-02f, 6.25157058e-02f, -1.27850860e-01f, -1.02152638e-01f, 8.10177550e-02f,
  1.41363606e-01f, 2.28652358e-01f, -1.42026749e-02f, 1.54376358e-01f, -2.01753169e-01f, 2.79620469e-01f,
  1.70540214e-01f, 3.50495398e-01f, 2.50265121e-01f, 1.49245650e-01f, 1.77496046e-01f, 2.82633662e-01f,
  5.27349673e-02f, 2.65324056e-01f, -1.51163176e-01f, 3.37250233e-01f, 1.60711870e-01f, -1.46862119e-01f,
  -5.25783658e-01f, 8.74428600e-02f, 5.77036619e-01f, 3.81464005e-01f, 2.68734246e-01f, -1.59521475e-01f,
  -1.43174872e-01f, 1.14139266e-01f, 2.03421414e-01f, -3.08480769e-01f, -7.73394201e-03f, -4.66672331e-02f,
  -1.21491201e-01f, 2.41712615e-01f, -3.86970565e-02f, 2.48049989e-01f, -2.93961428e-02f, 4.31429952e-01f,
  -1.02164656e-01f, -1.33383155e-01f, 1.69178799e-01f, 6.54540816e-03f, -3.65269519e-02f, 2.53092647e-01f,
  1.58693314e-01f, -4.29797657e-02f, 6.48448691e-02f, -1.30881324e-01f, -1.80162027e-01f, -1.03144012e-01f,
  -1.85714766e-01f, 1.44882694e-01f, 3.09338987e-01f, -3.66101265e-01f, -2.44545732e-02f, 3.82828951e-01f,
  8.09568539e-03f, 1.86211884e-01f, -3.68912779e-02f, 2.20708147e-01f, 3.06328624e-01f, 3.70272137e-02f,
  -3.44095826e-01f, -1.02051549e-01f, 1.58590659e-01f, 1.14884026e-01f, 1.16605826e-01f, 2.98290979e-02f,
  -3.85969244e-02f, -9.49318707e-02f, -2.91359931e-01f, -2.36795112e-01f, 4.18242030e-02f, 1.17232122e-01f,
  3.50991249e-01f, 1.21875286e-01f, 7.76628479e-02f, 2.45053887e-01f, 2.80362099e-01f, 3.01718950e-01f,
  -2.52497077e-01f, 2.09993333e-01f, 1.48109421e-01f, 2.06805572e-01f, 1.99687891e-02f, -1.07304662e-01f,
  -2.92908490e-01f, -1.73899472e-01f, -7.92997107e-02f, 3.43605690e-02f, 6.42402411e-01f, 1.94552034e-01f,
  -2.63992131e-01f, -2.27791697e-01f, 2.03239396e-01f, -1.02109589e-01f, 4.16236147e-02f, -2.46892333e-01f,
  2.47014031e-01f, -1.17161453e-01f, -3.72930467e-02f, -1.27121508e-01f, -1.60039008e-01f, 9.92107466e-02f,
  -8.26798901e-02f, -7.95822218e-02f, -1.77885488e-01f, 1.16824105e-01f, 1.06523857e-01f, 5.76270632e-02f,
  -1.69894904e-01f, 3.68704468e-01f, 1.41135529e-01f, 1.29105732e-01f, -2.92645246e-01f, 1.19830862e-01f,
  -1.06615297e-01f, -4.92129661e-02f, 6.69878721e-02f, 4.03689802e-01f, -1.66070074e-01f, 5.62023409e-02f,
  -2.39731312e-01f, 9.44589153e-02f, 2.35611245e-01f, 2.16182768e-01f, 1.74607471e-01f, 2.93474853e-01f,
  -1.18302487e-01f, 3.12975422e-02f, -8.62367898e-02f, 3.47560346e-01f, 4.55790997e-01f, -1.00366443e-01f,
  7.41126984e-02f, -5.39672822e-02f, -1.99817251e-02f, -3.54265064e-01f, -1.92561433e-01f, 5.72401732e-02f,
  -1.13982528e-01f, 1.78705543e-01f, -1.94097403e-02f, 7.65909776e-02f, 2.82236695e-01f, -8.16259161e-02f,
  -9.75695401e-02f, -3.05227805e-02f, 1.85198888e-01f, -8.35254416e-02f, -1.80559948e-01f, 9.35268402e-02f,
  -1.98008850e-01f, 1.80754960e-01f, -2.50760943e-01f, 4.49528620e-02f, -5.25584340e-01f, 1.68775782e-01f,
  -1.16778113e-01f, 1.73284084e-01f, 1.32516116e-01f, 2.43482441e-01f, 1.50542408e-01f, 5.19900732e-02f,
  1.66756958e-01f, -2.89826691e-01f, 6.10704869e-02f, 1.59418002e-01f, -2.13229507e-01f, -1.18375242e-01f,
  -7.01131374e-02f, -4.93904110e-03f, -4.26940709e-01f, -2.67329048e-02f, 2.55800068e-01f, 5.47996431e-04f,
  -1.84717447e-01f, -2.05094144e-01f, -1.80471227e-01f, -4.44746874e-02f, -2.96808511e-01f, 2.15451568e-01f,
  -7.64926821e-02f, 1.26670795e-02f, 1.31986290e-01f, 1.79438263e-01f, 3.09279144e-01f, 6.60834461e-02f,
  2.33210266e-01f, -5.46820350e-02f, -9.30907354e-02f, -7.63760358e-02f, -5.32756865e-01f, -6.81946352e-02f,
  -4.41880804e-03f, 1.70703560e-01f, 5.91423251e-02f, -1.23559862e-01f, 1.45363025e-02f, -4.86584343e-02f,
  -1.67148843e-01f, 1.88121304e-01f, -1.42586619e-01f, 1.73133269e-01f, 1.33836523e-01f, 3.42805177e-01f,
  -1.29928276e-01f, 1.13858365e-01f, 6.54315874e-02f, 8.33862424e-02f, 1.08032413e-01f, -1.52675152e-01f,
  -9.64907184e-02f, 4.03325707e-02f, 7.33745694e-02f, 3.07405647e-02f, -6.78337589e-02f, 1.04585905e-02f,
  -1.11972645e-01f, 9.49662998e-02f, -2.47389123e-01f, 3.43237936e-01f, -5.38633652e-02f, -2.03614995e-01f,
  4.92825061e-02f, 5.64246960e-02f, -1.26962170e-01f, 1.21371917e-01f, 3.83947939e-01f, 1.73526764e-01f,
  1.69417068e-01f, 2.99593985e-01f, -1.52838320e-01f, 1.91085324e-01f, 9.57025662e-02f, -1.76352888e-01f,
  8.65099207e-02f, -9.63893458e-02f, 3.07324529e-01f, -3.01688850e-01f, -1.15167484e-01f, -1.49912894e-01f,
  -1.07958101e-01f, -3.81944259e-03f, -2.04100356e-01f, 3.91916275e-01f, 4.77194740e-03f, -4.93880570e-01f,
  2.49179423e-01f, 9.35454890e-02f, -9.08609852e-02f, 3.64084402e-03f, -2.08231926e-01f, -1.07322313e-01f,
  2.43598763e-02f, 1.15199685e-02f, 2.51982480e-01f, -2.08720788e-02f, 1.25834465e-01f, -2.28820965e-01f,
  -8.75245705e-02f, 7.74254128e-02f, -3.47645253e-01f, -2.14679107e-01f, -1.59602210e-01f, -1.29147872e-01f,
  2.61026651e-01f, 1.60397992e-01f, -2.72387624e-01f, 2.21957028e-01f, 1.57869756e-01f, -5.23332991e-02f,
  -1.85533483e-02f, -5.65516651e-01f, -3.87262180e-02f, 3.42797697e-01f, 2.43506461e-01f, -6.02092259e-02f,
  2.04705760e-01f, -3.02996427e-01f, 2.08619297e-01f, -2.99625814e-01f, -1.46665514e-01f, 1.89154185e-02f,
  2.36109644e-01f, -3.12921554e-01f, -1.43539935e-01f, -2.46778056e-01f, -9.74048376e-02f, -2.26896316e-01f,
  -4.46338475e-01f, -1.48056343e-01f, 1.64436400e-01f, -2.87338316e-01f, -1.88457727e-01f, -2.23590374e-01f,
  2.68658996e-01f, 3.80010679e-02f, 3.48350853e-01f, -4.89635319e-01f, 3.68403941e-01f, -9.96213406e-02f,
  2.21302390e-01f, 9.23322365e-02f, 2.85862051e-02f, 1.08518161e-01f, -2.55278677e-01f, -8.70660543e-02f,
  -1.37129441e-01f, -2.68955052e-01f, 2.86633402e-01f, 8.14184472e-02f, -1.70869559e-01f, 2.75385324e-02f,
  2.82622576e-01f, 3.08626920e-01f, -2.55369604e-01f, 1.24456570e-01f, 5.44515476e-02f, -8.77551064e-02f,
  -2.32710317e-01f, 1.92494377e-01f, 3.18201810e-01f, -8.25276226e-03f, -1.12516314e-01f, 1.73926484e-02f,
  -1.69612333e-01f, -5.56803830e-02f, 1.27432421e-01f, 1.86011642e-02f, -2.71708190e-01f, -2.44468048e-01f,
  3.64785194e-01f, -1.80197686e-01f, 2.20863432e-01f, 1.25494346e-01f, -3.45033384e-03f, -2.16090098e-01f,
  1.56199411e-01f, 3.72676820e-01f, -2.25880325e-01f, 1.79712608e-01f, -2.54081190e-01f, -1.86482772e-01f,
  1.86748728e-01f, 5.08902557e-02f, -9.77645144e-02f, 1.64369345e-01f, 2.32178360e-01f, 1.92305401e-01f,
  -2.49868631e-02f, -1.76504672e-01f, 4.64792065e-02f, 5.84986746e-01f, -1.10394970e-01f, 3.49720091e-01f,
  -3.03897798e-01f, -1.65004000e-01f, 2.23569408e-01f, 2.29494080e-01f, 2.93457419e-01f, 8.10971111e-03f,
  -1.05584554e-01f, 1.88881934e-01f, 1.61449969e-01f, 8.57489705e-02f, -4.34040993e-01f, -2.06361994e-01f,
  -1.00542940e-01f, 1.62070245e-01f, 7.52023309e-02f, -4.58941944e-02f, 2.82648858e-02f, 1.71811953e-01f,
  -1.76161602e-01f, -5.76182082e-02f, 1.31434888e-01f, -1.13513947e-01f, -1.84551403e-02f, 1.81128830e-01f,
  -6.48820028e-02f, 1.81434646e-01f, -4.13496234e-02f, -2.87623882e-01f, -6.00831807e-02f, -2.68324167e-01f,
  1.23567298e-01f, -3.43531221e-02f, 1.73433885e-01f, -2.60092795e-01f, 1.34415567e-01f, 2.87387729e-01f,
  -9.79449823e-02f, 2.25976780e-01f, 1.23843089e-01f, 2.35835183e-02f, 3.51191051e-02f, 2.04159170e-01f,
  1.16693735e-01f, -1.62827857e-02f, -4.04537953e-02f, 3.22653174e-01f, -1.34405717e-01f, 5.08691251e-01f,
  1.55864730e-01f, -6.45097420e-02f, 3.24278086e-01f, 4.76899780e-02f, 1.17288455e-02f, -8.09559301e-02f,
  -9.39418525e-02f, 8.50221664e-02f, -1.30765095e-01f, -3.89313281e-01f, 4.42788929e-01f, 9.48204920e-02f,
  -1.76682398e-01f, -5.03470525e-02f, 6.83938013e-03f, -3.15402597e-01f, -6.81862608e-02f, 6.13065839e-01f,
  -4.66594473e-02f, -4.03979421e-02f, -2.98715830e-01f, -1.43639892e-01f, 5.81448190e-02f, -2.73234636e-01f,
  2.18963876e-01f, -1.95607096e-01f, 1.69587255e-01f, -8.92515555e-02f, 2.26179391e-01f, 6.67920932e-02f,
  -3.94247890e-01f, 3.66334081e-01f, 1.81380004e-01f, 7.80023932e-02f, 7.99196400e-03f, 2.31465206e-01f,
  -3.76935787e-02f, 1.12425936e-02f, 2.24296361e-01f, 1.42526954e-01f, 1.10319788e-02f, -1.00032292e-01f,
  4.55894284e-02f, 3.94046456e-01f, -7.09697306e-02f, -2.87764966e-02f, -7.99852908e-02f, 1.69130221e-01f,
  -2.85069108e-01f, -5.87896146e-02f, -4.64262962e-01f, -4.01102714e-02f, 2.07341671e-01f, 4.51897085e-02f,
  1.48871258e-01f, -3.38783264e-02f, 7.26004094e-02f, 1.28528208e-01f, 4.74267341e-02f, 2.08190382e-01f,
  -2.73054630e-01f, 3.60108435e-01f, -1.36532653e-02f, -2.55056340e-02f, 2.16625527e-01f, -2.72968918e-01f,
  1.02781408e-01f, 1.92941517e-01f, -2.33453497e-01f, -4.79455814e-02f, -3.43580507e-02f, 2.42334500e-01f,
  -9.83769968e-02f, -1.73539206e-01f, -2.69065768e-01f, 1.10084727e-01f, 3.85712296e-01f, -4.97439891e-01f,
  1.72676757e-01f, -4.17398615e-03f, 1.38413131e-01f, 3.35923016e-01f, 1.85258716e-01f, 2.00494319e-01f,
  1.40088931e-01f, 1.39258727e-01f, -6.21394336e-01f, -1.16111048e-01f, 9.54809710e-02f, -8.98360386e-02f,
  -1.04535073e-01f, 2.98872769e-01f, -8.23852569e-02f, -3.91586483e-01f, -3.97433013e-01f, -8.88864100e-02f,
  -8.76839161e-02f, 2.56705452e-02f, -9.20483097e-02f, 1.95758734e-02f, 8.54507685e-02f, 2.09119588e-01f,
  -3.35387796e-01f, -6.30044341e-02f, 2.81820416e-01f, -4.36155312e-02f, 8.16818774e-02f, -1.86777949e-01f,
  -5.88088408e-02f, -5.34333363e-02f, 1.62195355e-01f, 1.30721167e-01f, 2.20501721e-01f, 2.77459919e-01f,
  -7.13867620e-02f, 1.64964706e-01f, 1.58451766e-01f, 4.65303987e-01f, 1.54923260e-01f, 5.85191837e-03f,
  5.92022203e-02f, 1.18622005e-01f, 7.49194697e-02f, 3.82173955e-01f, -7.38399252e-02f, 2.93473870e-01f,
  1.31224617e-01f, -1.36267558e-01f, -7.03868210e-01f, 2.00570628e-01f, 3.49204183e-01f, 3.74565750e-01f,
  5.54180816e-02f, -7.09876418e-02f, -4.55705039e-02f, 3.47451977e-02f, 2.23197699e-01f, -2.87111163e-01f,
  1.08994238e-01f, -1.76123440e-01f, -5.47447801e-02f, 3.77557606e-01f, -1.51698887e-02f, 1.80158466e-01f,
  -1.52871519e-01f, 4.91855323e-01f, -3.04190040e-01f, -9.02902782e-02f, 6.42250106e-02f, 5.77946333e-03f,
  -1.21862330e-01f, 2.87154615e-01f, 2.44332999e-01f, -4.79875542e-02f, 2.25440804e-02f, -1.89060733e-01f,
  -1.57742649e-01f, -8.93845165e-04f, -3.15520950e-02f, -3.87740023e-02f, 1.87033743e-01f, -2.71156907e-01f,
  -1.31977424e-01f, 3.66036415e-01f, -6.33995421e-03f, 1.52952299e-01f, 1.85272880e-02f, 1.43456191e-01f,
  2.99510181e-01f, 1.38468087e-01f, -2.31103554e-01f, -1.68384090e-01f, 9.91093814e-02f, 1.37388214e-01f,
  2.88074464e-01f, 2.63956666e-01f, 3.75184305e-02f, -2.14359432e-01f, -1.43893614e-01f, -1.35346875e-01f,
  -1.24512449e-01f, 1.77750111e-01f, 3.53085369e-01f, 2.83999927e-02f, 1.08230844e-01f, 1.82912871e-01f,
  1.77985072e-01f, 4.60175537e-02f, -2.64201880e-01f, 4.71891053e-02f, 6.04046173e-02f, 2.06705675e-01f,
  -1.23005494e-01f, 2.80276332e-02f, -4.11087453e-01f, -1.10588625e-01f, -1.60525903e-01f, -2.23185912e-01f,
  8.45279753e-01f, 1.22605547e-01f, -2.16927320e-01f, -2.12093964e-01f, 1.18614908e-03f, 4.95219864e-02f,
  1.39727622e-01f, -3.89329903e-02f, 1.14571303e-01f, -2.90134009e-02f, -1.18800581e-01f, -8.59108269e-02f,
  -1.76445365e-01f, 2.31870025e-01f, -2.19798181e-02f, 3.18036191e-02f, -6.86402395e-02f, 1.36980772e-01f,
  1.96902290e-01f, 9.44652706e-02f, -2.84213088e-02f, 2.38918796e-01f, 1.65545732e-01f, 2.61193603e-01f,
  -9.00190398e-02f, -5.99757629e-03f, 6.54023886e-02f, 1.08064771e-01f, -4.14172076e-02f, 3.90521973e-01f,
  -2.00733468e-01f, 2.22229183e-01f, -6.61738813e-02f, 2.33777672e-01f, 2.77010679e-01f, 2.48681501e-01f,
  2.06862222e-02f, 3.26803476e-01f, 3.76983099e-02f, 3.87452208e-02f, -4.33830358e-02f, 2.81963408e-01f,
  4.73601699e-01f, -6.00061119e-02f, -4.49306145e-02f, -6.02679560e-03f, -8.90151262e-02f, -2.85246313e-01f,
  -1.14011906e-01f, 1.79272860e-01f, -3.08292687e-01f, 7.99026266e-02f, 6.43226132e-02f, 7.04756677e-02f,
  4.32185441e-01f, 8.23911652e-02f, -2.90713429e-01f, -7.32941227e-03f, 2.17409059e-01f, -1.58518285e-01f,
  -1.47045016e-01f, -1.00200862e-01f, -2.35340104e-01f, 1.34337977e-01f, -2.59206384e-01f, 2.10720405e-01f,
  -5.13880849e-01f, 9.56452265e-02f, -8.15647915e-02f, 3.42633650e-02f, -8.99402797e-02f, 2.94445634e-01f,
  2.06795558e-01f, -9.71784145e-02f, 1.90746441e-01f, -1.15778558e-01f, 1.88429758e-01f, 5.84670305e-02f,
  -1.88659236e-01f, -8.63955542e-02f, -4.35522795e-02f, -1.08918324e-01f, -3.31484586e-01f, -1.36787631e-02f,
  1.81752324e-01f, -1.57614559e-01f, -1.27757624e-01f, -4.17042375e-01f, -2.12121442e-01f, -1.81533948e-01f,
  -3.82296890e-01f, 7.85136521e-02f, -3.10060736e-02f, 1.59481600e-01f, 1.19741760e-01f, 5.65706901e-02f,
  2.35786423e-01f, -6.49547800e-02f, 2.70978838e-01f, -2.35851437e-01f, -4.18882109e-02f, -9.72999632e-02f,
  -4.76349235e-01f, 6.31698892e-02f, 4.01562154e-02f, 3.68911587e-02f, 1.30860717e-04f, -2.21687034e-02f,
  -4.98433821e-02f, 3.73168439e-02f, -1.72990024e-01f, 1.95056945e-01f, -1.08679757e-01f, 1.42366573e-01f,
  1.02915958e-01f, 2.24014908e-01f, -1.40707254e-01f, 2.01927528e-01f, -3.03392354e-02f, -2.15750486e-02f,
  4.41757701e-02f, -1.08747616e-01f, 4.56255488e-02f, 2.65681986e-02f, 2.13290714e-02f, -1.14261128e-01f,
  -4.78498340e-02f, 1.43080771e-01f, -8.03925321e-02f, -9.16201770e-02f, -2.42512330e-01f, 1.77172050e-01f,
  -1.00347072e-01f, -1.19954400e-01f, -4.21287343e-02f, -7.21381083e-02f, -2.28163734e-01f, -2.65653674e-02f,
  6.55566454e-01f, 2.06634134e-01f, 4.32728641e-02f, 1.28903851e-01f, -1.68363795e-01f, 5.07020131e-02f,
  -2.30305418e-02f, -6.16917238e-02f, 9.89077911e-02f, -8.07116255e-02f, 2.06654400e-01f, -9.31037441e-02f,
  -4.14208509e-02f, -1.64301977e-01f, -1.44986063e-01f, 7.41884261e-02f, -3.68957251e-01f, 4.07369196e-01f,
  1.47506287e-02f, -3.21117878e-01f, 3.47544938e-01f, 1.79888591e-01f, -3.22596077e-03f, -1.67215854e-01f,
  -1.47564337e-01f, -1.28326803e-01f, 5.99002205e-02f, -9.81053561e-02f, 2.10459903e-01f, 4.06709686e-02f,
  2.82709926e-01f, -3.21559101e-01f, -1.23601578e-01f, 1.56719223e-01f, -5.03226638e-01f, -2.40315378e-01f,
  -3.66981365e-02f, 9.23310891e-02f, -1.92098171e-02f, 1.64480925e-01f, -4.71773356e-01f, 2.13082910e-01f,
  9.29954052e-02f, 3.48166637e-02f, -1.70615524e-01f, -1.87686101e-01f, -1.47058010e-01f, 1.35741323e-01f,
  7.70412162e-02f, -6.36891499e-02f, 1.06439643e-01f, -1.95265710e-01f, 1.77499726e-01f, -2.80075043e-01f,
  -1.70716688e-01f, 7.96787590e-02f, 3.48140508e-01f, -2.84317970e-01f, -7.48981386e-02f, -1.49932176e-01f,
  -1.84186637e-01f, -1.95641905e-01f, -3.19884896e-01f, -1.07578382e-01f, 5.18931933e-02f, -9.91716888e-03f,
  -2.86225259e-01f, -1.05136566e-01f, -1.73685309e-02f, 4.81971130e-02f, 4.21068877e-01f, -5.05769610e-01f,
  3.61486018e-01f, -4.83218692e-02f, 2.49928221e-01f, -6.09635375e-02f, 2.93548349e-02f, 2.32371911e-01f,
  -1.33155137e-01f, 1.48835927e-01f, -7.20893368e-02f, -3.75429660e-01f, 4.15240586e-01f, 1.77451998e-01f,
  -1.59761846e-01f, 2.05109760e-01f, 1.43169388e-01f, 1.60953134e-01f, -3.19445461e-01f, 8.79349187e-02f,
  -3.45348590e-03f, -1.14748329e-02f, -2.60372847e-01f, 3.32920820e-01f, 2.96858668e-01f, -2.36504927e-01f,
  -2.16951996e-01f, -1.16203122e-01f, -1.97694991e-02f, -1.38753325e-01f, 2.74206907e-01f, 1.52945355e-01f,
  -2.46619314e-01f, -4.32879012e-03f, 4.46548462e-01f, -2.42472976e-01f, 2.73611099e-01f, 1.34379745e-01f,
  -1.72596887e-01f, -1.23174906e-01f, 1.57478303e-01f, 2.94765472e-01f, -2.42909536e-01f, 3.90338629e-01f,
  -1.21283501e-01f, -2.43514448e-01f, 1.89830542e-01f, -6.27259314e-02f, 1.20800482e-02f, 2.76719838e-01f,
  9.77530926e-02f, 3.00476044e-01f, -3.43853980e-02f, -1.28351107e-01f, 6.00414947e-02f, 4.59776342e-01f,
  -6.76881224e-02f, 3.71773124e-01f, -2.56016791e-01f, -1.31659240e-01f, 3.51214670e-02f, 1.74377352e-01f,
  1.66988283e-01f, 9.31970403e-02f, -2.90557563e-01f, 4.38988842e-02f, 6.79260194e-02f, 9.96271595e-02f,
  -3.78760785e-01f, -1.22288287e-01f, -1.36128021e-02f, 2.56039888e-01f, 1.99201897e-01f, -4.67112735e-02f,
  -3.38638388e-02f, 2.77854443e-01f, -2.27176920e-01f, -2.87439767e-02f, 3.41068834e-01f, -1.54218316e-01f,
  2.35006716e-02f, 2.45999731e-02f, 5.20399846e-02f, 7.27069676e-02f, 1.01999804e-01f, -3.32512587e-01f,
  -4.50985692e-02f, -2.43255720e-01f, 1.36601806e-01f, 3.42567712e-02f, 2.50041127e-01f, -2.84071237e-01f,
  1.69024974e-01f, 2.32994691e-01f, -1.73018679e-01f, 3.12538266e-01f, 4.50827368e-02f, 1.71166994e-02f,
  1.44889861e-01f, 5.34295179e-02f, -9.33930371e-03f, -1.01255134e-01f, 1.68674774e-02f, 3.62557471e-01f,
  -1.82838291e-01f, 4.97045040e-01f, -1.00412183e-02f, -8.26109841e-04f, 3.23789448e-01f, 1.61327403e-02f,
  -1.40967965e-01f, -2.37331558e-02f, -9.30642635e-02f, 2.44584493e-02f, -1.32378727e-01f, -5.21719635e-01f,
  4.40947443e-01f, 1.04396656e-01f, 3.60357463e-02f, 2.44530588e-01f, 1.23537090e-02f, -4.28913683e-01f,
  -2.13803649e-01f, 5.76664329e-01f, -5.38110174e-02f, 3.53786573e-02f, -2.82966554e-01f, -2.19080392e-02f,
  1.30659714e-01f, -8.61564502e-02f, 2.28612199e-01f, -1.55686855e-01f, 1.81201980e-01f, -8.48966092e-02f,
  -7.91635830e-03f, -1.76171232e-02f, -2.93671489e-01f, 4.00720537e-01f, 1.50981635e-01f, 1.33450478e-01f,
  -1.79925397e-01f, 2.29289681e-01f, 1.02287926e-01f, 3.43122892e-02f, 1.98121846e-01f, -4.86529991e-03f,
  1.03015609e-01f, 1.34547241e-03f, 4.87787500e-02f, 3.22489500e-01f, -1.69477031e-01f, 3.42988409e-02f,
  -1.97440069e-02f, 6.13687634e-02f, -3.94148320e-01f, -5.27724624e-02f, -3.14140409e-01f, 7.42375255e-02f,
  2.89009184e-01f, -5.62083758e-02f, 2.93848235e-02f, 9.80061367e-02f, 2.60257814e-02f, 2.68317381e-05f,
  1.62843734e-01f, 3.74792777e-02f, -1.01384796e-01f, 3.99930090e-01f, -4.50510457e-02f, 2.07790453e-02f,
  5.04032262e-02f, -2.38866106e-01f, 2.91285161e-02f, 1.89897582e-01f, -1.66824937e-01f, -3.64535898e-02f,
  1.68795548e-02f, 7.25899041e-02f, 1.21623473e-02f, -1.25380889e-01f, -1.67316243e-01f, 2.77402818e-01f,
  4.00582850e-01f, -4.36215907e-01f, 1.43289462e-01f, -5.32835424e-02f, 7.71026015e-02f, 2.99175650e-01f,
  1.92243561e-01f, 2.38658100e-01f, 1.88677773e-01f, 6.94391057e-02f, -4.90008563e-01f, -1.00347802e-01f,
  1.67002052e-01f, -4.55708057e-02f, 7.13678598e-02f, 3.73844683e-01f, -2.14957800e-02f, -5.78104496e-01f,
  -4.17044044e-01f, -4.00038995e-03f, -2.56954998e-01f, 2.63135791e-01f, 1.52928568e-02f, -3.89267318e-02f,
  8.22575763e-02f, 2.82790959e-01f, -2.54835457e-01f, 2.33797058e-02f, 2.71732032e-01f, 3.64583693e-02f,
  1.52894408e-01f, -6.11755326e-02f, -1.94990650e-01f, 6.00043777e-03f, 5.97283132e-02f, 1.79325536e-01f,
  1.94529384e-01f, 3.21452022e-01f, 1.11671582e-01f, 3.13307047e-01f, 2.52326041e-01f, 3.65156174e-01f,
  2.46011466e-01f, 1.59157049e-02f, 1.29405474e-02f, -9.37995443e-04f, -8.56944174e-02f, 2.84466207e-01f,
  3.93221417e-04f, 4.95060951e-01f, -1.34251758e-01f, -1.79590676e-02f, -5.49936175e-01f, 2.08836377e-01f,
  1.20784886e-01f, 4.45581675e-01f, 1.84204370e-01f, -2.98358202e-01f, 5.85802533e-02f, 2.80428231e-02f,
  1.36826009e-01f, -1.98078409e-01f, 1.30021602e-01f, -2.37070047e-03f, -3.58376577e-02f, 4.77904320e-01f,
  -7.16715753e-02f, 2.03087866e-01f, 2.88904237e-04f, 6.00129902e-01f, -2.33671561e-01f, 1.30372807e-01f,
  1.64227515e-01f, -4.66719680e-02f, -6.83565512e-02f, 2.04512760e-01f, 2.36560449e-01f, -7.36479908e-02f,
  2.06934050e-01f, 1.85716327e-03f, 6.45575225e-02f, 6.71460479e-02f, -8.47189873e-02f, -2.25673243e-02f,
  1.87053919e-01f, -1.85989127e-01f, -1.33262217e-01f, 1.84706748e-01f, 1.12759918e-01f, 1.25047639e-01f,
  2.66069137e-02f, 2.32050434e-01f, 1.97643965e-01f, 1.68014154e-01f, -2.20595986e-01f, -1.63570806e-01f,
  1.80570036e-01f, 3.12596858e-01f, 2.10356757e-01f, 2.76074380e-01f, -1.69205338e-01f, -1.80091694e-01f,
  -1.42957404e-01f, -1.46078706e-01f, -5.93724772e-02f, 8.69232789e-02f, 2.33190894e-01f, 1.28367946e-01f,
  -3.54230590e-02f, 6.06018640e-02f, 2.17970118e-01f, 8.74321312e-02f, -2.19466865e-01f, -2.94796377e-02f,
  -2.85952222e-02f, 1.09680265e-01f, -1.35522410e-01f, 2.74833161e-02f, -2.84233898e-01f, -8.85757804e-02f,
  -2.01615661e-01f, -1.47126541e-01f, 9.08353448e-01f, 5.01751229e-02f, -3.24376136e-01f, -1.87179610e-01f,
  2.52295416e-02f, -1.51144058e-01f, -9.34518222e-03f, 3.57940421e-02f, 1.69734836e-01f, -9.49685946e-02f,
  1.22626489e-02f, -4.78127263e-02f, -1.79781690e-02f, 3.93943459e-01f, -3.35223861e-02f, -3.53467464e-02f,
  6.13856539e-02f, 2.37132028e-01f, 2.26308495e-01f, 3.93440016e-02f, 9.88515168e-02f, 3.88436079e-01f,
  1.06664933e-01f, 1.54322147e-01f, -9.13203508e-02f, -2.94779465e-02f, 6.35354593e-02f, 4.88592163e-02f,
  4.77643721e-02f, 3.89097810e-01f, -9.05270278e-02f, 3.50790173e-01f, -2.33236805e-01f, 2.82390058e-01f,
  2.24142894e-01f, 2.20715374e-01f, -2.48912591e-02f, 2.58202761e-01f, -4.66408804e-02f, 9.79396775e-02f,
  1.30761638e-01f, 2.77414739e-01f, 4.82643753e-01f, -1.97902083e-01f, -8.13333988e-02f, -5.07583767e-02f,
  -8.23222846e-02f, -2.96750963e-01f, 4.59715649e-02f, 1.69349648e-02f, -3.54716986e-01f, -2.05339551e-01f,
  -4.12751874e-03f, 4.42472957e-02f, 3.62479001e-01f, -5.63637987e-02f, -2.87469745e-01f, -5.99331446e-02f,
  1.15763120e-01f, -1.72080368e-01f, -2.47522190e-01f, -9.09851491e-02f, -1.89892516e-01f, 1.36111528e-01f,
  -2.18865201e-01f, 2.38237694e-01f, -4.62436289e-01f, 4.07250710e-02f, -1.83731124e-01f, 1.25710428e-01f,
  -1.26082987e-01f, 3.72619063e-01f, 1.19196720e-01f, -1.01394176e-01f, 7.63084739e-02f, -3.45190577e-02f,
  2.58581728e-01f, 2.08621711e-01f, -2.80133188e-02f, -4.60527167e-02f, -7.39807934e-02f, -8.57961178e-02f,
  -4.47166443e-01f, -4.15493846e-02f, 1.56508580e-01f, -2.70342797e-01f, -1.11987427e-01f, -5.04645467e-01f,
  -2.78980017e-01f, -2.25069731e-01f, -2.10087806e-01f, 1.56215131e-01f, 9.34215635e-03f, 1.28208071e-01f,
  1.14041686e-01f, 1.41132191e-01f, 2.34249130e-01f, -9.05169398e-02f, 1.11608088e-01f, -2.05238193e-01f,
  -5.83185665e-02f, -1.12771474e-01f, -3.50536287e-01f, -6.93115545e-03f, 2.05396693e-02f, 1.74157262e-01f,
  5.95476441e-02f, 1.09155752e-01f, -1.72453478e-01f, -4.70960885e-03f, -1.04432344e-01f, 1.32947281e-01f,
  -2.27297004e-02f, 3.35982382e-01f, 8.57272297e-02f, 1.50456294e-01f, -6.07604012e-02f, 1.60787627e-01f,
  1.10970490e-01f, 3.85600217e-02f, 3.74634657e-03f, 1.50532229e-02f, -1.26292080e-01f, 1.49837017e-01f,
  1.30186314e-02f, -1.76924273e-01f, -3.19954790e-02f, -1.72334574e-02f, -1.77120581e-01f, -4.70516160e-02f,
  -1.49931684e-01f, 1.67417333e-01f, -5.97361661e-02f, -1.98150605e-01f, -1.18967123e-01f, 6.34372234e-02f,
  -2.28696167e-01f, 8.26720968e-02f, 6.20799899e-01f, 1.74442425e-01f, -9.57165360e-02f, 5.09804897e-02f,
  -1.01121664e-01f, -4.97004390e-02f, -1.64985478e-01f, -1.03200518e-01f, 4.45839502e-02f, -1.80881158e-01f,
  2.96394169e-01f, -6.06973767e-02f, 1.95868328e-01f, -2.42261633e-01f, -3.00684515e-02f, 6.56836778e-02f,
  -3.27731967e-01f, 3.21167856e-01f, 7.41267577e-03f, -4.70544040e-01f, 2.01734439e-01f, 1.08357169e-01f,
  -1.64864630e-01f, -4.81375754e-02f, -1.34503782e-01f, -3.27355601e-02f, 1.30266860e-01f, 3.50728855e-02f,
  3.37371379e-01f, -1.37371179e-02f, 3.27456713e-01f, -2.74406493e-01f, 2.41022259e-02f, -6.41990593e-03f,
  -4.91859615e-01f, -1.23811878e-01f, -1.05433956e-01f, 1.49203643e-01f, -2.58054398e-03f, 6.84901699e-02f,
  -4.96815711e-01f, 1.63447618e-01f, 3.74196261e-01f, 2.57008802e-02f, -1.35449111e-01f, -1.41043821e-02f,
  -7.87803978e-02f, 8.24845582e-03f, 1.73935100e-01f, -1.46331623e-01f, -5.58469556e-02f, -7.54269212e-02f,
  2.93469299e-02f, -1.90396309e-01f, -3.28620598e-02f, -3.32989432e-02f, 3.12991500e-01f, -1.82399273e-01f,
  2.60099787e-02f, -1.37230217e-01f, -1.70515507e-01f, -3.03813487e-01f, -2.63810158e-01f, -1.72164217e-01f,
  -2.49572396e-02f, 3.50440204e-01f, -1.48012131e-01f, -1.93161052e-02f, 8.14978406e-02f, -1.74021661e-01f,
  3.85688633e-01f, -4.35992241e-01f, 2.84851164e-01f, -2.36387372e-01f, 2.14706570e-01f, -3.21861878e-02f,
  -1.11718075e-02f, 3.83125424e-01f, -4.58568521e-02f, 2.11647049e-01f, 4.06343378e-02f, -3.20968330e-01f,
  3.33339870e-01f, 1.63334385e-01f, -8.70254710e-02f, 2.00096771e-01f, 1.54864639e-01f, 2.75419682e-01f,
  -8.75332728e-02f, 1.71779469e-01f, 9.63609591e-02f, 7.56284520e-02f, -1.78103462e-01f, 1.83840752e-01f,
  1.75290704e-01f, -2.90738463e-01f, -1.69740334e-01f, 5.36925271e-02f, -1.47689596e-01f, -9.43559632e-02f,
  1.75261661e-01f, 2.92714983e-01f, 1.00170383e-02f, -6.58196360e-02f, 2.54207909e-01f, -2.25785784e-02f,
  3.19796354e-01f, 1.82899181e-02f, -2.85694059e-02f, -1.42332956e-01f, 1.35566890e-01f, 2.61111468e-01f,
  -2.65374362e-01f, 2.74966598e-01f, -6.96665719e-02f, -1.04879171e-01f, 1.96455806e-01f, -2.23787017e-02f,
  3.17506522e-01f, 1.61887258e-01f, 7.28295818e-02f, 2.66880959e-01f, 7.84389749e-02f, -9.25779566e-02f,
  9.17742252e-02f, 4.64944959e-01f, 5.76297194e-02f, 1.40619025e-01f, -4.93699051e-02f, -1.60712022e-02f,
  -7.01287016e-02f, 2.03750238e-01f, 2.19688237e-01f, -5.54345660e-02f, -2.83858836e-01f, -1.61904749e-02f,
  1.37327254e-01f, -2.23441683e-02f, -4.57014441e-01f, -1.11122049e-01f, 2.15355143e-01f, 2.43700981e-01f,
  1.91331416e-01f, -4.50515486e-02f, 2.05893472e-01f, 1.78202897e-01f, -5.76567911e-02f, -2.00093031e-01f,
  2.65255243e-01f, -2.46226385e-01f, -8.64791721e-02f, 2.85826921e-01f, 1.24864899e-01f, -6.84347972e-02f,
  1.47401154e-01f, -3.77480149e-01f, -1.37445098e-02f, -2.48343617e-01f, 1.94111094e-01f, -7.06319585e-02f,
  2.77270317e-01f, -2.18457773e-01f, 1.58072725e-01f, 9.39047709e-03f, -1.03437468e-01f, 8.41953531e-02f,
  1.49703354e-01f, -2.95562716e-03f, 5.14766797e-02f, 3.36216763e-02f, 1.15593947e-01f, -5.53252958e-02f,
  6.08955510e-02f, 4.00418252e-01f, -9.69677940e-02f, 5.46119511e-01f, 1.45823583e-01f, 3.38999070e-02f,
  3.18922922e-02f, -3.21118265e-01f, -9.71197486e-02f, -8.26049298e-02f, -6.81825653e-02f, 1.42876163e-01f,
  -1.49095446e-01f, -5.33491254e-01f, 5.36930799e-01f, 6.68811873e-02f, -5.07739931e-02f, 3.07503164e-01f,
  1.31429210e-01f, -2.94155478e-01f, -1.64534636e-02f, 3.14033240e-01f, 7.12521747e-02f, 1.03080578e-01f,
  -3.19858253e-01f, -4.15446088e-02f, 2.10041940e-01f, -1.85129285e-01f, -3.12543963e-03f, -2.19321519e-01f,
  1.35698646e-01f, -1.89902499e-01f, 2.01686900e-02f, 1.10778324e-01f, -3.05328935e-01f, 2.90595144e-01f,
  -7.15706795e-02f, 1.44301623e-01f, -7.50241727e-02f, 1.09931424e-01f, 7.08706453e-02f, -2.64871549e-02f,
  5.12085333e-02f, -8.59074667e-03f, 2.83224415e-02f, 4.91114967e-02f, 5.04267551e-02f, 2.65970528e-01f,
  -1.28929496e-01f, 7.67500177e-02f, -1.65244713e-01f, 1.09696820e-01f, -4.92140561e-01f, -3.70533131e-02f,
  -3.50397646e-01f, -2.97705308e-02f, 3.41277629e-01f, -7.70116225e-02f, 1.03791475e-01f, -6.32216856e-02f,
  -6.40876666e-02f, 6.28985744e-03f, -7.70318834e-03f, -3.77221755e-03f, -1.65447503e-01f, 2.13744953e-01f,
  9.79332700e-02f, 7.35062361e-02f, 8.63257870e-02f, -1.61289945e-01f, -5.57230562e-02f, 4.52724844e-02f,
  -2.82191157e-01f, 3.03976126e-02f, 1.29138241e-02f, 1.70406416e-01f, 3.00239362e-02f, 2.02355385e-02f,
  -2.63918191e-01f, 2.74159461e-01f, 6.15998685e-01f, -2.91921049e-01f, -3.21664251e-02f, -2.19562836e-02f,
  1.81985676e-01f, 2.18254223e-01f, 1.34787664e-01f, 1.47281632e-01f, 1.45244449e-01f, -1.86010569e-01f,
  -4.22804356e-01f, -1.94628522e-01f, 5.11170775e-02f, -2.85563152e-02f, -4.77032885e-02f, 2.03130156e-01f,
  -1.80875883e-01f, -7.18074679e-01f, -3.54300410e-01f, -1.09264605e-01f, -2.53896922e-01f, 3.31847489e-01f,
  -4.95200194e-02f, 1.20599277e-01f, -1.33574968e-02f, 2.83984780e-01f, -2.93481648e-01f, 6.70353472e-02f,
  2.06994832e-01f, -1.97712645e-01f, 1.30288497e-01f, -2.19361112e-01f, -9.39499438e-02f, -1.32049754e-01f,
  3.63617577e-03f, 2.32009798e-01f, 1.47644073e-01f, 2.71251291e-01f, 1.99136794e-01f, 2.02919468e-01f,
  1.32817969e-01f, 4.51742470e-01f, 2.93363333e-01f, 1.44666672e-01f, 1.35994479e-01f, -1.28928080e-01f,
  -1.43584043e-01f, 3.24750334e-01f, -1.10781472e-02f, 5.69155097e-01f, -2.20274955e-01f, -9.48685035e-02f,
  -5.12976289e-01f, 1.74619824e-01f, -9.77533832e-02f, 1.49249732e-01f, -2.41691824e-02f, -2.95305163e-01f,
  -4.99798506e-02f, 1.02735490e-01f, 1.07524805e-01f, -2.48309031e-01f, 2.11485252e-01f, -1.42775387e-01f,
  1.05747119e-01f, 3.38850766e-01f, 2.89723240e-02f, 2.09568933e-01f, -7.96345994e-02f, 4.35050458e-01f,
  -2.59684414e-01f, 9.50639248e-02f, 6.13437667e-02f, -1.96676239e-01f, -6.61859885e-02f, 1.77349031e-01f,
  1.66613832e-01f, -1.30460337e-01f, 6.93204626e-02f, 3.64703126e-02f, -6.96600080e-02f, 1.56790808e-01f,
  -1.29386336e-01f, 4.25375588e-02f, 1.43303424e-01f, -1.57878265e-01f, 1.02454334e-01f, 1.41302481e-01f,
  3.40112522e-02f, 2.02389210e-01f, -4.80118468e-02f, 1.62819084e-02f, 6.75806552e-02f, 1.18346848e-01f,
  7.92507734e-03f, -1.89496949e-01f, 1.27297655e-01f, 1.11624293e-01f, 1.13548398e-01f, 3.09919208e-01f,
  -7.65907019e-02f, -2.00612068e-01f, -2.68820196e-01f, -8.81450833e-04f, -2.29219235e-02f, 2.28480294e-01f,
  2.35547677e-01f, -3.02402209e-02f, -2.41974369e-02f, -1.07615497e-02f, 2.08122924e-01f, -3.84707563e-02f,
  -2.39733607e-01f, 1.69422701e-02f, -5.80987632e-02f, 8.48579630e-02f, -1.83145255e-01f, -1.47843147e-02f,
  -4.36081648e-01f, 1.11387903e-02f, -3.45903337e-01f, -1.64584994e-01f, 8.74818504e-01f, 1.21517390e-01f,
  -3.58350962e-01f, -1.03531666e-01f, -7.54659325e-02f, -1.77732736e-01f, 1.63088590e-01f, 4.67327423e-02f,
  2.79469281e-01f, 1.24192595e-01f, -8.45373943e-02f, -9.05349758e-03f, 5.86565174e-02f, 3.30997050e-01f,
  -3.07011530e-02f, 1.33887678e-01f, 1.53327212e-01f, 2.33475968e-01f, 7.51978755e-02f, 1.79386243e-01f,
  1.33920744e-01f, 3.59231353e-01f, -1.36025976e-02f, 1.12191178e-01f, -2.24340543e-01f, -1.13538265e-01f,
  1.95517689e-02f, 1.64121419e-01f, 4.42211665e-02f, 3.40383261e-01f, -3.34748067e-02f, 4.20362592e-01f,
  -1.83628753e-01f, 2.65169710e-01f, 1.55229002e-01f, 1.49406552e-01f, -1.81209594e-01f, 9.97798219e-02f,
  -5.03210584e-03f, -6.28499268e-03f, 3.48359719e-02f, 1.71861082e-01f, 5.29089987e-01f, -1.61294073e-01f,
  -1.39961362e-01f, -1.40744433e-01f, 3.42969643e-03f, -6.17402077e-01f, 1.11223543e-02f, 7.42897317e-02f,
  -2.85161346e-01f, -2.10294262e-01f, -2.23459583e-03f, -1.83643475e-02f, 1.45750269e-01f, -1.34992063e-01f,
  -1.32975012e-01f, 1.49563566e-01f, 1.75878257e-01f, -3.14056158e-01f, -7.36894757e-02f, -2.67166376e-01f,
  -1.32421970e-01f, 3.74124914e-01f, -1.10536315e-01f, 1.71666935e-01f, -4.07446802e-01f, 7.48388544e-02f,
  -1.20748468e-01f, 1.73875853e-01f, -2.97561109e-01f, 5.66480339e-01f, 5.40630221e-02f, -7.26657659e-02f,
  4.43970151e-02f, 4.86327298e-02f, 2.01468885e-01f, 1.77754462e-01f, -5.03484048e-02f, -9.88676846e-02f,
  -8.91685579e-03f, -2.63360947e-01f, -3.71253669e-01f, 4.18201014e-02f, 2.99780935e-01f, -2.31639758e-01f,
  -1.02087431e-01f, -4.35178548e-01f, -3.67241949e-01f, -1.52095795e-01f, -1.62463412e-01f, 6.94648176e-02f,
  1.83156170e-02f, 2.34974682e-01f, 1.65798858e-01f, 1.58698976e-01f, 1.73741788e-01f, -4.60972339e-02f,
  2.22260326e-01f, -2.61002094e-01f, 5.00980057e-02f, -1.39857769e-01f, -4.63434279e-01f, 4.16036397e-02f,
  9.59556848e-02f, -3.14780399e-02f, 1.54440314e-01f, 1.81140780e-01f, -1.91373363e-01f, 2.27615982e-02f,
  -2.04895496e-01f, -3.82569358e-02f, -5.77234589e-02f, 4.97869551e-01f, -7.34084612e-03f, 8.05864632e-02f,
  -1.21924371e-01f, 1.30590498e-01f, 1.10736437e-01f, -5.72293028e-02f, -1.46059960e-01f, -7.64871808e-03f,
  -5.17238975e-02f, -5.83020598e-02f, -6.30870834e-02f, -2.60472119e-01f, -6.74729049e-02f, 1.47232458e-01f,
  -2.89971322e-01f, -1.58169463e-01f, -1.66796342e-01f, 2.53582984e-01f, -1.53660685e-01f, -3.06657664e-02f,
  -2.21088439e-01f, 7.13885352e-02f, -1.24940097e-01f, 3.60935964e-02f, 5.38450897e-01f, 1.88520879e-01f,
  -2.01527700e-01f, 1.70383397e-02f, -1.70728371e-01f, -5.09729199e-02f, -8.54474306e-02f, -1.83982193e-01f,
  1.12382293e-01f, -5.03506232e-03f, 2.28434518e-01f, 9.50083882e-02f, 2.19571620e-01f, -1.03381597e-01f,
  2.50984468e-02f, 1.19657800e-01f, -5.33503652e-01f, 1.50444686e-01f, 1.33384258e-01f, -3.15382898e-01f,
  2.04629838e-01f, 1.23886295e-01f, -1.23771302e-01f, -6.10884242e-02f, -7.81942159e-02f, 6.91722259e-02f,
  5.40561080e-02f, 4.04815190e-02f, 3.08049470e-01f, 1.25616103e-01f, 3.01941991e-01f, -2.83580244e-01f,
  1.02800773e-02f, -3.00511420e-02f, -3.64855230e-01f, -9.20922980e-02f, 1.18020415e-01f, -1.07500575e-01f,
  -9.52017233e-02f, 1.52295381e-01f, -4.70173508e-01f, 5.45371957e-02f, 4.04520094e-01f, -7.02692103e-03f,
  -1.19224682e-01f, 7.16343299e-02f, 1.43706083e-01f, 1.69209633e-02f, 2.12565009e-02f, -2.63676560e-03f,
  -1.26740217e-01f, 1.48506299e-01f, -1.34318126e-02f, -1.34749711e-01f, -2.11859271e-02f, -2.61234611e-01f,
  4.07259971e-01f, -1.67206556e-01f, -2.40731779e-02f, -1.93023086e-01f, -1.59984604e-01f, -3.94471347e-01f,
  -1.83857366e-01f, -1.00897484e-01f, -4.98139579e-03f, 3.44765961e-01f, -2.21104428e-01f, -9.21817347e-02f,
  -5.30879665e-03f, -1.09303109e-01f, 4.24048007e-01f, -2.55552948e-01f, 2.96968251e-01f, -1.75764382e-01f,
  1.55803144e-01f, 2.35123262e-02f, -8.28770921e-02f, 4.21335340e-01f, -5.77226505e-02f, 9.49885696e-02f,
  2.25246903e-02f, -3.16120535e-01f, 3.46438229e-01f, 3.13482702e-01f, 9.59520638e-02f, 1.81907192e-01f,
  -1.00137495e-01f, 2.00301081e-01f, 1.07088927e-02f, 1.17234766e-01f, 7.52559081e-02f, 1.53781220e-01f,
  -2.31505930e-01f, 2.06794217e-01f, 4.19191259e-04f, -3.06572080e-01f, -2.40539774e-01f, -7.98346400e-02f,
  -1.16148561e-01f, -2.26608709e-01f, 2.11664364e-01f, 3.75835031e-01f, 1.04350746e-01f, 4.23763283e-02f,
  3.14095616e-01f, 5.81256673e-02f, 3.99188548e-01f, 3.67723070e-02f, 4.30265479e-02f, 8.17176402e-02f,
  1.90557078e-01f, 2.17568904e-01f, -2.39458799e-01f, 2.69963562e-01f, -6.43572062e-02f, -1.03873290e-01f,
  2.83668369e-01f, -4.48464155e-02f, 4.61622864e-01f, 1.35688990e-01f, 1.29516408e-01f, 2.19813108e-01f,
  2.15059007e-03f, -1.48398355e-02f, 2.64151007e-01f, 3.12538803e-01f, 2.53285486e-02f, 2.26196855e-01f,
  -6.14663213e-02f, -5.32226525e-02f, -1.28979981e-01f, 1.75331041e-01f, 2.06949830e-01f, 5.23352176e-02f,
  -3.19426417e-01f, -1.53947905e-01f, 1.31234229e-01f, 4.44716029e-03f, -3.88966441e-01f, -5.73662147e-02f,
  2.76993424e-01f, 1.84198484e-01f, 1.59222052e-01f, 2.00710203e-02f, 2.47483432e-01f, 3.05170476e-01f,
  -3.11634894e-02f, -4.05249335e-02f, 2.06862122e-01f, -1.57114774e-01f, 1.73916481e-02f, 3.41872931e-01f,
  -1.64565355e-01f, -1.80947006e-01f, -3.12056243e-02f, -3.29730242e-01f, -1.13511831e-01f, -1.02822244e-01f,
  1.41526327e-01f, 4.12908867e-02f, 1.85791492e-01f, -1.62127897e-01f, 2.23657832e-01f, 1.03546485e-01f,
  7.34209120e-02f, 9.05563161e-02f, 1.69249266e-01f, -1.07808881e-01f, 7.47152269e-02f, -1.47764534e-01f,
  7.65838623e-02f, -2.07346037e-01f, 5.84376343e-02f, 3.09244782e-01f, -1.72502413e-01f, 5.35207629e-01f,
  1.47616625e-01f, 3.30704218e-03f, -1.03042074e-01f, -4.16697741e-01f, -1.58684984e-01f, -7.93053024e-03f,
  1.06148850e-02f, 1.34153962e-01f, -2.13646680e-01f, -5.43802679e-01f, 4.97157693e-01f, -9.42425132e-02f,
  -1.57979727e-01f, 3.39815259e-01f, 1.24470234e-01f, -2.68430591e-01f, -1.28323391e-01f, 3.07357907e-01f,
  9.62762535e-02f, -3.08530796e-02f, -2.58072138e-01f, 1.57021582e-02f, 8.55672061e-02f, -9.66418348e-03f,
  3.85584235e-02f, -2.21753687e-01f, 1.07883088e-01f, -2.75063753e-01f, -6.74805194e-02f, 9.40444991e-02f,
  -3.08802992e-01f, 1.94261372e-01f, -1.99490532e-01f, 1.66500300e-01f, -9.95755941e-02f, -5.84005155e-02f,
  7.51850829e-02f, 6.25444278e-02f, 5.72442962e-03f, -1.23229735e-01f, 1.60077512e-02f, 5.90340458e-02f,
  4.73705493e-02f, 4.76144135e-01f, -1.50214583e-01f, -6.96661463e-03f, -1.15045279e-01f, 1.61443800e-01f,
  -4.42546755e-01f, 9.28964019e-02f, -2.28867918e-01f, 6.73847273e-02f, 1.80926591e-01f, -1.49840161e-01f,
  -4.62188758e-02f, -7.71013871e-02f, -6.65908009e-02f, 2.64633466e-02f, 1.33678302e-01f, -4.46244702e-02f,
  -2.08270967e-01f, 2.46607766e-01f, -5.17757758e-02f, -5.17253159e-03f, -1.74282864e-02f, -1.21696584e-01f,
  -8.62946585e-02f, 7.10669979e-02f, -3.56072724e-01f, 7.54496679e-02f, 2.25306615e-01f, 3.88928503e-02f,
  -2.71421601e-03f, 4.30647060e-02f, -4.00002241e-01f, 6.48723096e-02f, 5.54537773e-01f, -2.23662481e-01f,
  -8.45458265e-03f, 4.25293669e-02f, 8.05820227e-02f, 2.77776599e-01f, -4.55308780e-02f, 4.21398925e-03f,
  2.82993108e-01f, -1.44339904e-01f, -2.85013735e-01f, -2.48555526e-01f, 1.59943655e-01f, 1.86431736e-01f,
  -8.86976197e-02f, 3.29975754e-01f, -1.29321337e-01f, -8.03146243e-01f, -4.61574614e-01f, 1.08685775e-03f,
  -3.27170640e-01f, 2.32405156e-01f, 4.19394039e-02f, 6.87576504e-03f, 1.19222283e-01f, 2.65163243e-01f,
  -2.35111967e-01f, 1.25578437e-02f, 1.56839281e-01f, -2.70048678e-01f, 2.52690800e-02f, -1.40430033e-01f,
  -1.20635182e-02f, -1.29292428e-01f, 2.60699075e-02f, 2.67930061e-01f, 3.20851654e-01f, 2.36820802e-01f,
  2.51919329e-01f, 2.39259660e-01f, -9.16624442e-02f, 3.46377432e-01f, 8.52947608e-02f, 6.46051913e-02f,
  -3.29537354e-02f, -1.28728211e-01f, -2.37654448e-01f, 1.09074757e-01f, 5.76275252e-02f, 7.21156120e-01f,
  -8.37679803e-02f, -1.09728411e-01f, -1.92811400e-01f, 1.34045169e-01f, -7.45779872e-02f, 2.14400664e-01f,
  -8.08996614e-03f, -6.11290932e-01f, 1.71675876e-01f, 6.85715899e-02f, 2.21585453e-01f, -1.12688251e-01f,
  8.48121792e-02f, -7.77410194e-02f, 1.84276830e-02f, 5.18376708e-01f, -3.09902877e-02f, 2.18758419e-01f,
  1.55232474e-02f, 5.70704579e-01f, -4.08988714e-01f, 1.28150940e-01f, -2.93651666e-03f, -1.71717644e-01f,
  7.40074888e-02f, 4.45056073e-02f, 1.46951824e-01f, 8.47636238e-02f, 3.07357833e-02f, 5.41500896e-02f,
  -3.80846635e-02f, 2.79787451e-01f, -8.78223777e-02f, -1.69394404e-01f, 1.52551252e-02f, 5.10410294e-02f,
  2.73848139e-02f, 2.63977736e-01f, 2.08261639e-01f, 1.78644225e-01f, -1.22289985e-01f, 1.19466387e-01f,
  1.14492655e-01f, 1.01898886e-01f, 1.09932356e-01f, -2.96242326e-01f, 1.00107938e-01f, 1.96597859e-01f,
  -9.95562822e-02f, 2.34601021e-01f, -2.21411124e-01f, -1.85537472e-01f, -1.70055032e-01f, -4.90665361e-02f,
  -4.42229956e-02f, 1.50148407e-01f, 2.80238092e-01f, -4.40448746e-02f, -3.12852025e-01f, 5.92889711e-02f,
  1.96892977e-01f, 1.35750771e-01f, -2.20606521e-01f, -6.74672499e-02f, 2.32205037e-02f, 2.15459272e-01f,
  -1.05656549e-01f, 5.78357577e-02f, -4.24479187e-01f, 1.86730362e-02f, -2.89898515e-01f, -2.18493536e-01f,
  7.74953008e-01f, 7.35580474e-02f, -2.63491988e-01f, -1.05828688e-01f, -1.50922000e-01f, -3.09270978e-01f,
  1.00201868e-01f, -7.24251270e-02f, 1.94346860e-01f, 4.91695181e-02f, -4.04741205e-02f, 2.17489041e-02f,
  1.44006759e-01f, 2.12587759e-01f, 2.67593525e-02f, -9.35176946e-03f, 2.13911653e-01f, 6.30422831e-02f,
  8.67509246e-02f, 1.78958967e-01f, 6.50826320e-02f, 3.47889721e-01f, 5.15598105e-03f, 1.32112667e-01f,
  -2.57086009e-01f, -1.18446127e-01f, -6.21157885e-03f, 2.94334441e-01f, 1.65895715e-01f, 2.03934342e-01f,
  -1.26925260e-01f, 3.58476609e-01f, -6.79375529e-02f, 2.15660796e-01f, 2.00660571e-01f, 1.48672953e-01f,
  -2.85989612e-01f, 1.62024289e-01f, 4.75856895e-03f, -4.03316543e-02f, -4.19722088e-02f, 1.49136737e-01f,
  4.95162368e-01f, -2.20621318e-01f, -3.20915841e-02f, -1.13896884e-01f, 5.60647659e-02f, -5.29548287e-01f,
  9.96191874e-02f, -1.86662555e-01f, -2.87946522e-01f, -1.70467809e-01f, -5.15161082e-03f, 6.04183413e-02f,
  -3.30339037e-02f, -2.23409310e-01f, 3.82291414e-02f, 1.88166156e-01f, 1.63755879e-01f, -1.80549636e-01f,
  3.53395902e-02f, -2.07780093e-01f, -9.83479545e-02f, 2.61597633e-01f, -1.21614777e-01f, 1.30115757e-02f,
  -5.65217674e-01f, 6.29056469e-02f, -6.91427365e-02f, 4.44300883e-02f, -2.67085165e-01f, 5.39745748e-01f,
  1.37584805e-01f, -5.69002032e-02f, 2.72713490e-02f, 1.11257331e-02f, 2.50306815e-01f, 1.12435393e-01f,
  -2.38349312e-03f, -6.89530075e-02f, -1.34146935e-03f, -2.48082221e-01f, -2.36615703e-01f, -4.39049415e-02f,
  3.26543719e-01f, -2.65056401e-01f, -1.95478171e-01f, -4.80431229e-01f, -5.03009498e-01f, 2.41259962e-01f,
  -2.20922992e-01f, -1.35338187e-01f, 8.24545622e-02f, 3.25263560e-01f, 5.99245131e-02f, 1.66718699e-02f,
  1.22450747e-01f, -8.42763984e-05f, 7.43401349e-02f, -3.34169537e-01f, 8.10534060e-02f, 4.58626412e-02f,
  -4.63293344e-01f, 2.29911357e-01f, -4.45980243e-02f, 4.45449576e-02f, 2.25083813e-01f, 7.64874741e-02f,
  -3.30197871e-01f, 5.65392263e-02f, -2.13837311e-01f, -3.79278719e-01f, 1.87229328e-02f, 3.75854820e-01f,
  -1.07639275e-01f, 7.79066607e-02f, -6.41946718e-02f, -5.19661717e-02f, -4.43453193e-02f, -3.54155153e-02f,
  -1.28181100e-01f, -2.60878682e-01f, -2.61264712e-01f, -1.25749797e-01f, 1.01961307e-01f, -3.15774083e-01f,
  -2.33289562e-02f, 6.15389012e-02f, -2.44203299e-01f, -1.10911801e-01f, -1.61135316e-01f, 2.85895944e-01f,
  -7.10940734e-02f, -1.30128443e-01f, -2.11793959e-01f, -5.78790084e-02f, 2.12395880e-02f, 1.79813534e-01f,
  3.07513654e-01f, 1.48825467e-01f, -2.38877803e-01f, 1.12700343e-01f, -1.30213529e-01f, -6.94346651e-02f,
  -1.15360908e-01f, -8.19774717e-02f, 1.49513230e-01f, 1.01588674e-01f, 1.69855282e-01f, -3.75549942e-02f,
  9.35009941e-02f, -2.07334921e-01f, -1.33613586e-01f, 1.06521353e-01f, -4.85536695e-01f, 1.19015701e-01f,
  7.09483773e-02f, -1.87056616e-01f, 2.40628466e-01f, 1.23544224e-01f, -2.63274848e-01f, -2.11538762e-01f,
  -1.42347857e-01f, 2.20159553e-02f, 2.05418915e-02f, -1.21811712e-02f, 2.54935801e-01f, 1.39623895e-01f,
  2.73475945e-01f, -3.67340982e-01f, 5.30606173e-02f, 2.65754499e-02f, -2.69151300e-01f, -7.80327246e-02f,
  3.64200063e-02f, -2.45039463e-01f, -1.65840358e-01f, 3.02254170e-01f, -3.32702249e-01f, 8.30500200e-02f,
  5.53876758e-01f, -1.42561123e-02f, -2.60305613e-01f, 7.07946122e-02f, 1.66313127e-01f, -1.52071789e-01f,
  5.54306945e-03f, -1.18363097e-01f, -1.62569493e-01f, 1.84791833e-01f, -4.67718616e-02f, 1.36920642e-02f,
  7.18533248e-02f, -3.19233239e-01f, 4.06052083e-01f, -3.90432738e-02f, -6.17190786e-02f, -1.63783729e-01f,
  -1.08905278e-01f, -3.20135981e-01f, -1.69884175e-01f, 1.85269173e-02f, 1.93622466e-02f, 5.87426066e-01f,
  -2.42406785e-01f, 3.37368250e-02f, -4.60509174e-02f, -1.33228660e-01f, 3.68224651e-01f, -3.44948739e-01f,
  5.11078611e-02f, -2.37193406e-01f, 2.49838904e-02f, -6.86610043e-02f, -4.38616052e-02f, 4.20401454e-01f,
  -1.62538394e-01f, 3.29536386e-02f, 2.41521284e-01f, -2.29778707e-01f, 1.83370471e-01f, 3.21914613e-01f,
  2.96488348e-02f, 2.97310293e-01f, 3.55461985e-02f, 1.93696633e-01f, 6.99162437e-03f, 1.30584434e-01f,
  1.24465294e-01f, 1.81613136e-02f, -1.86402887e-01f, 2.43381485e-01f, -8.14898089e-02f, -1.52432904e-01f,
  -2.63725966e-01f, -1.47990594e-02f, -1.59197003e-01f, -4.09145176e-01f, 1.65296882e-01f, 3.14596385e-01f,
  3.09064627e-01f, -3.64034548e-02f, 2.76954651e-01f, 1.53352067e-01f, 4.06559557e-01f, -2.27644116e-01f,
  2.71415934e-02f, 5.79106174e-02f, 1.81799099e-01f, 1.83459774e-01f, -1.85461923e-01f, 3.09246719e-01f,
  6.56858981e-02f, -1.08419940e-01f, 2.29262248e-01f, -2.01958895e-01f, 5.00732422e-01f, 1.27866358e-01f,
  -2.07082592e-02f, 1.98521927e-01f, -3.36485133e-02f, -1.31907865e-01f, 2.66727775e-01f, 3.74174178e-01f,
  7.56864920e-02f, 1.11804083e-01f, 4.45006602e-03f, -1.07715674e-01f, -1.85222745e-01f, 1.96996093e-01f,
  2.89193928e-01f, -1.59005746e-02f, -2.55348265e-01f, -1.34843275e-01f, 5.63531481e-02f, -2.90846452e-02f,
  -2.14414909e-01f, 5.12884855e-02f, 2.02529445e-01f, 2.09877133e-01f, 2.70868033e-01f, 6.71793297e-02f,
  2.81105459e-01f, 4.26245213e-01f, -1.33202985e-01f, -1.31084278e-01f, 1.50436401e-01f, -2.10217193e-01f,
  1.45520210e-01f, 3.34116489e-01f, -3.40091377e-01f, -2.23147675e-01f, -8.64304882e-03f, -6.74001798e-02f,
  -1.70157373e-01f, 2.83435024e-02f, 1.45607099e-01f, 1.24501541e-01f, 1.30026773e-01f, -1.42175749e-01f,
  7.41766244e-02f, 5.82346059e-02f, -7.75985718e-02f, 7.65867233e-02f, 1.84145030e-02f, -9.55920890e-02f,
  1.22054424e-02f, -1.69383302e-01f, -1.02632842e-03f, -2.23535165e-01f, -2.22414942e-03f, 2.91668773e-01f,
  -1.20151870e-01f, 4.09694433e-01f, -1.17940679e-02f, 8.29966664e-02f, -2.07050145e-01f, -5.67325711e-01f,
  -6.07522428e-02f, -3.22354212e-03f, 7.98906907e-02f, 8.66518170e-02f, -1.47387490e-01f, -3.97785157e-01f,
  4.52175260e-01f, 3.07836919e-03f, -6.23659343e-02f, 5.22995710e-01f, -6.27684742e-02f, -3.66466910e-01f,
  -2.88713444e-02f, 1.04832217e-01f, -1.43706950e-03f, 1.56910807e-01f, -2.42835805e-01f, -1.05572328e-01f,
  1.25408441e-01f, -6.43992573e-02f, 7.95944314e-03f, -9.89304557e-02f, 6.12023883e-02f, -3.50399822e-01f,
  -1.94052145e-01f, 3.97398882e-02f, -1.96820587e-01f, 2.99646854e-01f, -2.62257278e-01f, 2.10970685e-01f,
  -9.16548297e-02f, 3.82183492e-02f, 1.47802070e-01f, 9.90489200e-02f, 1.62298605e-01f, -3.26870568e-02f,
  5.63148670e-02f, 1.49422558e-02f, 1.21010266e-01f, 5.58518350e-01f, -1.92275763e-01f, 1.82121828e-01f,
  -1.61822170e-01f, 6.66613877e-02f, -5.11309087e-01f, 9.93115231e-02f, -3.61141652e-01f, 3.14576253e-02f,
  1.15711585e-01f, -7.66518041e-02f, 1.22249044e-01f, -1.38399705e-01f, -1.29619226e-01f, -3.83188054e-02f,
  1.39271930e-01f, -8.69208500e-02f, -5.56685552e-02f, 9.82210264e-02f, -3.46486233e-02f, -1.81009865e-03f,
  -2.13093460e-01f, -1.31015822e-01f, 1.26160840e-02f, 1.59815192e-01f, -3.42244059e-01f, -3.82607989e-02f,
  2.45280758e-01f, -5.48075438e-02f, -1.35101661e-01f, 2.22263411e-02f, -4.55023676e-01f, -3.08982581e-02f,
  4.88899887e-01f, -1.07116140e-01f, -3.12343650e-02f, 4.65756245e-02f, -6.94370195e-02f, 1.67588919e-01f,
  -1.44932568e-01f, -5.39852306e-02f, 1.93616629e-01f, -1.76677614e-01f, -1.20856836e-01f, -1.73009366e-01f,
  -5.70589826e-02f, 1.45009741e-01f, -2.26882637e-01f, 2.10845828e-01f, -9.76241454e-02f, -8.14363003e-01f,
  -2.81878144e-01f, -4.14076224e-02f, -1.62816256e-01f, 1.97245017e-01f, 8.34442675e-03f, 1.07362621e-01f,
  -1.93688404e-02f, 3.13430786e-01f, -2.07435012e-01f, -1.19159846e-02f, 1.22941010e-01f, -2.06469268e-01f,
  -1.52399153e-01f, -2.23869175e-01f, -1.66065712e-02f, -6.66813701e-02f, -2.40905359e-02f, 2.72404850e-01f,
  2.67719597e-01f, 2.84565806e-01f, 3.27047825e-01f, 2.38944888e-01f, -1.20437585e-01f, 2.27907956e-01f,
  4.92540421e-03f, 8.92810374e-02f, -9.06440765e-02f, -1.57936618e-01f, -2.98434466e-01f, 8.77745301e-02f,
  1.02150604e-01f, 8.60862792e-01f, -2.79499382e-01f, -2.87734032e-01f, -9.95558277e-02f, 2.99110860e-01f,
  -1.93891197e-01f, 1.30334005e-01f, 1.89056341e-02f, -7.33205974e-01f, 2.02550262e-01f, 2.36599013e-01f,
  6.43871799e-02f, -1.09078020e-01f, 2.56268024e-01f, -2.08595484e-01f, -4.84935865e-02f, 4.79283422e-01f,
  -1.06860287e-01f, 1.38041243e-01f, -3.58584039e-02f, 5.99866033e-01f, -3.85763735e-01f, 2.03972429e-01f,
  -7.01588020e-02f, -2.29532868e-01f, 2.44945623e-02f, 1.91923231e-02f, 1.15612596e-01f, 1.18802704e-01f,
  -8.25363696e-02f, -6.97508873e-03f, 5.40372916e-02f, 2.17089310e-01f, 1.23983309e-01f, -2.16318276e-02f,
  -6.39960691e-02f, 1.28131360e-01f, 4.26909104e-02f, 9.96032059e-02f, 1.73176482e-01f, 1.64964080e-01f,
  -3.86828519e-02f, -7.15739504e-02f, 1.32698966e-02f, 6.50577098e-02f, 7.78795704e-02f, -1.73437856e-02f,
  -3.56639437e-02f, 1.49071604e-01f, -6.84087202e-02f, 1.60430878e-01f, -2.55760521e-01f, -9.60631147e-02f,
  -1.80140465e-01f, -3.88500951e-02f, -1.91805005e-01f, 3.71368080e-02f, 5.34858584e-01f, -6.05713017e-02f,
  -4.94088590e-01f, -1.54781546e-02f, 1.96084622e-02f, -4.98271473e-02f, -7.43280798e-02f, -1.39626294e-01f,
  -3.25115863e-03f, 1.21782839e-01f, -1.68979943e-01f, 1.41639799e-01f, -4.82070267e-01f, -8.71422216e-02f,
  -1.12961590e-01f, -2.20638558e-01f, 6.74901128e-01f, 6.27424642e-02f, -1.69490024e-01f, -1.82038173e-02f,
  -2.16171473e-01f, -1.92049339e-01f, 8.50263759e-02f, -2.66306043e-01f, 3.15236002e-01f, 2.75439117e-02f,
  7.08308816e-02f, 8.55848342e-02f, 1.94718897e-01f, 1.56401753e-01f, 4.81753089e-02f, 2.11879432e-01f,
  1.63386464e-01f, -1.28622264e-01f, -1.38704658e-01f, 5.98384514e-02f, 9.42438990e-02f, 5.03342867e-01f,
  -2.05198094e-01f, 6.46139532e-02f, -3.86430889e-01f, -1.35057598e-01f, 3.86771932e-02f, 2.91240215e-01f,
  5.44699468e-02f, 2.37278908e-01f, 6.67106733e-02f, 3.45432401e-01f, -8.50744247e-02f, 1.82482719e-01f,
  5.42824082e-02f, -1.58451905e-03f, -3.58928323e-01f, 3.34988832e-02f, 1.48813486e-01f, 3.79962921e-02f,
  4.03125696e-02f, 1.19621955e-01f, 4.19803023e-01f, -6.17032349e-02f, -1.04598887e-01f, 3.66864502e-02f,
  1.44336317e-02f, -6.96532071e-01f, 1.33718088e-01f, -9.64765921e-02f, -3.91599946e-02f, -1.36461958e-01f,
  9.89329517e-02f, 3.82681265e-02f, -1.09831490e-01f, -8.34437311e-02f, 2.22964376e-01f, 3.93113159e-02f,
  3.65502089e-02f, -4.97651920e-02f, 1.79745123e-01f, -3.44245017e-01f, -7.29697123e-02f, 1.96191654e-01f,
  -6.51422590e-02f, -1.11362711e-01f, -4.49752688e-01f, 3.94122228e-02f, -1.69875190e-01f, 9.95753333e-02f,
  -4.32356536e-01f, 4.13120836e-01f, 1.73390865e-01f, -2.98476458e-01f, -3.33573185e-02f, 8.39556307e-02f,
  2.39715904e-01f, -2.09227595e-02f, 3.83764841e-02f, -8.71911868e-02f, 1.07720837e-01f, -3.42169315e-01f,
  -2.32540876e-01f, -1.19758084e-01f, 2.64782846e-01f, -2.63831794e-01f, -1.44956112e-01f, -5.19931316e-01f,
  -5.02036870e-01f, 5.43190598e-01f, -5.20627983e-02f, -1.92162678e-01f, -4.20414172e-02f, 3.52284998e-01f,
  1.53549433e-01f, -1.07870989e-01f, 1.84286594e-01f, 8.24216846e-03f, -1.86636243e-02f, -4.52616215e-01f,
  6.31667748e-02f, 2.15942413e-01f, -3.12686473e-01f, 1.68509141e-01f, -1.00127950e-01f, 1.51911870e-01f,
  2.20507041e-01f, 1.26751512e-01f, -3.47759843e-01f, -6.43015951e-02f, -1.91440269e-01f, -4.21059966e-01f,
  6.38587773e-02f, 2.26043433e-01f, 6.15410544e-02f, -1.30999804e-01f, -2.37754792e-01f, 2.86237840e-02f,
  1.16217822e-01f, -1.43284604e-01f, -3.30886275e-01f, -3.18581790e-01f, -2.80571282e-01f, 5.66264056e-03f,
  1.06686175e-01f, -2.36099035e-01f, -1.13621568e-02f, 1.63258091e-01f, -3.35552454e-01f, -3.47880609e-02f,
  -1.32075511e-02f, 2.61746407e-01f, -3.42372358e-02f, -2.91836411e-02f, -2.00720847e-01f, -7.23560005e-02f,
  1.33181930e-01f, 1.57979339e-01f, 1.99700072e-01f, 1.17454872e-01f, -3.74195516e-01f, 3.48244235e-02f,
  -1.45204872e-01f, -5.78042418e-02f, -1.14807919e-01f, -8.01374763e-02f, 8.20076652e-03f, -6.75754473e-02f,
  -2.97510345e-02f, 1.87768012e-01f, 1.48923010e-01f, -1.72690853e-01f, -1.03579260e-01f, -1.04910307e-01f,
  -4.14547503e-01f, 4.99156453e-02f, 5.26245683e-02f, 4.07808535e-02f, 1.48921693e-03f, 1.00645676e-01f,
  -3.65819544e-01f, -1.60542071e-01f, -5.06647527e-01f, 1.47211224e-01f, 1.03639498e-01f, -9.55457315e-02f,
  2.27200955e-01f, -1.32891797e-02f, 1.22756876e-01f, -2.18238816e-01f, 1.55836046e-01f, -1.20952271e-01f,
  4.17917222e-02f, 3.17653306e-02f, 1.57767579e-01f, -5.10753036e-01f, -9.95505080e-02f, 1.75094038e-01f,
  -3.03243130e-01f, -1.39552906e-01f, 5.26712954e-01f, 7.61203095e-02f, -1.93715468e-01f, 1.46026790e-01f,
  1.33066416e-01f, -3.19012031e-02f, 8.98003280e-02f, -1.30670741e-01f, -2.73061275e-01f, 1.50850326e-01f,
  -1.53530031e-01f, -1.11680344e-01f, -7.58225145e-03f, -3.68392497e-01f, 3.00428510e-01f, -1.40881687e-01f,
  -8.74693841e-02f, -8.81548524e-02f, 5.82461283e-02f, -3.28138471e-01f, -5.78800403e-02f, -9.73129869e-02f,
  6.50050938e-02f, 5.31612277e-01f, -2.24418908e-01f, 1.14056945e-01f, -8.52521136e-02f, -1.47324249e-01f,
  2.21087441e-01f, -3.25617969e-01f, 1.99628770e-01f, -3.20212036e-01f, 5.96410176e-03f, 2.93772705e-02f,
  -1.60071906e-02f, 3.78987163e-01f, -1.39742374e-01f, -2.54201591e-01f, 3.51226449e-01f, -1.70934707e-01f,
  2.51072198e-01f, 2.80117512e-01f, 3.39052044e-02f, 3.04747790e-01f, -4.41337191e-02f, 2.97070473e-01f,
  6.03891648e-02f, 2.02816129e-01f, 1.92315564e-01f, 1.61450490e-01f, -1.97411463e-01f, 1.17437981e-01f,
  -6.90964237e-02f, -2.51284659e-01f, -1.21820763e-01f, 4.33806144e-02f, -1.81624815e-01f, -5.10841906e-01f,
  8.64060372e-02f, 4.42108780e-01f, 4.55265760e-01f, -2.72664249e-01f, 2.19101414e-01f, 2.02460289e-01f,
  3.30621094e-01f, -2.20418960e-01f, 3.31258699e-02f, 1.75830498e-02f, 1.32621408e-01f, 1.45389661e-01f,
  -2.89726228e-01f, 1.83473408e-01f, 4.22851108e-02f, -5.14276186e-03f, 1.67247489e-01f, -1.14380084e-01f,
  4.60308164e-01f, -1.07535332e-01f, -5.35912029e-02f, 2.69765139e-01f, 1.12107694e-01f, -1.18308768e-01f,
  1.94868296e-01f, 1.79570198e-01f, 8.79835710e-03f, 2.46402949e-01f, 3.33841741e-02f, -2.10684478e-01f,
  -2.33335778e-01f, 1.36632010e-01f, 2.61246324e-01f, 1.28538653e-01f, -3.10081005e-01f, -2.05068618e-01f,
  1.87116101e-01f, -3.12888883e-02f, -2.09889919e-01f, 4.83436324e-02f, 1.23832457e-01f, 8.11448246e-02f,
  1.57798186e-01f, 1.06708109e-01f, 3.62767130e-01f, 4.12331045e-01f, -2.31793135e-01f, -1.19717211e-01f,
  3.14737521e-02f, -3.04419547e-01f, 2.20897228e-01f, 2.77419895e-01f, -4.17324454e-01f, -1.52974755e-01f,
  -1.94176838e-01f, -1.03670366e-01f, -8.19602683e-02f, 3.79156768e-02f, 4.07266244e-02f, 2.21806273e-01f,
  1.73822902e-02f, -6.84050173e-02f, 1.27258867e-01f, -1.56199142e-01f, -5.55964820e-02f, 1.17802247e-01f,
  7.96682909e-02f, -1.17363691e-01f, 6.57096691e-03f, -1.57050833e-01f, -4.86669391e-02f, -2.44094327e-01f,
  4.74548386e-03f, 3.53772134e-01f, -6.78640753e-02f, 2.17067599e-01f, -4.36445698e-02f, 4.26932052e-02f,
  -1.27172500e-01f, -6.49734020e-01f, -2.29448453e-01f, -1.62842888e-02f, -8.06268118e-03f, 1.04701407e-01f,
  -1.64811686e-01f, -2.45131359e-01f, 3.62202823e-01f, -1.25046104e-01f, -3.08937043e-01f, 3.61782014e-01f,
  -1.49501428e-01f, -2.26862058e-01f, 4.34129238e-02f, 7.71881938e-02f, 2.60062073e-03f, 1.02505079e-02f,
  -2.62610763e-01f, 5.90789085e-03f, 7.59899840e-02f, -3.73734906e-02f, -2.69456580e-02f, -1.22639433e-01f,
  -1.36306942e-01f, -3.06844473e-01f, -2.28974104e-01f, -1.04737394e-01f, -2.03969821e-01f, 1.03204302e-01f,
  -1.83861122e-01f, 1.85270071e-01f, -3.33741941e-02f, -1.52508086e-02f, -6.46002293e-02f, -1.82842743e-02f,
  2.27734670e-01f, -6.55388311e-02f, -5.78832477e-02f, -1.00420125e-01f, 2.94531405e-01f, 5.07888436e-01f,
  -3.32271457e-01f, -1.03943842e-02f, -3.14743333e-02f, -7.88200125e-02f, -3.16245407e-01f, 4.97919470e-02f,
  -3.50314945e-01f, 4.29973565e-02f, 8.94913524e-02f, -2.13490948e-01f, 3.61530446e-02f, -1.01441361e-01f,
  -2.33684823e-01f, -1.52573809e-01f, 3.03156320e-02f, 2.71287020e-02f, -2.69439723e-02f, 1.22306474e-01f,
  3.63908638e-03f, 4.26444858e-02f, -1.61676258e-01f, -1.40778065e-01f, -1.12660381e-03f, 6.83545787e-03f,
  -3.10361683e-01f, -4.73024733e-02f, 3.08595207e-02f, -6.10469608e-03f, -1.01374634e-01f, 6.68285042e-02f,
  -6.26239777e-01f, -7.53313228e-02f, 3.76596838e-01f, -1.62484571e-01f, -8.68435130e-02f, 1.24042138e-01f,
  -5.83571903e-02f, 1.35012433e-01f, -1.45381123e-01f, -5.32051735e-02f, 3.60503167e-01f, -6.43343851e-02f,
  -6.63004443e-02f, -1.66306332e-01f, -9.19653401e-02f, 6.30800873e-02f, -2.06863940e-01f, 3.57192978e-02f,
  -1.88047841e-01f, -5.49301744e-01f, -4.09073085e-01f, -9.47256163e-02f, -1.39398381e-01f, 2.69106627e-01f,
  -4.39059325e-02f, 6.26675114e-02f, 3.89732830e-02f, 1.62856147e-01f, -2.27820650e-01f, -5.21335229e-02f,
  6.65582344e-03f, -7.33605102e-02f, -7.65995830e-02f, -1.68015033e-01f, -6.70982525e-02f, 5.04433140e-02f,
  -1.17304705e-01f, 2.88989305e-01f, 2.16086239e-01f, 1.66221708e-01f, 1.43936753e-01f, 8.04225355e-02f,
  -1.44273937e-01f, 2.75750160e-01f, -1.05196171e-01f, 1.17836446e-01f, -9.95193198e-02f, 9.47552733e-04f,
  -1.84267655e-01f, -1.29106753e-02f, 8.17070082e-02f, 1.03095734e+00f, -2.80336529e-01f, -3.61452550e-01f,
  -2.94487793e-02f, 3.05953503e-01f, -1.20453507e-01f, -1.26692932e-02f, -8.60066786e-02f, -6.79536343e-01f,
  1.26791194e-01f, 2.03636512e-01f, 3.58600095e-02f, 2.71668397e-02f, 1.92814499e-01f, -8.38422701e-02f,
  6.22220077e-02f, 4.21977907e-01f, 7.80933276e-02f, 1.10292129e-01f, -9.20245945e-02f, 4.28137571e-01f,
  -4.68907893e-01f, 2.33288810e-01f, 1.74193718e-02f, -9.74846110e-02f, -2.78687537e-01f, -2.20906287e-01f,
  2.70937774e-02f, 9.15112346e-02f, -3.07043701e-01f, 1.40723348e-01f, -1.33064583e-01f, 2.02195719e-01f,
  1.37083894e-02f, -1.22201130e-01f, 2.77020819e-02f, 2.81392872e-01f, 2.72384640e-02f, 7.76447058e-02f,
  2.49223784e-01f, 1.90489460e-02f, -2.52129674e-01f, -2.15400919e-01f, 3.54213938e-02f, 6.87656403e-02f,
  1.19188249e-01f, 2.09601089e-01f, 5.35562262e-02f, 2.76896238e-01f, -1.15162171e-01f, 1.39917418e-01f,
  -2.77843386e-01f, 9.53973532e-02f, -1.02708310e-01f, 2.07982995e-02f, -1.31575465e-01f, 9.12100170e-03f,
  6.56107128e-01f, -1.27889991e-01f, -4.58818108e-01f, 8.17263871e-02f, 8.26291442e-02f, 7.18060210e-02f,
  -2.08213806e-01f, -1.68459162e-01f, -1.40687032e-02f, 9.68469977e-02f, -1.57525793e-01f, 2.14159444e-01f,
  -4.82239246e-01f, -7.93828517e-02f, -6.16069809e-02f, -2.06370831e-01f, 6.16052270e-01f, -1.16934724e-01f,
  -1.30137786e-01f, 5.40388674e-02f, -4.21975255e-01f, -3.27732027e-01f, 2.09947005e-01f, -4.00170028e-01f,
  2.44002655e-01f, 5.74740693e-02f, 4.61955592e-02f, -1.31976262e-01f, 3.09387147e-01f, 1.54678389e-01f,
  1.31071890e-02f, 1.91865504e-01f, 2.02719003e-01f, -7.90775865e-02f, -2.26846412e-01f, 2.34609097e-02f,
  1.25381425e-01f, 4.22355294e-01f, -2.61057764e-01f, 6.94549084e-02f, -3.64397526e-01f, 3.67546268e-02f,
  4.38581370e-02f, 1.70342952e-01f, 3.32579874e-02f, 1.15040705e-01f, 1.18735135e-01f, 2.28385016e-01f,
  -2.53431648e-02f, 5.02634645e-02f, 1.96705222e-01f, 6.53875172e-02f, -3.37663651e-01f, 1.78558126e-01f,
  6.81262836e-02f, 1.19289076e-02f, -6.18873499e-02f, 2.54435867e-01f, 2.85825878e-01f, -1.25464410e-01f,
  -1.25551388e-01f, -9.03392211e-02f, 6.49779439e-02f, -7.44022727e-01f, 2.07683250e-01f, -2.93846190e-01f,
  -4.07637283e-02f, -1.47635698e-01f, 4.21309359e-02f, 1.31285593e-01f, -1.99312374e-01f, -2.48120233e-01f,
  2.56651789e-01f, 4.95799631e-02f, -1.68588944e-02f, -1.71051383e-01f, 1.79272100e-01f, -1.93652779e-01f,
  -6.10104837e-02f, 1.19541451e-01f, -9.31595638e-02f, -2.64426082e-01f, -5.54144681e-01f, -8.06768909e-02f,
  -6.68815449e-02f, -1.45228012e-02f, -5.58196008e-01f, 3.07509989e-01f, 2.35698111e-02f, -3.57096136e-01f,
  -1.52412981e-01f, 2.18854785e-01f, -7.17123644e-03f, 3.32873277e-02f, -3.94766033e-02f, 7.26996437e-02f,
  1.39945336e-02f, -3.16870213e-01f, -6.41201958e-02f, -6.15352429e-02f, 3.58718067e-01f, -2.65755534e-01f,
  -2.82593250e-01f, -4.42833811e-01f, -5.10667920e-01f, 6.49333715e-01f, -6.41269907e-02f, -1.25102997e-01f,
  9.29234400e-02f, 2.57327646e-01f, -2.38790344e-02f, -1.49041072e-01f, -4.48379549e-04f, -1.88444063e-01f,
  -2.17550963e-01f, -4.24564600e-01f, 1.71821564e-01f, 3.80806834e-01f, -3.16656083e-01f, 2.25586355e-01f,
  -2.51966268e-01f, 1.90183893e-02f, 9.92872566e-02f, 1.24988675e-01f, -2.89958775e-01f, 1.78474374e-02f,
  -2.77085662e-01f, -2.45116085e-01f, 2.79779509e-02f, 1.73981011e-01f, 4.15691286e-02f, -1.91933990e-01f,
  -2.28061333e-01f, -3.14481743e-02f, -8.44552368e-03f, -3.73374820e-02f, -3.31795454e-01f, -4.18650299e-01f,
  -4.32058632e-01f, -1.47221655e-01f, 2.43926737e-02f, -3.55856866e-01f, -1.30620375e-01f, -7.46184541e-03f,
  -1.10273167e-01f, 1.10406019e-01f, -5.99338263e-02f, 2.11426958e-01f, -4.69038524e-02f, -1.45763278e-01f,
  -5.50265014e-02f, -1.48842126e-01f, 2.01697364e-01f, 1.10137220e-02f, 5.66524304e-02f, -8.47836211e-02f,
  -3.33842188e-01f, -4.14948277e-02f, -2.19223440e-01f, 2.50185709e-02f, -1.89606398e-01f, -1.86656397e-02f,
  1.68888047e-02f, -1.14074953e-01f, -1.30606830e-01f, 1.33815736e-01f, -2.55504455e-02f, -7.70352930e-02f,
  1.44115508e-01f, -1.85477212e-02f, -4.25086081e-01f, 6.55463664e-03f, 1.35090519e-02f, 1.19738035e-01f,
  -9.62591544e-02f, -9.24160853e-02f, -4.51596409e-01f, -2.46579885e-01f, -8.07394922e-01f, 2.10501805e-01f,
  8.38543996e-02f, -1.96596771e-01f, 1.64127812e-01f, 1.54351695e-02f, 2.01716959e-01f, -1.28720537e-01f,
  1.44018009e-02f, -4.52306420e-02f, 1.74592659e-01f, 1.30233422e-01f, 1.25514006e-03f, -6.56888068e-01f,
  -1.34053126e-01f, 7.01292679e-02f, -1.39667511e-01f, -8.86901692e-02f, 4.49269503e-01f, 1.22536257e-01f,
  -1.71016291e-01f, 7.41223544e-02f, 2.18717217e-01f, 1.04567148e-01f, 1.30992439e-02f, -8.81834105e-02f,
  -3.32710505e-01f, 5.89424707e-02f, -2.01959640e-01f, -4.82427180e-02f, -7.69547448e-02f, -2.89962947e-01f,
  4.64560539e-01f, -1.83269203e-01f, 5.54110333e-02f, 5.99922650e-02f, 1.91015840e-01f, -2.19501734e-01f,
  2.66557727e-02f, -8.61468762e-02f, -6.69241473e-02f, 5.38901567e-01f, -1.33999616e-01f, 3.84464264e-02f,
  -1.12502798e-01f, -2.07956545e-02f, 3.67855653e-02f, -1.05060063e-01f, 4.81781885e-02f, -1.60918772e-01f,
  2.37937644e-02f, 8.67931396e-02f, -1.07338339e-01f, 3.72171998e-01f, -1.96234494e-01f, -4.85916913e-01f,
  4.19374734e-01f, -1.59918174e-01f, 8.51430520e-02f, 3.29637140e-01f, 3.85503261e-03f, 2.38302812e-01f,
  -1.05029203e-01f, 1.60624370e-01f, 9.69621316e-02f, 1.83541581e-01f, 3.90859023e-02f, 6.15769625e-02f,
  -3.04937184e-01f, 8.11838582e-02f, -2.44189262e-01f, -2.91873038e-01f, -2.18098104e-01f, -1.18321836e-01f,
  -5.04876971e-02f, -5.74129164e-01f, 1.41326234e-01f, 3.74971211e-01f, 5.69726467e-01f, -2.24603906e-01f,
  2.16033056e-01f, 2.72167534e-01f, 3.05992424e-01f, -3.10242534e-01f, 1.57801583e-01f, 6.68742210e-02f,
  2.93680072e-01f, 1.43062934e-01f, -2.60559112e-01f, -6.97981194e-02f, 1.21126197e-01f, 5.28303012e-02f,
  1.58928663e-01f, -1.86765850e-01f, 2.87468076e-01f, -5.23308329e-02f, 6.81762174e-02f, 2.50913113e-01f,
  1.12166137e-01f, -2.00000316e-01f, 2.77029127e-01f, 3.06280404e-01f, -1.89045072e-01f, 2.57936984e-01f,
  -1.52484840e-02f, -2.39115447e-01f, -2.74136484e-01f, 1.22798696e-01f, 3.59298944e-01f, 9.86594856e-02f,
  -2.18365803e-01f, -7.37291202e-02f, 1.20046623e-01f, 7.79531449e-02f, -6.98972344e-02f, 2.12979674e-01f,
  5.27687520e-02f, 1.33972555e-01f, 2.01733470e-01f, 1.91956460e-01f, 2.29124129e-01f, 2.96365142e-01f,
  -1.31543845e-01f, 8.46023858e-02f, -1.80834264e-01f, -2.50789374e-01f, 2.02179924e-01f, 6.81860521e-02f,
  -3.35804582e-01f, -2.70811200e-01f, -1.59802601e-01f, 3.11945304e-02f, 3.44951525e-02f, 6.18049242e-02f,
  -6.75999448e-02f, 3.56731862e-01f, 3.85881737e-02f, -7.30698854e-02f, -5.84800877e-02f, -1.95573807e-01f,
  -9.29960236e-02f, 1.26652364e-02f, -8.32586288e-02f, -1.48102805e-01f, -9.64002535e-02f, -2.42142692e-01f,
  -2.06663355e-01f, -3.50637347e-01f, -1.01372041e-01f, 3.08813304e-01f, 4.90917824e-02f, 7.15337619e-02f,
  5.87560274e-02f, -2.47597825e-02f, -1.60853833e-01f, -8.68735969e-01f, -5.69666810e-02f, -9.75921005e-02f,
  9.31603760e-02f, 1.76930338e-01f, -4.33536656e-02f, -2.90884793e-01f, 2.92584389e-01f, -2.01632623e-02f,
  -2.56515026e-01f, 3.07127237e-01f, -1.70802251e-01f, -2.74197400e-01f, -6.24907278e-02f, -8.25158879e-02f,
  -1.49921879e-01f, -8.28156546e-02f, -2.26677895e-01f, -7.74696842e-02f, -3.53594683e-02f, -1.60420798e-02f,
  -9.36399698e-02f, -1.97623849e-01f, -2.51133353e-01f, -3.43749076e-01f, -1.25754789e-01f, 5.00028357e-02f,
  -2.08255857e-01f, 1.14292815e-01f, -2.15054989e-01f, 8.85649323e-02f, 5.58872186e-02f, -8.64217430e-03f,
  -1.14088759e-01f, -8.90711136e-03f, 6.04061708e-02f, -2.73761481e-01f, 2.16969615e-03f, 9.44760814e-03f,
  2.00019956e-01f, 7.51379609e-01f, -2.72476882e-01f, 8.54256377e-02f, -1.41899690e-01f, -1.38797864e-01f,
  -3.42334986e-01f, -8.75320882e-02f, -2.04838037e-01f, 1.00564867e-01f, -3.20602842e-02f, -6.71188831e-02f,
  -5.53690223e-03f, -2.15928536e-02f, -2.72545666e-01f, -2.03822300e-01f, 6.30758628e-02f, 4.44309227e-02f,
  -1.67402685e-01f, 2.51894314e-02f, -8.04402605e-02f, -1.10837467e-01f, -1.22190066e-01f, -9.28285345e-02f,
  6.15377277e-02f, -2.61051618e-02f, -2.13292927e-01f, -1.71944126e-01f, 7.83522129e-02f, -9.63800177e-02f,
  -8.04468393e-02f, -2.00724993e-02f, -7.28043437e-01f, 8.82197358e-03f, 4.28858191e-01f, -2.08443135e-01f,
  -3.12670171e-01f, 1.80268466e-01f, -2.30289072e-01f, 7.50832260e-02f, -2.35459879e-01f, -1.13067314e-01f,
  3.55332345e-01f, 6.47107437e-02f, 2.88502183e-02f, -1.50799572e-01f, -1.25433177e-01f, 2.48819850e-02f,
  -2.99764127e-01f, 9.49283540e-02f, -2.24753588e-01f, -6.65461659e-01f, -3.13332200e-01f, -6.88428134e-02f,
  -2.68149942e-01f, 1.46401837e-01f, 9.10099596e-02f, 3.84751484e-02f, 6.44485429e-02f, 2.52296567e-01f,
  -1.37517855e-01f, -2.33676925e-01f, 3.91857745e-03f, -1.22232884e-01f, -1.49041295e-01f, -1.15776114e-01f,
  -7.22136572e-02f, -4.51423302e-02f, 2.84999367e-02f, 2.37911463e-01f, 2.01755717e-01f, 1.61169037e-01f,
  7.36680180e-02f, 1.67489558e-01f, -1.48108631e-01f, 2.53580213e-01f, -2.51696771e-03f, 1.16220966e-01f,
  -2.01187208e-01f, -9.04764328e-03f, -1.89282507e-01f, 6.23581633e-02f, 1.18472390e-01f, 8.52195323e-01f,
  -1.57418445e-01f, -4.78672206e-01f, 1.07886776e-01f, 1.23073168e-01f, -1.96195602e-01f, -1.05084531e-01f,
  5.36203850e-03f, -5.56752205e-01f, -1.08305062e-03f, 3.14060509e-01f, 1.33483216e-01f, 8.01568199e-03f,
  1.54467955e-01f, -3.14885043e-02f, 1.22353323e-01f, 3.11294705e-01f, 1.10626481e-01f, 1.54867113e-01f,
  -7.27365464e-02f, 5.34834206e-01f, -3.33060592e-01f, 3.10583740e-01f, 1.43854224e-04f, -5.73539548e-02f,
  -3.07604998e-01f, -1.26565158e-01f, 1.92617625e-02f, 2.10751563e-01f, -5.32723069e-01f, 1.57048956e-01f,
  -6.82133809e-02f, 1.77842200e-01f, 1.95532382e-01f, 8.66599903e-02f, -1.43011585e-01f, 1.62128553e-01f,
  1.46023482e-01f, 1.28305763e-01f, 2.18259737e-01f, 1.28263935e-01f, -2.45791346e-01f, -2.15851992e-01f,
  5.45077287e-02f, 4.56619076e-02f, 4.56067249e-02f, 4.43497509e-01f, 4.36873548e-02f, 2.41779223e-01f,
  2.84979609e-03f, 9.33076590e-02f, -1.68004304e-01f, 3.42264511e-02f, -1.53610066e-01f, 1.37933731e-01f,
  -2.58962333e-01f, 7.95593262e-02f, 7.24866331e-01f, -5.18166982e-02f, -6.20320439e-01f, -2.16698665e-02f,
  1.19279854e-01f, 1.15878753e-01f, -2.09828719e-01f, -2.25649863e-01f, -6.51837215e-02f, 1.29461527e-01f,
  -3.41546178e-01f, 1.44550756e-01f, -4.87838149e-01f, 2.30237860e-02f, 8.63015801e-02f, -2.43478969e-01f,
  4.22297120e-01f, -1.40534922e-01f, -1.76102176e-01f, 5.08027636e-02f, -5.35639048e-01f, -3.72494906e-01f,
  1.06914952e-01f, -2.95015186e-01f, 2.16796890e-01f, 2.67637745e-02f, -5.15179224e-02f, -1.20777264e-02f,
  2.12619483e-01f, -7.30565342e-04f, 2.49662008e-02f, 2.22325295e-01f, 2.09598169e-01f, -1.32634044e-01f,
  -2.98441350e-01f, 1.36690855e-01f, 2.53338497e-02f, 5.41495264e-01f, -1.78346977e-01f, 3.32810432e-02f,
  -3.94074857e-01f, -4.37739640e-02f, 1.96770474e-01f, 2.74762928e-01f, 1.12037838e-01f, 1.65702298e-01f,
  4.90180030e-02f, 1.57440543e-01f, 4.15848009e-03f, 6.37437850e-02f, 1.01605743e-01f, -1.57122985e-01f,
  -3.64643335e-01f, 2.56393731e-01f, 1.00219529e-02f, 1.10457100e-01f, -3.43971215e-02f, 2.49794260e-01f,
  2.16776878e-01f, 4.01983000e-02f, -2.62878001e-01f, -2.37486921e-02f, -9.61181298e-02f, -3.91930640e-01f,
  1.34338234e-02f, -2.22656026e-01f, -4.17607836e-02f, -1.36029184e-01f, 8.13646894e-03f, -1.28392261e-02f,
  -1.00692779e-01f, -1.55780315e-01f, 3.46798211e-01f, -6.84270933e-02f, 2.10723318e-02f, -4.85404581e-02f,
  1.12998210e-01f, -1.38345376e-01f, -3.17846127e-02f, 5.14080599e-02f, 1.48481252e-02f, -2.44159594e-01f,
  -3.96676987e-01f, 8.57489482e-02f, -1.56309843e-01f, -8.89281034e-02f, -5.99360049e-01f, 1.57746151e-01f,
  -3.35546881e-02f, -4.49513257e-01f, -1.83630496e-01f, 1.59106240e-01f, 9.86859873e-02f, -2.07566068e-01f,
  -2.69184895e-02f, -4.67386730e-02f, 4.47041057e-02f, -3.85402620e-01f, 2.62744762e-02f, -1.37402639e-01f,
  2.47912854e-01f, -3.54636937e-01f, -2.12171733e-01f, -2.94051290e-01f, -4.29408044e-01f, 6.58761203e-01f,
  7.13785514e-02f, -2.69622624e-01f, 4.17604856e-02f, 3.24321210e-01f, 1.23382255e-03f, -3.69569403e-03f,
  1.55338496e-01f, -1.20664135e-01f, -1.55060947e-01f, -4.24217075e-01f, 2.04002425e-01f, 3.61821771e-01f,
  -1.83520034e-01f, 3.36541444e-01f, -2.41242141e-01f, 1.92880090e-02f, 1.50224358e-01f, 2.42185369e-01f,
  -3.28392386e-01f, -1.94376066e-01f, -1.48273736e-01f, -3.15968841e-01f, -7.80891329e-02f, 6.15966357e-02f,
  6.59026392e-03f, -9.88639593e-02f, -3.66644770e-01f, -1.72299623e-01f, -6.23588115e-02f, -4.80899587e-02f,
  -3.39881092e-01f, -2.75324970e-01f, -3.35225016e-01f, -2.23233983e-01f, -2.69656368e-02f, -3.34557444e-01f,
  -1.24966562e-01f, 1.06855839e-01f, -1.66957662e-01f, 1.54608544e-02f, -1.14101641e-01f, 1.46945715e-01f,
  -2.91250776e-02f, -1.69713765e-01f, -1.73441060e-02f, -1.71713233e-01f, 1.46731049e-01f, 1.90995838e-02f,
  6.32955134e-02f, -2.52649486e-01f, -4.45281625e-01f, -2.03859690e-03f, -1.18967511e-01f, 4.55963872e-02f,
  -6.09978996e-02f, 3.27203497e-02f, -6.66915476e-02f, -1.12829894e-01f, -2.23166376e-01f, 9.65748653e-02f,
  -8.98018405e-02f, 5.21739572e-02f, 9.19381902e-02f, -1.24479674e-01f, -3.38092089e-01f, -1.07785743e-02f,
  2.41336375e-02f, 1.06856018e-01f, -1.27587110e-01f, -1.06849164e-01f, -2.89073884e-01f, -1.30950421e-01f,
  -7.26258576e-01f, 2.19393566e-01f, 1.54685095e-01f, -3.86215180e-01f, 1.23119861e-01f, -1.42857641e-01f,
  1.14502102e-01f, -1.35599852e-01f, 7.58666173e-02f, -1.19792476e-01f, 1.66039377e-01f, 1.44217208e-01f,
  4.69961390e-02f, -6.89118445e-01f, -7.22531974e-02f, 1.63063616e-01f, -2.56309081e-02f, -4.43045869e-02f,
  4.14448261e-01f, 1.32771417e-01f, -9.67470780e-02f, 3.79641578e-02f, 6.22528791e-02f, 4.63324226e-02f,
  5.54247722e-02f, 8.14161729e-03f, -5.26254296e-01f, 6.03375807e-02f, -2.65055984e-01f, 7.45975971e-02f,
  -9.33628008e-02f, -3.24404746e-01f, 4.69277680e-01f, -1.16960473e-01f, 1.90944541e-02f, 2.30324380e-02f,
  1.10947765e-01f, -8.46934542e-02f, 6.37663677e-02f, -1.27738103e-01f, 3.45119759e-02f, 4.63384360e-01f,
  -1.86037004e-01f, 1.87720641e-01f, -7.37232491e-02f, 2.85246279e-02f, 1.05976366e-01f, -1.48430780e-01f,
  -8.86629298e-02f, -2.10976571e-01f, 6.53347746e-02f, 4.10883985e-02f, -8.14868584e-02f, 1.96079373e-01f,
  -1.65657565e-01f, -4.00785446e-01f, 4.76371586e-01f, -1.78531779e-03f, 4.93335426e-02f, 2.75397152e-01f,
  -1.85574796e-02f, 2.38258913e-01f, -1.94984198e-01f, 2.80919224e-01f, 2.00858191e-01f, 3.67204174e-02f,
  1.32574067e-01f, -2.86724675e-03f, -2.28313833e-01f, -5.41244401e-03f, -7.40705132e-02f, -2.60276645e-01f,
  -7.17342049e-02f, -1.19546451e-01f, -1.06069148e-01f, -4.68693852e-01f, 8.72006938e-02f, 2.33858585e-01f,
  5.46975791e-01f, -3.10394645e-01f, 2.40234345e-01f, 1.61862820e-01f, 8.68024826e-02f, -2.26477027e-01f,
  6.82797004e-03f, 1.19330451e-01f, 1.98133022e-01f, 2.68623922e-02f, -1.84202895e-01f, -1.51353460e-02f,
  9.17706788e-02f, 2.39120107e-02f, 1.66442707e-01f, -8.28940645e-02f, 2.92181104e-01f, -6.89606518e-02f,
  5.98122701e-02f, 9.69848707e-02f, -5.25729917e-02f, -3.14870238e-01f, 5.34265935e-02f, 2.84292430e-01f,
  -1.48139134e-01f, 3.17324370e-01f, -5.52592129e-02f, -2.60232687e-01f, -3.20507705e-01f, 3.16152833e-02f,
  2.06015170e-01f, 1.80416450e-01f, -1.89025849e-01f, -1.84660926e-01f, 2.22653881e-01f, -2.82129850e-02f,
  1.15386918e-01f, 7.74222538e-02f, -1.32067338e-01f, 1.40514240e-01f, 2.57572055e-01f, -2.45312788e-02f,
  2.69440055e-01f, 2.77047604e-01f, -7.49261826e-02f, -2.95594521e-02f, -1.95404440e-01f, -2.50220209e-01f,
  3.50543857e-01f, 1.58877239e-01f, -4.38535869e-01f, -2.28521213e-01f, -1.30702332e-01f, 1.60333827e-01f,
  1.10817000e-01f, 1.42467052e-01f, -6.51902286e-03f, 4.56335425e-01f, 5.35404086e-02f, -1.07189618e-01f,
  -2.17228398e-01f, -1.45904928e-01f, -1.16541073e-01f, 2.20250145e-01f, -5.34593463e-02f, -1.64941978e-02f,
  -1.02613948e-01f, -1.05907328e-01f, -1.93524271e-01f, -1.84095606e-01f, -1.23376809e-01f, 7.76463002e-02f,
  7.72935078e-02f, -6.47085980e-02f, -1.09068140e-01f, -2.42944509e-01f, 4.21621129e-02f, -9.14884567e-01f,
  5.07938862e-02f, -6.74219355e-02f, -1.19268522e-02f, 1.76621795e-01f, -2.60709580e-02f, -1.85646042e-01f,
  1.26259640e-01f, -6.75939247e-02f, -3.67465585e-01f, 2.13982269e-01f, -2.17633426e-01f, -2.44580418e-01f,
  -6.87635988e-02f, -1.77730978e-01f, -1.12271868e-01f, 1.16949771e-02f, -1.83812842e-01f, 6.35240600e-02f,
  -1.65908277e-01f, 9.37582983e-04f, -4.15992290e-02f, -1.76984400e-01f, -1.87062055e-01f, -2.81344652e-01f,
  -1.45238712e-01f, 3.88373248e-02f, -1.52703464e-01f, 2.75746360e-02f, -2.59637058e-01f, 4.27759029e-02f,
  1.09887853e-01f, 1.05684347e-01f, -1.82886779e-01f, 4.64990400e-02f, 6.94387332e-02f, -4.03621048e-01f,
  -6.69151694e-02f, -7.17538968e-02f, 1.92364365e-01f, 6.46283448e-01f, -2.51119971e-01f, -3.35114188e-02f,
  5.37229851e-02f, -1.26024604e-01f, -1.08621284e-01f, 7.95631111e-02f, -3.42133105e-01f, 8.24706703e-02f,
  -1.08277954e-01f, -1.93915099e-01f, -4.58749651e-04f, -6.58893064e-02f, -3.04334790e-01f, -2.00508475e-01f,
  8.51528794e-02f, 4.61145258e-03f, -2.06839725e-01f, 1.35700731e-03f, -9.85067338e-02f, 9.06646028e-02f,
  -2.05840856e-01f, -7.00015053e-02f, -1.16700411e-01f, -1.43190799e-03f, -2.29140803e-01f, -7.49824271e-02f,
  5.44660315e-02f, 7.65490234e-02f, -5.78281730e-02f, -6.28276989e-02f, -6.80773854e-01f, -3.82498875e-02f,
  4.20528680e-01f, -4.10184413e-01f, -3.16762447e-01f, -4.97938916e-02f, -2.29082793e-01f, 3.26735042e-02f,
  -2.38729730e-01f, -1.28848374e-01f, 3.24594140e-01f, 4.52047363e-02f, -5.25845811e-02f, -2.09833741e-01f,
  -4.57516387e-02f, 1.19999629e-02f, -2.14142457e-01f, 6.78185672e-02f, -1.30812541e-01f, -5.14619648e-01f,
  -1.82809442e-01f, -9.81383622e-02f, -8.04640502e-02f, 9.25408229e-02f, 2.22315460e-01f, -1.51124469e-03f,
  1.24663725e-01f, 4.99968641e-02f, -1.18894674e-01f, -1.21600300e-01f, 1.07272090e-02f, -7.87813440e-02f,
  -1.80675998e-01f, -1.48115605e-01f, -1.15654916e-01f, 9.02904049e-02f, -1.68971673e-01f, 2.41880715e-01f,
  2.32435569e-01f, 2.47326285e-01f, 1.63834672e-02f, 1.12829432e-01f, -1.94260672e-01f, 2.51154363e-01f,
  -1.52650997e-01f, 3.69632430e-02f, -9.55186710e-02f, 6.63893623e-03f, -1.45950511e-01f, 5.06268814e-02f,
  2.73799244e-02f, 7.01593637e-01f, -2.12894037e-01f, -4.63870972e-01f, 1.28381431e-01f, 1.80152848e-01f,
  -1.21950082e-01f, -5.35578281e-02f, 2.86193136e-02f, -3.78908068e-01f, 4.03189994e-02f, 3.72882068e-01f,
  4.67334911e-02f, -1.02934271e-01f, 3.85568827e-01f, -8.16452503e-02f, 8.88514593e-02f, 1.56598359e-01f,
  1.52733475e-01f, 7.27345869e-02f, 2.72685532e-02f, 2.61504948e-01f, -2.20104486e-01f, 3.08159262e-01f,
  -7.09844008e-02f, 2.74849907e-02f, -3.87321442e-01f, -1.91490531e-01f, -1.22228056e-01f, 2.17095956e-01f,
  -3.84454995e-01f, 8.27203318e-02f, 5.94485318e-03f, 8.76260698e-02f, 5.88793270e-02f, 1.12826973e-01f,
  -9.93876308e-02f, 2.06527367e-01f, 1.16666496e-01f, 2.23369211e-01f, 1.57594204e-01f, 5.29200025e-02f,
  -3.42984051e-01f, -2.86368221e-01f, 1.60316136e-02f, -9.08776596e-02f, -7.87890553e-02f, 3.09511274e-01f,
  1.12136021e-01f, 6.50050119e-02f, 5.10167293e-02f, -1.26135334e-01f, -8.56885687e-02f, -6.91569373e-02f,
  -5.77173196e-02f, 2.09061742e-01f, -1.16837770e-01f, -2.33454239e-02f, 7.29896963e-01f, -2.58758813e-01f,
  -2.71268666e-01f, 1.29233062e-01f, 1.55743152e-01f, -6.52059019e-02f, -9.83442962e-02f, -2.48105288e-01f,
  6.34106994e-02f, 1.33988336e-01f, -1.05260424e-01f, 3.20571721e-01f, -4.76262480e-01f, -1.64812386e-01f,
  -5.43325283e-02f, -1.53953701e-01f, 1.98544145e-01f, -1.41831025e-01f, -1.22421822e-02f, 7.56580606e-02f,
  -3.87202024e-01f, -3.65079254e-01f, 2.22825095e-01f, -3.24220479e-01f, 2.09488124e-01f, -1.56784862e-01f,
  9.59477276e-02f, 3.74659523e-02f, 4.14969921e-01f, -1.01619557e-01f, -1.14987027e-02f, 2.70917058e-01f,
  2.37251535e-01f, -1.59536168e-01f, -3.02902043e-01f, -7.95761272e-02f, 1.94456547e-01f, 3.80471349e-01f,
  -2.11997390e-01f, 1.68538660e-01f, -3.66477787e-01f, 5.32141402e-02f, 2.12795272e-01f, -6.63932189e-02f,
  1.53400764e-01f, 4.52099293e-02f, 1.56530529e-01f, 2.25160494e-02f, 4.17712256e-02f, -2.44397428e-02f,
  7.85431489e-02f, 9.11710318e-03f, -2.51555860e-01f, 1.77615702e-01f, 9.26860198e-02f, 1.66996807e-01f,
  4.86252978e-02f, 2.84919441e-01f, 1.50650069e-01f, 9.66822729e-02f, -1.33241460e-01f, -1.69229850e-01f,
  -1.46271572e-01f, -2.68037289e-01f, -5.66713773e-02f, -2.21765369e-01f, 8.64395276e-02f, -1.20816693e-01f,
  -2.69557871e-02f, 2.44516656e-02f, -1.87835649e-01f, -1.84259370e-01f, 3.36089253e-01f, -1.04022697e-01f,
  -5.73645299e-03f, -1.04772761e-01f, 7.01364577e-02f, -3.07578534e-01f, 1.03313051e-01f, 8.69832188e-02f,
  -1.99083257e-02f, -3.29854190e-01f, -4.23226923e-01f, 1.96802378e-01f, -1.47243828e-01f, -1.00177132e-01f,
  -5.37026405e-01f, -5.43005094e-02f, -5.80287017e-02f, -4.73163486e-01f, -2.56422162e-01f, 2.39622151e-03f,
  1.17243759e-01f, -2.14225873e-01f, -1.97818071e-01f, -6.75983429e-02f, 2.12620571e-01f, -5.42277217e-01f,
  4.00836691e-02f, -2.07868636e-01f, 2.72067010e-01f, -4.07595515e-01f, -2.19687000e-01f, -1.88880056e-01f,
  -4.35645312e-01f, 4.86277431e-01f, 1.57127846e-02f, -2.42067903e-01f, -6.33172020e-02f, 3.27614367e-01f,
  3.28605361e-02f, 3.79198268e-02f, 2.04669848e-01f, -1.38497591e-01f, -1.43846869e-01f, -3.61263901e-01f,
  9.29330289e-02f, 3.49835366e-01f, -2.21139312e-01f, 3.33547235e-01f, -3.13678235e-01f, 1.77532986e-01f,
  3.30618560e-01f, 2.70827204e-01f, -3.71167570e-01f, -1.06926672e-01f, -6.97100386e-02f, -1.64402604e-01f,
  -8.46243724e-02f, 2.14837566e-01f, -3.87914293e-02f, -1.11067958e-01f, -3.00398350e-01f, -4.29245494e-02f,
  -2.03013271e-02f, -1.74574286e-01f, -2.83388942e-01f, -3.24205250e-01f, -4.48230267e-01f, -2.00762793e-01f,
  -4.38994020e-02f, -5.06676435e-01f, -5.21582663e-02f, 5.10127749e-03f, -1.93749771e-01f, 2.08558619e-01f,
  -1.52537478e-02f, 5.34419194e-02f, -9.52047631e-02f, -9.54316854e-02f, -1.49679780e-01f, -2.00003579e-01f,
  -2.86868196e-02f, -1.03104919e-01f, -8.12142119e-02f, -2.36844510e-01f, -3.55962604e-01f, -1.69228375e-01f,
  -8.18397254e-02f, -9.28410888e-02f, -1.25609756e-01f, 6.51177904e-03f, 2.03322843e-02f, -1.51690453e-01f,
  -2.74579555e-01f, 4.15735692e-02f, -6.77654520e-02f, 5.79609200e-02f, 1.23478658e-01f, -5.38237393e-02f,
  -3.07561100e-01f, -1.96120903e-01f, 1.81796461e-01f, -3.27117951e-03f, -1.32403225e-01f, -1.02869280e-01f,
  -1.60917580e-01f, -8.54821410e-03f, -6.73904419e-01f, 2.62130231e-01f, 6.55209497e-02f, -2.64265448e-01f,
  1.00091822e-01f, -1.53182477e-01f, 1.38786525e-01f, -2.26144493e-01f, 2.23797765e-02f, -6.71718419e-02f,
  3.10848683e-01f, 2.49457151e-01f, 4.47117649e-02f, -5.77614605e-01f, 9.66594592e-02f, 1.93445921e-01f,
  -4.22606058e-02f, -1.06755808e-01f, 1.03285655e-01f, 1.60164222e-01f, -1.67232275e-01f, 1.73749983e-01f,
  2.12022200e-01f, 2.20989332e-01f, 3.68658416e-02f, -1.17383547e-01f, -4.25849140e-01f, 9.49227884e-02f,
  -2.83437878e-01f, -1.83551498e-02f, -4.07949183e-03f, -2.36538649e-01f, 4.46318209e-01f, 4.18693153e-03f,
  -1.72244519e-01f, -4.14805077e-02f, 2.12446138e-01f, 4.06072289e-02f, 7.10129812e-02f, -1.24328814e-01f,
  1.48411384e-02f, 1.53424129e-01f, -7.09497407e-02f, 2.13391230e-01f, 8.10028091e-02f, 1.04931183e-01f,
  6.16225414e-02f, 1.17677562e-01f, -9.39658061e-02f, -2.00002193e-01f, 9.50959697e-02f, 1.79754794e-01f,
  -1.12985149e-01f, 2.01563701e-01f, -2.16493443e-01f, -3.05141479e-01f, 4.45847511e-01f, -6.70330077e-02f,
  -4.99714464e-02f, 1.12236619e-01f, -4.46051806e-02f, 2.50890136e-01f, -1.24451056e-01f, 2.18642250e-01f,
  2.08540499e-01f, -2.34087138e-03f, 8.85516107e-02f, 1.43161058e-01f, -1.81959316e-01f, 1.75512299e-01f,
  -1.28433228e-01f, -9.25431028e-02f, -1.19865552e-01f, -1.65416270e-01f, -2.00145677e-01f, -5.01556277e-01f,
  1.13246299e-01f, 1.24336414e-01f, 6.31346464e-01f, -2.57198930e-01f, 1.27900079e-01f, 2.88684547e-01f,
  8.33424330e-02f, -2.30578259e-01f, -2.60503069e-02f, 3.55310030e-02f, 1.57328963e-01f, -4.57319133e-02f,
  -2.17181608e-01f, -6.74790666e-02f, 8.99400786e-02f, -1.64712533e-01f, 2.56672710e-01f, -8.96990746e-02f,
  1.05145536e-01f, -8.09519216e-02f, 1.38491735e-01f, 1.53382227e-01f, 7.67658278e-02f, -3.34699392e-01f,
  1.63404867e-01f, 1.69617936e-01f, -1.84038877e-01f, 4.37218428e-01f, -9.88757610e-02f, -2.47448102e-01f,
  -2.06293896e-01f, 1.77455833e-03f, 1.98896214e-01f, 1.21742196e-01f, -1.88996464e-01f, -1.59208998e-01f,
  2.67496914e-01f, 1.33050323e-01f, 2.24270180e-01f, 1.48323506e-01f, -3.07651669e-01f, 8.44278000e-03f,
  1.83683276e-01f, 1.13107696e-01f, 2.21045643e-01f, 1.80115193e-01f, -1.75436497e-01f, 4.38920707e-02f,
  -2.37751201e-01f, -1.43884838e-01f, 2.43590936e-01f, 7.11733922e-02f, -4.05142039e-01f, -4.21962626e-02f,
  -2.13967383e-01f, 2.32460555e-02f, 2.50462852e-02f, 2.08336651e-01f, -1.37915283e-01f, 4.78751659e-01f,
  -1.58836786e-02f, -3.11319027e-02f, -1.82575718e-01f, -1.46100134e-01f, -2.72495002e-01f, 6.21344671e-02f,
  -5.11166453e-03f, -1.98035285e-01f, -1.59890428e-01f, -8.75456408e-02f, -1.24406800e-01f, -3.23861569e-01f,
  -1.42733967e-02f, 1.33744851e-01f, 1.71995118e-01f, -2.62970254e-02f, -1.32181302e-01f, -2.94008821e-01f,
  5.51372245e-02f, -9.95224714e-01f, 1.03370778e-01f, -1.26074133e-02f, 6.58531860e-02f, 1.17201984e-01f,
  2.75585875e-02f, -2.40724668e-01f, 1.59116283e-01f, -5.78427361e-03f, -2.24121138e-01f, 1.78466588e-01f,
  -1.31450072e-01f, -1.96687743e-01f, -6.38507903e-02f, -2.33291820e-01f, -6.43872917e-02f, -1.92743763e-01f,
  -2.41131201e-01f, 1.50559425e-01f, -1.27137780e-01f, -6.86372817e-02f, -5.91667220e-02f, -4.33776118e-02f,
  -1.98927894e-01f, -3.28270823e-01f, -1.94600061e-01f, 8.65934044e-02f, -1.35176092e-01f, 1.25410959e-01f,
  -2.74809837e-01f, -2.46415183e-01f, 2.76728850e-02f, 1.89770628e-02f, -8.65284950e-02f, -1.24593964e-02f,
  1.21257022e-01f, -3.01149458e-01f, -9.41926166e-02f, -9.55953300e-02f, 1.91586882e-01f, 7.69454062e-01f,
  -1.13190621e-01f, 3.85762267e-02f, 2.11028159e-02f, -9.87039953e-02f, -1.92753375e-01f, -1.23531241e-02f,
  -1.43677622e-01f, 1.72870785e-01f, -1.32161990e-01f, -1.04893826e-01f, 4.19403873e-02f, -1.08382337e-01f,
  -3.92807335e-01f, -1.08649500e-01f, 1.39198145e-02f, -1.19395554e-02f, -3.38903785e-01f, 1.59128815e-01f,
