#ifndef WEIGHTS_GRU_H
#define WEIGHTS_GRU_H

// Auto-generated from GRU_model_cstest5_99467_02330.h5
// Shapes:
// gru_kernel           : [32][384]
// gru_recurrent_kernel : [128][384]
// gru_bias             : [384]   (reset_after=False)
// gru_dense_W          : [128][5]
// gru_dense_b          : [5]

#include <stdint.h>

static const float gru_kernel[32][384] = {
  2.80996829e-01f, -3.20748538e-02f, 1.39908805e-01f, 2.84626633e-02f, -2.81966060e-01f, -2.19230384e-01f,
  -2.22599551e-01f, 2.34384790e-01f, 1.95944775e-02f, -1.73114195e-01f, -1.35706112e-01f, -6.00576121e-03f,
  6.81702569e-02f, 1.97133087e-02f, -1.38376445e-01f, 1.08170688e-01f, -1.43313815e-03f, -4.87365454e-01f,
  -3.36801082e-01f, 1.31475270e-01f, 6.45009130e-02f, -8.35760310e-02f, -3.93566024e-03f, -3.15418005e-01f,
  -1.01311570e-02f, -2.98059564e-02f, -3.81389827e-01f, 6.98538050e-02f, -2.36944072e-02f, 2.32984386e-02f,
  -1.97915003e-01f, -2.92805046e-01f, -2.50652164e-01f, -1.48324072e-01f, 1.12426586e-01f, 4.22062665e-01f,
  -1.26070812e-01f, 1.00450501e-01f, -1.85388848e-01f, -2.30589777e-01f, 1.12552913e-02f, 6.49248064e-03f,
  -1.13256328e-01f, 3.64165038e-01f, -1.84112772e-01f, -1.85176596e-01f, -2.81775296e-02f, 1.54877469e-01f,
  -1.02485247e-01f, -1.74085557e-01f, -4.70203646e-02f, 2.89705485e-01f, -8.05640370e-02f, 1.78634867e-01f,
  1.65226445e-01f, 2.92725652e-01f, -4.87079797e-03f, 1.50174901e-01f, -3.62912357e-01f, 3.21707785e-01f,
  1.15530096e-01f, -2.27556512e-01f, -3.59965682e-01f, -3.39527689e-02f, -1.58556364e-02f, -1.37838185e-01f,
  -3.77590626e-01f, 4.64459479e-01f, 1.64025709e-01f, -3.92854750e-01f, -3.21004800e-02f, 2.21181601e-01f,
  -3.47861350e-01f, 2.12833077e-01f, 6.58380464e-02f, -1.58499941e-01f, -9.18078646e-02f, -1.62042782e-01f,
  -1.99807212e-02f, -2.56938398e-01f, -2.70799339e-01f, -1.26211375e-01f, -1.33976832e-01f, -1.98823392e-01f,
  1.13745555e-02f, -2.22827062e-01f, -1.38206020e-01f, 1.39813170e-01f, -8.78852531e-02f, -1.58092245e-01f,
  5.57931840e-01f, -3.01854163e-01f, 1.66937292e-01f, 3.30299586e-02f, -2.62850821e-02f, -1.73228487e-01f,
  -2.70689595e-02f, -2.84761965e-01f, -1.58898205e-01f, -7.70991892e-02f, 7.15496391e-02f, 3.51338610e-02f,
  2.73487657e-01f, -5.26622057e-01f, 3.26298960e-02f, -2.49617144e-01f, -2.03720674e-01f, 2.80739069e-01f,
  2.58885114e-03f, 2.73461431e-01f, 2.13740528e-01f, 6.42986894e-02f, 2.48927817e-01f, -1.99425846e-01f,
  -9.28519070e-02f, 5.42611293e-02f, -1.47876680e-01f, -7.13848099e-02f, 3.88890624e-01f, -3.59305769e-01f,
  3.98860127e-01f, -1.84437782e-01f, -3.48360181e-01f, -4.16608274e-01f, -1.90242544e-01f, 8.35664221e-04f,
  -2.15429276e-01f, 1.87120169e-01f, 8.02376419e-02f, 6.39521256e-02f, 8.38630944e-02f, -8.88118520e-02f,
  1.37123361e-01f, 3.04380953e-02f, -2.73872972e-01f, -3.03247184e-01f, 1.35209873e-01f, -1.02783255e-01f,
  3.13115388e-01f, 6.15974655e-03f, 6.69700727e-02f, 1.90351456e-01f, 2.48356208e-01f, 1.17607690e-01f,
  1.61230683e-01f, -1.76937744e-01f, -8.64941031e-02f, 1.23438276e-01f, 3.25451136e-01f, -4.61861901e-02f,
  -2.88035512e-01f, 9.40070525e-02f, -4.92011569e-02f, 2.48153701e-01f, -1.36081442e-01f, -3.75184655e-01f,
  3.91295820e-01f, -2.13751033e-01f, -7.63007343e-01f, -1.21049001e-03f, 1.23189822e-01f, 5.71009740e-02f,
  2.74996966e-01f, 2.27920637e-01f, -1.60477832e-01f, 2.25806907e-01f, 1.05876021e-01f, -1.04640938e-01f,
  -5.89914620e-02f, 2.70555973e-01f, 2.20250450e-02f, 3.65564257e-01f, 7.73469359e-02f, 2.29739606e-01f,
  -1.27638549e-01f, -1.88892528e-01f, 5.91419302e-02f, -2.65399963e-02f, 4.11871582e-01f, 1.13922609e-02f,
  -3.93019736e-01f, -9.67110172e-02f, 2.38027602e-01f, 5.05521595e-02f, -5.85183166e-02f, 5.62123060e-02f,
  3.09649825e-01f, -8.30339044e-02f, 7.21975490e-02f, 2.48247874e-03f, -4.54162598e-01f, 2.58653224e-01f,
  -1.89450249e-01f, -9.13558528e-02f, 2.09584162e-01f, 1.48273304e-01f, -5.63599281e-02f, -4.71608303e-02f,
  -5.05265547e-03f, -1.72436267e-01f, 1.20331645e-01f, -4.25243884e-01f, 2.37977967e-01f, -3.04349046e-02f,
  -3.61118428e-02f, -3.34087685e-02f, -1.61421269e-01f, -2.64881223e-01f, -1.12065032e-01f, -6.61875755e-02f,
  -2.57403284e-01f, -1.36104807e-01f, -3.23103756e-01f, 3.52960750e-02f, -3.17768902e-01f, 1.24784578e-02f,
  3.72687504e-02f, -1.28557801e-01f, 1.06275834e-01f, -2.89895505e-01f, -4.02869247e-02f, -1.84930816e-01f,
  4.82690558e-02f, -1.09476797e-01f, 7.89751336e-02f, -4.27649587e-01f, -1.05923191e-01f, -2.04374969e-01f,
  -1.76747471e-01f, 4.85486016e-02f, -1.22950487e-01f, -3.20897192e-01f, -3.85373950e-01f, -1.83430061e-01f,
  7.66665190e-02f, -2.88579185e-02f, -2.92968929e-01f, 2.24219877e-02f, 5.96741252e-02f, 8.56498256e-02f,
  8.00987259e-02f, -2.69496530e-01f, 9.28360894e-02f, 5.39002568e-02f, -1.23231985e-01f, 9.44237933e-02f,
  1.01201832e-01f, 4.04199213e-01f, 1.39559403e-01f, 1.74775273e-01f, -3.06794673e-01f, -3.63433585e-02f,
  2.81102628e-01f, 1.64915584e-02f, 9.43563059e-02f, 1.29399016e-01f, 1.20241441e-01f, 1.44629821e-01f,
  3.38899195e-01f, 1.44255406e-03f, 1.71532929e-01f, -3.87996912e-01f, -6.89378306e-02f, 1.43342823e-01f,
  4.90246341e-02f, -1.08256832e-01f, -2.68738031e-01f, -3.42425436e-01f, 4.24892008e-02f, -4.20749411e-02f,
  1.19093299e-01f, -3.21428210e-01f, -1.19410060e-01f, 1.23233132e-01f, -1.72050059e-01f, -7.37290680e-02f,
  1.66380554e-01f, -2.44389728e-01f, 8.28518644e-02f, -7.73777068e-02f, -1.37384087e-01f, -4.76576865e-01f,
  2.58675545e-01f, -5.98820969e-02f, 2.41759792e-01f, -7.49373287e-02f, 1.27854705e-01f, -9.91339535e-02f,
  1.84633657e-01f, -7.41734132e-02f, -1.16059370e-01f, -1.35340720e-01f, 1.79448444e-02f, 3.44237447e-01f,
  -2.10783914e-01f, -4.98235315e-01f, 9.06635895e-02f, 3.61654699e-01f, -8.15910846e-02f, 2.14319006e-01f,
  6.02348261e-02f, 1.46201938e-01f, 3.32909971e-01f, 5.16739488e-01f, -1.46928385e-01f, -2.11219657e-02f,
  2.94011056e-01f, -3.79387468e-01f, -3.67839664e-01f, -4.71995026e-02f, 5.94110191e-01f, -1.74609542e-01f,
  1.51736483e-01f, -2.69135594e-01f, 2.40442500e-01f, 1.81035131e-01f, 4.41179633e-01f, 3.67487818e-02f,
  5.62228486e-02f, 7.13301823e-02f, 8.40300769e-02f, 1.55372620e-01f, 5.23657858e-01f, -4.73493710e-02f,
  2.45183542e-01f, 1.88749701e-01f, 1.35168970e-01f, -4.39350195e-02f, 4.05032992e-01f, 7.53811970e-02f,
  -1.34556547e-01f, 2.57882159e-02f, 1.64429881e-02f, 1.95287421e-01f, 3.45271766e-01f, 1.07429147e-01f,
  2.89465517e-01f, -2.71000177e-01f, 1.61133453e-01f, -1.68075621e-01f, 4.67693470e-02f, 2.11552978e-01f,
  5.36907494e-01f, -1.43829897e-01f, 1.27570838e-01f, -3.50401878e-01f, 2.07016036e-01f, -4.77348529e-02f,
  -7.01997876e-02f, -7.75579438e-02f, 9.88492221e-02f, 3.36725920e-01f, 9.94159952e-02f, -2.72926599e-01f,
  -3.67720723e-01f, 4.24409747e-01f, -2.30040833e-01f, 3.21869254e-01f, 5.47858104e-02f, 2.60487765e-01f,
  -4.33380723e-01f, -2.77016461e-01f, -1.18534528e-01f, -2.15139672e-01f, -1.14580214e-01f, -5.61229698e-02f,
  2.94868559e-01f, 2.00209573e-01f, -5.47162928e-02f, -6.47405982e-02f, 2.86450505e-01f, 2.01141804e-01f,
  -1.64755300e-01f, 1.01904817e-01f, 2.35069040e-02f, 2.59039074e-01f, -2.34796226e-01f, 2.64675289e-01f,
  1.75324544e-01f, -2.09803209e-01f, 2.04331130e-02f, 8.41479063e-01f, 2.56072253e-01f, -2.11450383e-01f,
  3.68250668e-01f, -9.13254097e-02f, 1.34244442e-01f, -1.15595557e-01f, -2.89400399e-01f, -3.30554582e-02f,
  -1.91686094e-01f, 2.32095182e-01f, -1.39383301e-01f, -2.41780415e-01f, 5.48030175e-02f, 1.05723806e-01f,
  6.96601495e-02f, -1.26980469e-01f, -5.58498874e-02f, 2.06859380e-01f, 1.86548486e-01f, -6.23471916e-01f,
  -2.50780404e-01f, 3.80346291e-02f, 1.85951993e-01f, -2.14209110e-01f, -2.91456152e-02f, -2.73242712e-01f,
  -1.45864159e-01f, -1.74390059e-02f, -3.79880488e-01f, -9.32340547e-02f, -1.37475491e-01f, 9.26134214e-02f,
  -3.27163935e-01f, -2.59683073e-01f, -1.33141235e-01f, -1.29126266e-01f, 1.38259664e-01f, 6.10376179e-01f,
  -2.15269208e-01f, 1.00388536e-02f, -3.55724484e-01f, -3.45542639e-01f, -5.74963316e-02f, -7.77324215e-02f,
  7.82613233e-02f, 3.01978081e-01f, -2.85306592e-02f, -1.90594018e-01f, 7.91679695e-02f, 4.98459525e-02f,
  -1.87905982e-01f, -2.81507552e-01f, -8.66694227e-02f, 2.23704726e-01f, -1.31152838e-01f, 1.40173793e-01f,
  2.04433709e-01f, 1.22103713e-01f, -1.01582617e-01f, 3.89209464e-02f, -4.68071193e-01f, 1.99075013e-01f,
  1.20216221e-01f, -9.76308659e-02f, -3.73160124e-01f, -1.41690290e-02f, 1.25265375e-01f, -1.83670744e-01f,
  -2.73214936e-01f, 3.20580781e-01f, -5.21591231e-02f, -2.95159578e-01f, 9.48246196e-02f, 1.16496898e-01f,
  -1.76233321e-01f, 1.76108647e-02f, 7.71352425e-02f, 6.55439794e-02f, -9.15514752e-02f, 6.72193542e-02f,
  -2.29223236e-01f, -6.65509626e-02f, -1.64746597e-01f, -1.28025100e-01f, -7.32370466e-02f, 3.76295410e-02f,
  6.45371601e-02f, -1.40199885e-01f, -2.72773445e-01f, -8.03454071e-02f, -1.95407555e-01f, -2.17979342e-01f,
  4.19893920e-01f, -1.24950059e-01f, 2.25715771e-01f, -1.19695463e-03f, 4.88227233e-02f, -2.28200451e-01f,
  7.59242661e-03f, -1.73084766e-01f, -1.44229084e-01f, -4.79510613e-02f, 6.54241815e-02f, 1.42783836e-01f,
  3.03829402e-01f, -3.76900941e-01f, 4.85053584e-02f, -2.91443288e-01f, 1.71694309e-02f, 3.62904012e-01f,
  -1.80944681e-01f, 4.10006613e-01f, 3.10801953e-01f, 1.14744984e-01f, 2.15283707e-01f, -2.98236012e-01f,
  2.77341343e-02f, 8.19376856e-02f, -5.73468991e-02f, -2.34161720e-01f, 2.89393961e-01f, -4.00159419e-01f,
  2.11499095e-01f, -2.23553285e-01f, -4.89902824e-01f, -2.60147452e-01f, -1.40535548e-01f, 9.23320875e-02f,
  -1.35412008e-01f, -8.70366544e-02f, 9.92416684e-03f, -1.69678062e-01f, 1.31896101e-02f, -8.68814364e-02f,
  6.30742386e-02f, 4.11951281e-02f, -2.27527097e-01f, -1.58136204e-01f, 7.86881968e-02f, -1.05531827e-01f,
  3.56644571e-01f, -1.48425907e-01f, 1.22489758e-01f, 2.15937749e-01f, 1.03538536e-01f, 4.28757295e-02f,
  -3.44694220e-02f, 5.19478992e-02f, -1.35269046e-01f, 4.91901673e-02f, 3.96185547e-01f, 1.34131461e-02f,
  -2.70945996e-01f, -6.91222632e-03f, -1.23618923e-01f, 4.35943663e-01f, -3.35431076e-03f, -4.74243402e-01f,
  2.74027586e-01f, -1.16708085e-01f, -6.96290255e-01f, -8.54624659e-02f, 1.03834137e-01f, -1.05193645e-01f,
  2.23468915e-01f, 1.65509298e-01f, -3.11605066e-01f, 6.08533202e-03f, 8.03107545e-02f, -1.26880497e-01f,
  5.15694311e-03f, 2.04005077e-01f, 9.01888385e-02f, 5.07896423e-01f, 1.06847256e-01f, 8.24272484e-02f,
  -1.17393300e-01f, -2.26657733e-01f, -5.23052402e-02f, 1.26602992e-01f, 2.39294931e-01f, 1.90214124e-02f,
  -3.34405810e-01f, -1.35719255e-01f, 2.80684412e-01f, 4.28159200e-02f, -1.78229451e-01f, 1.78294510e-01f,
  1.85170174e-01f, 1.76898260e-02f, 2.14518562e-01f, 1.83324188e-01f, -4.62514907e-01f, 1.91287234e-01f,
  -1.26664817e-01f, -2.59872004e-02f, -5.96507378e-02f, 2.04229951e-01f, -1.63651794e-01f, 7.99942836e-02f,
  -3.24884541e-02f, -9.09632295e-02f, -2.22597290e-02f, -6.43563867e-01f, -4.63410234e-03f, -1.12409564e-02f,
  -6.15729578e-02f, -2.28990596e-02f, -1.71378076e-01f, -3.01727176e-01f, -8.07069540e-02f, -3.81794870e-01f,
  -1.75526038e-01f, -3.76960374e-02f, -3.54898840e-01f, -8.50816816e-02f, -4.11256552e-01f, 7.17991367e-02f,
  6.82334974e-02f, -9.93772820e-02f, 1.46916702e-01f, -4.16978002e-01f, 1.97051257e-01f, -2.26145968e-01f,
  4.25125584e-02f, -2.46082559e-01f, 3.06327581e-01f, -3.13331664e-01f, -1.08823098e-01f, -2.03037679e-01f,
  -4.40670326e-02f, 4.05075476e-02f, -1.79460682e-02f, -4.03553098e-01f, -4.29801673e-01f, -1.63129762e-01f,
  1.81283742e-01f, -1.73457023e-02f, -4.50387985e-01f, 1.33003190e-01f, -1.38185009e-01f, 1.81664005e-01f,
  3.44586931e-02f, 3.87771204e-02f, 5.98087981e-02f, 5.38721941e-02f, -1.61876053e-01f, 8.69580582e-02f,
  1.24665767e-01f, 1.38954863e-01f, 9.39228013e-03f, -3.58650014e-02f, -3.31145138e-01f, -4.43489030e-02f,
  2.70428061e-01f, 1.77670028e-02f, -1.30947948e-01f, 3.58853638e-02f, -3.66539657e-02f, 1.21103622e-01f,
  4.03582722e-01f, 5.01250550e-02f, 2.11586922e-01f, -3.24392825e-01f, 9.80319828e-02f, 8.15971419e-02f,
  6.33287951e-02f, -1.58618912e-01f, -3.65137130e-01f, -2.85798192e-01f, -1.28555685e-01f, -3.15588206e-01f,
  3.95820886e-02f, -3.61330748e-01f, -1.50915235e-01f, 1.80936739e-01f, -2.53660738e-01f, -4.58854958e-02f,
  3.05766538e-02f, -2.38743216e-01f, 2.78840035e-01f, -7.61139318e-02f, 3.63585576e-02f, -4.79331970e-01f,
  1.84512064e-01f, 1.71496183e-01f, 2.75967300e-01f, 1.17656857e-01f, -9.37303379e-02f, -6.05911128e-02f,
  2.11595133e-01f, -3.56526463e-03f, -2.55984992e-01f, 7.16712922e-02f, -2.19769776e-01f, 3.07383597e-01f,
  -2.37703785e-01f, -2.92336047e-01f, -3.41912173e-02f, 3.82925659e-01f, 8.45226496e-02f, 1.69874340e-01f,
  2.11497713e-02f, -2.21169107e-02f, 4.01289046e-01f, 3.64711434e-01f, 8.14592540e-02f, 2.14242697e-01f,
  2.43596375e-01f, -3.69313538e-01f, -1.44209579e-01f, 7.78477490e-02f, 5.70164561e-01f, -4.31231372e-02f,
  3.98202837e-02f, -2.40509316e-01f, 2.32462510e-01f, 1.22610882e-01f, 4.56836253e-01f, -1.46315634e-01f,
  6.00952515e-03f, -1.38991043e-01f, 2.09090337e-02f, 2.40751639e-01f, 4.45654035e-01f, -9.94923897e-03f,
  2.52677798e-01f, 4.16479498e-01f, 1.21886589e-01f, -1.43248469e-01f, 3.36985886e-01f, -2.47964524e-02f,
  -2.37649575e-01f, 1.08071424e-01f, 4.27720770e-02f, 1.50661275e-01f, 2.12311238e-01f, -1.17852418e-02f,
  2.40027741e-01f, -1.48927987e-01f, -3.38361802e-04f, -1.35550171e-01f, -4.34052646e-02f, 1.87175006e-01f,
  4.75663275e-01f, -9.32253003e-02f, 1.77222461e-01f, -3.22416246e-01f, 1.26599476e-01f, -1.24986405e-02f,
  -1.79508850e-01f, 1.57236919e-01f, -8.52009133e-02f, 1.51276007e-01f, 4.59864736e-02f, -4.30900365e-01f,
  -3.40787113e-01f, 4.47471350e-01f, -1.18221581e-01f, 3.15574437e-01f, 3.57660167e-02f, 1.60136685e-01f,
  -5.26981652e-01f, -6.35432899e-02f, 6.16039298e-02f, -1.64453089e-01f, -1.31759197e-01f, 7.11134076e-02f,
  3.44395846e-01f, 1.75383195e-01f, -5.67351803e-02f, -2.66208872e-02f, 2.73475438e-01f, 8.68760943e-02f,
  -1.57373562e-01f, 6.81287199e-02f, 2.87661632e-03f, 1.96974635e-01f, -2.71477342e-01f, 2.88853079e-01f,
  1.45714581e-01f, -1.48181289e-01f, -4.45730835e-02f, 7.53085017e-01f, 3.56476039e-01f, -1.74405843e-01f,
  5.44795573e-01f, 8.02399442e-02f, 2.80356586e-01f, -2.36794382e-01f, -1.49063483e-01f, -1.07814513e-01f,
  -2.24646121e-01f, 3.37774545e-01f, -1.59185782e-01f, -3.92705768e-01f, -5.03857322e-02f, 1.89181536e-01f,
  1.09228440e-01f, -2.82320231e-01f, -6.19391352e-02f, 6.31524473e-02f, 9.46828350e-02f, -5.36476612e-01f,
  -2.32961267e-01f, 9.30776596e-02f, 1.36425793e-01f, -2.66436756e-01f, -6.17585750e-03f, -2.40978435e-01f,
  -7.92246461e-02f, -8.66556317e-02f, -3.25166315e-01f, -1.19169451e-01f, 3.36170793e-02f, -1.07719913e-01f,
  -2.04139799e-01f, 1.68142114e-02f, -1.39052808e-01f, -2.87668198e-01f, 2.43489188e-03f, 5.79489887e-01f,
  -3.22240114e-01f, 2.01750055e-01f, -3.41794491e-01f, -4.06188786e-01f, -1.90691397e-01f, 6.52827173e-02f,
  -1.56883895e-01f, 3.98256809e-01f, -7.01438859e-02f, -1.19237483e-01f, -1.95383523e-02f, 3.84748019e-02f,
  -2.62637228e-01f, -1.01013280e-01f, -2.07276493e-01f, 1.39855370e-01f, -7.05253258e-02f, 1.42889768e-01f,
  2.85299748e-01f, -1.46569218e-02f, -8.66537243e-02f, 3.69492583e-02f, -3.45718294e-01f, 5.10423481e-02f,
  1.85179710e-01f, -1.46599516e-01f, -3.67492974e-01f, -2.41603196e-01f, 3.76812182e-02f, -1.04170375e-01f,
  -2.50405818e-01f, 4.29818869e-01f, 2.34098937e-02f, -1.97115421e-01f, -3.59383486e-02f, 2.18683630e-01f,
  -1.77018777e-01f, -2.46339768e-01f, -8.12722556e-03f, 1.20621473e-01f, 4.43473458e-02f, 1.32490829e-01f,
  -2.89492786e-01f, -1.74366057e-01f, -2.31262013e-01f, -1.14941880e-01f, -2.20140249e-01f, -1.52660757e-02f,
  3.06934826e-02f, -2.89273173e-01f, -1.55334055e-01f, 6.95813894e-02f, -1.24019176e-01f, 2.39960663e-02f,
  4.03464437e-01f, -2.61449665e-01f, 1.10253297e-01f, -7.32971728e-02f, 4.78528030e-02f, -1.79076642e-01f,
  3.77968475e-02f, -3.49931116e-03f, -5.35473344e-04f, -1.15403332e-01f, 1.04138859e-01f, 4.56787795e-02f,
  3.49411815e-01f, -3.89057726e-01f, 3.56458277e-02f, -3.80002677e-01f, -7.15931132e-02f, 3.31059635e-01f,
  -1.39476180e-01f, 1.78647637e-01f, 3.26864004e-01f, -7.21162334e-02f, 2.21168593e-01f, -2.23199084e-01f,
  6.48613647e-02f, 2.55044460e-01f, 1.60031877e-02f, -9.58477780e-02f, 3.33620161e-01f, -3.05270225e-01f,
  1.88113093e-01f, -1.24377571e-01f, -2.95953572e-01f, -2.90459484e-01f, -3.35098594e-01f, 1.24011375e-01f,
  -1.97208107e-01f, -5.96647374e-02f, -8.27609003e-02f, -2.25141153e-01f, -2.21977070e-01f, -2.96133041e-01f,
  2.01680541e-01f, -1.70927830e-02f, -2.08588824e-01f, -1.38819933e-01f, 9.68666226e-02f, -8.26438218e-02f,
  2.98756599e-01f, 1.01561517e-01f, 1.89584970e-01f, 1.24144899e-02f, 1.53375208e-01f, 8.07012394e-02f,
  -2.74682953e-03f, -4.13210168e-02f, -2.48382211e-01f, 1.60131499e-01f, 2.91534811e-01f, -4.32481878e-02f,
  -2.51507670e-01f, -2.48267371e-02f, -4.11391914e-01f, 2.25398675e-01f, 6.59844354e-02f, -5.38535178e-01f,
  3.59594494e-01f, 5.10592312e-02f, -6.19497716e-01f, -2.14199219e-02f, 1.49396062e-01f, -9.79479477e-02f,
  1.45078465e-01f, 1.87760517e-01f, -2.54107088e-01f, 6.19347394e-02f, -1.05778903e-01f, -2.30015129e-01f,
  -2.17872038e-02f, 1.74421340e-01f, -1.14390701e-01f, 4.78637964e-01f, 1.34204641e-01f, 1.57473654e-01f,
  -3.20072621e-01f, -7.03137815e-02f, 3.22320871e-02f, 2.87553184e-02f, 3.99201065e-01f, 2.54602045e-01f,
  -1.08975381e-01f, -1.44512221e-01f, 1.30545974e-01f, 2.23285705e-02f, 9.51985046e-02f, 1.84625134e-01f,
  2.41400257e-01f, -1.50887426e-02f, 4.26198356e-02f, 4.06606011e-02f, -5.13074100e-01f, 3.45679969e-01f,
  -2.43556723e-01f, -2.30913743e-01f, -1.95873097e-01f, 4.13422465e-01f, -3.06599820e-03f, 1.39902411e-02f,
  1.05460487e-01f, 7.64454380e-02f, -2.27088295e-02f, -7.40004778e-01f, -9.25039034e-03f, -2.90262289e-02f,
  -9.18909162e-03f, 7.59159103e-02f, -1.71976194e-01f, -2.15249777e-01f, -3.43550712e-01f, -3.25777024e-01f,
  -1.21133953e-01f, 6.28112778e-02f, -3.23636800e-01f, -8.80228207e-02f, -4.78467792e-01f, -8.90082121e-03f,
  -1.85631484e-01f, -6.11235388e-02f, 1.64591789e-01f, -4.58019733e-01f, 1.96650803e-01f, -1.96507812e-01f,
  -1.32816508e-01f, -2.82754332e-01f, 3.04464042e-01f, -2.45961249e-01f, -2.77285278e-01f, -1.76755205e-01f,
  1.04098264e-02f, 1.26974257e-02f, -1.49596810e-01f, -5.26525140e-01f, -3.10067803e-01f, -1.16482638e-01f,
  1.04672179e-01f, 2.36218750e-01f, -3.73276383e-01f, 1.67603686e-01f, -8.23832676e-02f, 3.90189365e-02f,
  -1.41996041e-01f, -5.40080015e-03f, 2.02375293e-01f, 2.32900474e-02f, -1.03215585e-02f, 7.66845420e-02f,
  2.41329744e-01f, 2.54830092e-01f, 1.43430471e-01f, 3.58513519e-02f, -3.24666053e-01f, 3.37644257e-02f,
  1.53714538e-01f, -1.68979540e-01f, -1.74944013e-01f, -9.72757190e-02f, 8.36822838e-02f, 9.37752724e-02f,
  4.15812761e-01f, 2.30165452e-01f, -1.82817671e-02f, -7.21600279e-02f, 2.13887274e-01f, -1.20154396e-02f,
  -2.07887515e-01f, -2.83627540e-01f, -2.09094048e-01f, -1.64224952e-01f, -7.68703595e-02f, -3.64552945e-01f,
  4.50283326e-02f, -4.23311502e-01f, -1.77975655e-01f, 1.78366140e-01f, -2.03485489e-01f, -8.45018178e-02f,
  1.72756478e-01f, -1.27532750e-01f, 2.53842741e-01f, -1.85608312e-01f, -4.46456671e-02f, -3.55734020e-01f,
  1.16520092e-01f, 1.17163368e-01f, 1.25405148e-01f, -5.08476198e-02f, 4.80179526e-02f, -2.59660017e-02f,
  3.21422756e-01f, -3.31898890e-02f, -3.90415221e-01f, 1.59782320e-01f, -1.95490807e-01f, 3.53268027e-01f,
  -2.44471446e-01f, -4.02045518e-01f, -4.20168228e-03f, 4.70117599e-01f, -1.39411658e-01f, 3.91020298e-01f,
  -1.97202880e-02f, 1.13733865e-01f, 5.00182390e-01f, 4.89988565e-01f, 1.11637682e-01f, 2.56709188e-01f,
  4.19318885e-01f, -3.48537773e-01f, -2.59416103e-01f, -5.38110510e-02f, 4.73457217e-01f, -1.82749107e-01f,
  1.94189578e-01f, -2.46918350e-01f, 1.75461695e-01f, -1.44990077e-02f, 3.89037341e-01f, -1.60907567e-01f,
  -5.26541062e-02f, -2.99998708e-02f, -1.58473998e-01f, 3.71264428e-01f, 4.05626714e-01f, -1.12808049e-01f,
  2.19227195e-01f, 3.10673535e-01f, -5.04304171e-02f, -7.51651302e-02f, 1.60084948e-01f, -1.44736111e-01f,
  -2.32237399e-01f, 1.76666602e-01f, 1.08925655e-01f, 1.88017443e-01f, 4.06493433e-02f, -7.43292784e-03f,
  2.69632965e-01f, -1.62134901e-01f, -4.89807986e-02f, -2.59863973e-01f, -1.74131066e-01f, 3.15628231e-01f,
  3.68324399e-01f, -1.27776423e-02f, 5.53766936e-02f, -1.70340240e-01f, 2.42645621e-01f, 5.89467213e-03f,
  2.72566993e-02f, 5.16549088e-02f, -1.76124573e-01f, 8.62672031e-02f, 1.57527521e-01f, -3.03034693e-01f,
  -2.81319797e-01f, 3.43656749e-01f, -3.79757993e-02f, 3.23906541e-01f, 2.17803326e-02f, 2.43819296e-01f,
  -4.21360940e-01f, -1.91696525e-01f, 1.23628601e-01f, -2.07761467e-01f, -2.17138365e-01f, 1.62011728e-01f,
  3.08039099e-01f, 4.56122428e-01f, 8.25097039e-02f, 8.14210065e-03f, -1.44854048e-02f, 4.69035953e-02f,
  6.94831461e-02f, -8.14863965e-02f, -1.92746088e-01f, 2.27647141e-01f, -1.11343428e-01f, 2.35074922e-01f,
  -5.85493483e-02f, -4.57891673e-02f, -2.71061491e-02f, 6.77953362e-01f, 2.64086664e-01f, -1.83448032e-01f,
  3.83867711e-01f, 1.07580207e-01f, 2.48712748e-01f, -3.60080540e-01f, -2.03117773e-01f, -8.30539688e-02f,
  -3.52192730e-01f, 2.26247191e-01f, -4.54283863e-01f, -3.32737237e-01f, 1.61934301e-01f, 1.71540156e-01f,
  4.95448858e-02f, -1.34002328e-01f, 8.65400806e-02f, 1.11524165e-01f, 1.77359387e-01f, -5.24008095e-01f,
  -1.64959729e-01f, 1.48131266e-01f, 2.55445570e-01f, -8.37046504e-02f, 1.04332536e-01f, -1.26783237e-01f,
  -2.24646315e-01f, 5.60833374e-03f, -4.76161152e-01f, 2.52721943e-02f, 8.25769678e-02f, -2.71037524e-03f,
  -1.28054395e-01f, -8.62177163e-02f, 1.24795929e-01f, -3.03100705e-01f, -6.47273511e-02f, 5.98932803e-01f,
  -4.51733828e-01f, 5.33868782e-02f, -5.36278188e-01f, -3.68401885e-01f, 1.11832358e-02f, 5.06252050e-03f,
  3.78019474e-02f, 4.89258379e-01f, -1.49896830e-01f, -1.02361277e-01f, 4.08035889e-03f, 1.74998447e-01f,
  -2.00191870e-01f, -9.35918093e-02f, -3.05120617e-01f, 1.16322994e-01f, -1.17117614e-01f, 1.62762448e-01f,
  1.17463335e-01f, -2.03830883e-01f, -2.51867622e-01f, -2.68506464e-02f, -4.77860212e-01f, 1.48309663e-01f,
  7.50896409e-02f, -1.07316472e-01f, -4.02364522e-01f, -1.22446515e-01f, 6.69096187e-02f, -3.36357243e-02f,
  -1.04826950e-01f, 4.87428039e-01f, 1.43142521e-01f, -2.81624436e-01f, 1.27684876e-01f, 9.01390612e-02f,
  -1.90998346e-01f, -3.89932066e-01f, 5.33106886e-02f, 1.32989943e-01f, -1.06970398e-02f, 7.43801892e-02f,
  -3.39058727e-01f, -3.80584933e-02f, -2.39774257e-01f, -9.22182873e-02f, 2.17747707e-02f, 7.95419440e-02f,
  1.44909084e-01f, -2.39769667e-01f, -2.24354625e-01f, -5.95236905e-02f, -2.12683663e-01f, 4.84404564e-02f,
  4.65542912e-01f, -2.02582836e-01f, 1.98952645e-01f, -7.07655493e-03f, -6.36734813e-02f, -1.76986754e-01f,
  1.25713996e-03f, 1.26288772e-01f, -1.97442129e-01f, -1.28805220e-01f, 9.99723226e-02f, 1.09224409e-01f,
  2.16802716e-01f, -5.04120409e-01f, 1.24377564e-01f, -4.36138690e-01f, -2.95720715e-02f, 1.95562497e-01f,
  -1.68442041e-01f, 3.25760931e-01f, 1.75942048e-01f, -1.08100049e-01f, 3.01050663e-01f, -2.08967596e-01f,
  1.96315646e-01f, 2.89141148e-01f, 4.09323014e-02f, -1.35578932e-02f, 4.62045759e-01f, -1.76978201e-01f,
  2.33635664e-01f, -1.55650228e-01f, -2.60590464e-01f, -1.90958202e-01f, -4.02319849e-01f, -3.65738720e-02f,
  -7.50672165e-03f, -2.78840661e-02f, 1.14021659e-01f, -2.52745777e-01f, -1.65192232e-01f, -2.40672752e-01f,
  4.33448851e-02f, 9.16607752e-02f, -7.99271185e-03f, -2.05074862e-01f, 2.08702698e-01f, 4.56621088e-02f,
  3.18358630e-01f, -3.23021412e-02f, 2.85525322e-01f, 9.73515585e-02f, 3.88099104e-01f, 3.70880038e-01f,
  -2.46243179e-03f, 2.74741650e-02f, -2.21005753e-01f, 3.32867727e-03f, 3.68910939e-01f, -3.39470878e-02f,
  -3.27220410e-02f, -1.19697087e-01f, -2.68107980e-01f, 2.46174291e-01f, 3.73540521e-02f, -7.18718052e-01f,
  2.23735332e-01f, -1.34843066e-02f, -6.83350384e-01f, -1.83341280e-01f, 3.50562041e-04f, -6.05610870e-02f,
  2.12164104e-01f, 1.88992232e-01f, -1.89276129e-01f, -1.53505057e-01f, -1.34153545e-01f, -7.35807642e-02f,
  1.31669998e-01f, 2.32722834e-01f, -1.05019249e-01f, 4.25481111e-01f, 1.40206486e-01f, 2.91782290e-01f,
  -1.95806056e-01f, -7.81411007e-02f, 8.72377604e-02f, 4.50724885e-02f, 3.25291067e-01f, 2.53062367e-01f,
  -7.24069998e-02f, -1.95418894e-01f, 2.80513167e-01f, 2.50674412e-02f, -1.90435052e-02f, 3.90812546e-01f,
  2.72495542e-02f, 1.20370171e-03f, 5.26571460e-02f, 3.84175070e-02f, -3.15241784e-01f, 2.70651877e-01f,
  -1.67526171e-01f, -1.25487983e-01f, -2.03911185e-01f, 2.98868775e-01f, 1.63837746e-02f, 2.67961174e-01f,
  -4.96451221e-02f, 1.57589972e-01f, -4.00191434e-02f, -9.70115423e-01f, -1.38340471e-02f, 1.02247782e-01f,
  -4.19912785e-02f, -2.72393245e-02f, -3.02108675e-01f, -2.28057534e-01f, -2.05994129e-01f, -6.14398718e-01f,
  -3.41303229e-01f, -3.64145562e-02f, -3.08738768e-01f, -2.39266425e-01f, -5.34844160e-01f, 3.37365642e-02f,
  -1.22499831e-01f, -1.94887985e-02f, 3.98237795e-01f, -3.64354551e-01f, 2.40294099e-01f, -1.66320890e-01f,
  -1.27545521e-01f, -2.82654583e-01f, 4.66239721e-01f, -1.95755526e-01f, -8.40409771e-02f, -4.11354527e-02f,
  -9.83435735e-02f, 2.60013372e-01f, -3.29433046e-02f, -5.96932828e-01f, -1.04007237e-01f, -3.03831965e-01f,
  -6.33666152e-03f, 9.66171175e-02f, -2.99861312e-01f, 2.18695208e-01f, 1.19125076e-01f, 1.80241749e-01f,
  -1.32283077e-01f, -1.70886293e-02f, 2.32672870e-01f, 1.34043142e-01f, 1.01628870e-01f, 1.65091515e-01f,
  2.56261468e-01f, 2.40564957e-01f, 1.85291301e-02f, -6.35154098e-02f, -2.64235765e-01f, -1.50674311e-02f,
  4.37590703e-02f, -2.44415224e-01f, -1.32765308e-01f, -2.11574480e-01f, -9.99547914e-03f, 2.49591738e-01f,
  2.57502735e-01f, 3.80420446e-01f, 5.33583090e-02f, -2.38231253e-02f, 2.38016218e-01f, -1.01872403e-02f,
  -4.19937789e-01f, -3.74696523e-01f, -3.75499368e-01f, -2.82106817e-01f, -1.25755370e-01f, -4.58534867e-01f,
  1.80772990e-01f, -2.27823973e-01f, 1.72421839e-02f, 1.47669893e-02f, 1.17794976e-01f, -3.03899106e-02f,
  3.08876246e-01f, -1.20726049e-01f, 4.34412450e-01f, -4.27118063e-01f, 2.10107975e-02f, -3.84908646e-01f,
  -9.05644447e-02f, 1.44298658e-01f, 1.42978206e-01f, 3.24969203e-03f, -1.48591027e-01f, 7.88605586e-02f,
  4.08383198e-02f, 1.83549061e-01f, -4.26943868e-01f, 7.22832046e-03f, -2.77220458e-01f, 2.38689333e-01f,
  -1.51764229e-01f, -2.31873035e-01f, -5.39974272e-02f, 3.54564726e-01f, -3.98654304e-03f, 2.42959797e-01f,
  -4.29615602e-02f, -2.02525370e-02f, 4.44547325e-01f, 2.54472435e-01f, 1.36386856e-01f, 1.94753677e-01f,
  3.88950348e-01f, -2.69258976e-01f, -2.22281530e-01f, -1.84680503e-02f, 3.89859349e-01f, -2.25910231e-01f,
  1.27260402e-01f, -1.75972894e-01f, 3.05181742e-01f, -9.37335119e-02f, 2.57812113e-01f, -1.76037088e-01f,
  -2.63571799e-01f, -8.34189449e-03f, -2.41522919e-02f, 3.77559304e-01f, 2.48034209e-01f, -2.01575667e-01f,
  3.48020732e-01f, 4.38736737e-01f, 1.22191936e-01f, 2.83790641e-02f, 8.16943571e-02f, -2.07712099e-01f,
  -1.47918582e-01f, 1.51207358e-01f, 2.54053548e-02f, 1.13602467e-01f, -1.62990242e-01f, -8.60948861e-03f,
  2.29664117e-01f, -1.54005632e-01f, 6.01038374e-02f, -9.45963413e-02f, -1.32363858e-02f, 3.81834358e-01f,
  1.23389281e-01f, -2.17032656e-01f, 8.32816064e-02f, -9.59915072e-02f, 2.18249515e-01f, 5.76396957e-02f,
  -1.53899655e-01f, 2.15919822e-01f, -1.70370698e-01f, -6.46084175e-02f, 4.24989872e-02f, -4.14707094e-01f,
  -1.64895535e-01f, 3.03460091e-01f, -3.95504460e-02f, 2.31114402e-01f, 1.95259199e-01f, 3.11331786e-02f,
  -4.30672377e-01f, -8.47781599e-02f, 1.20555364e-01f, 1.20292455e-02f, -5.20381592e-02f, 1.42803445e-01f,
  3.63111526e-01f, 5.28557062e-01f, -6.72197789e-02f, -1.18763540e-02f, 2.58019939e-02f, -1.28112867e-01f,
  -9.18367282e-02f, -5.61735295e-02f, -2.60698020e-01f, -3.67411599e-03f, -1.17396370e-01f, 2.93304503e-01f,
  -1.80101022e-01f, -1.77796751e-01f, 1.73978563e-02f, 6.53783917e-01f, 1.49430737e-01f, -9.20417905e-03f,
  3.49098772e-01f, 8.69316459e-02f, 4.25077379e-01f, -4.47290272e-01f, -2.21663853e-03f, 1.85001418e-02f,
  -2.08600923e-01f, 6.93270238e-03f, -5.06282568e-01f, -4.82887477e-01f, 1.02979653e-01f, 2.78484434e-01f,
  -6.61979020e-02f, -1.17434487e-01f, 1.99431688e-01f, 9.65315923e-02f, 1.88184276e-01f, -3.59453708e-01f,
  -2.06401467e-01f, 1.42138168e-01f, 1.85672715e-01f, -3.22772771e-01f, 2.63871342e-01f, 1.58823356e-01f,
  -2.38552019e-01f, -2.01008469e-02f, -6.76245749e-01f, 7.58315250e-02f, 5.63665070e-02f, -2.31465116e-01f,
  -4.17474471e-02f, -1.58272982e-01f, 7.13908672e-02f, -3.79049927e-01f, -2.98712356e-03f, 5.60313404e-01f,
  -3.22268873e-01f, 2.14989603e-01f, -4.07765895e-01f, -3.13038200e-01f, -2.12125182e-01f, 1.19786449e-01f,
  -7.69620063e-03f, 2.07345143e-01f, -1.71899021e-01f, -3.14496726e-01f, 1.35805443e-01f, 1.70030162e-01f,
  -2.09777765e-02f, -1.13582775e-01f, -1.36327565e-01f, 1.42874986e-01f, -6.12400565e-03f, 2.50827461e-01f,
  1.76190540e-01f, -1.46401152e-01f, -1.12049490e-01f, -1.25160605e-01f, -2.94285119e-01f, -3.45964357e-02f,
  1.39638156e-01f, -1.01806648e-01f, -4.38796312e-01f, -7.94709697e-02f, -9.57443267e-02f, -4.11854945e-02f,
  -2.64279395e-01f, 3.77277732e-01f, 2.11421866e-03f, -3.19594949e-01f, -7.60540739e-02f, 5.00730760e-02f,
  -1.24634847e-01f, -5.16709208e-01f, -3.78274955e-02f, 2.87235737e-01f, 7.63418898e-02f, 1.30793497e-01f,
  -5.77388406e-01f, -5.55889942e-02f, -1.46981761e-01f, -1.88057646e-01f, -5.94295003e-02f, 1.85722783e-01f,
  3.24947089e-02f, -1.21185422e-01f, -2.07628876e-01f, -2.80104410e-02f, -2.49050245e-01f, -3.66023667e-02f,
  3.15316916e-01f, -2.90896505e-01f, 9.07941759e-02f, -1.13949783e-01f, 1.36942565e-01f, -4.00424123e-01f,
  7.00935768e-03f, -2.08884049e-02f, -4.91797999e-02f, -1.59819201e-01f, -7.04200491e-02f, -7.28614479e-02f,
  1.17619410e-01f, -5.00288427e-01f, -7.54312873e-02f, -4.08617884e-01f, -8.74823183e-02f, 4.91629466e-02f,
  -5.48307821e-02f, 3.42213780e-01f, 3.20481241e-01f, -3.41201536e-02f, 2.55353689e-01f, -1.57881036e-01f,
  6.46250844e-02f, 3.79106164e-01f, 1.09709807e-01f, -9.06672180e-02f, 5.06907523e-01f, -1.00058958e-01f,
  1.60253584e-01f, -7.85001963e-02f, -3.95758748e-01f, -6.59718290e-02f, -2.27824137e-01f, 7.46229962e-02f,
  -5.54013699e-02f, -1.12855665e-01f, 1.27196848e-01f, -2.60833532e-01f, -1.77099898e-01f, -4.61954415e-01f,
  8.08381215e-02f, 2.88205799e-02f, 4.67161238e-02f, -8.94572139e-02f, 3.89665291e-02f, 1.13700964e-01f,
  2.82376081e-01f, -7.59468228e-02f, 1.03471845e-01f, 2.96991747e-02f, 3.70343447e-01f, 3.76884788e-01f,
  1.80254430e-01f, 5.00683412e-02f, -2.60718107e-01f, 1.39812365e-01f, 4.80778605e-01f, -1.47013426e-01f,
  -1.68243259e-01f, -4.37093377e-02f, -3.62612367e-01f, 2.78340340e-01f, 1.47109821e-01f, -8.45746040e-01f,
  2.87575334e-01f, 8.18645060e-02f, -4.78932351e-01f, -1.16270654e-01f, -1.82365552e-01f, -9.71644521e-02f,
  1.46639809e-01f, 1.28274962e-01f, -1.58345193e-01f, -1.56848341e-01f, -9.30156037e-02f, -9.02970359e-02f,
  1.39377460e-01f, 2.42625222e-01f, -2.52166688e-01f, 2.24420801e-01f, 2.89207637e-01f, 6.47848994e-02f,
  -2.27621257e-01f, -1.73263535e-01f, 2.06055894e-01f, 9.24772024e-02f, 2.55568027e-01f, 3.21972460e-01f,
  -9.45733339e-02f, -1.10013261e-01f, 1.91478804e-01f, 1.80720836e-02f, 1.33178309e-01f, 5.02317250e-01f,
  1.37894735e-01f, -7.47128725e-02f, 1.29783042e-02f, 1.49129435e-01f, -2.25751564e-01f, 1.68018252e-01f,
  -2.22077683e-01f, -2.78127253e-01f, -3.47104639e-01f, 3.28803957e-01f, 6.18695654e-02f, 3.38336676e-01f,
  1.12132765e-01f, 3.22462708e-01f, -1.52327284e-01f, -1.07800138e+00f, 2.61061862e-02f, 2.11271510e-01f,
  4.00476083e-02f, 1.44776076e-01f, -3.32821280e-01f, -1.40714571e-01f, -1.99216917e-01f, -6.03150070e-01f,
  -1.63391650e-01f, -3.45947035e-02f, -6.53217494e-01f, -3.94169539e-01f, -4.19006824e-01f, -2.46537581e-01f,
  -2.28874400e-01f, 7.97288194e-02f, 3.65934014e-01f, -4.37012643e-01f, 1.37992740e-01f, -3.18592638e-01f,
  -2.63703078e-01f, -1.22934647e-01f, 5.64838886e-01f, -8.24028626e-02f, -1.08182237e-01f, -6.15660921e-02f,
  3.44582275e-02f, 3.45971465e-01f, -8.41497704e-02f, -4.55093265e-01f, -1.34763241e-01f, -1.65786192e-01f,
  -7.22053796e-02f, 1.35028511e-01f, -4.11008537e-01f, 3.46972227e-01f, 2.22646981e-01f, 7.54433777e-03f,
  3.56000215e-02f, 2.59237681e-02f, 1.84675351e-01f, 3.41035843e-01f, 1.79255784e-01f, -7.20696151e-02f,
  2.22716123e-01f, 2.29438007e-01f, 4.19238880e-02f, -3.32138091e-02f, -3.62157077e-01f, -1.35777369e-01f,
  1.29119918e-01f, -5.78064397e-02f, -1.24352068e-01f, -9.80539918e-02f, 1.36470437e-01f, 2.17183188e-01f,
  2.12308288e-01f, 4.54371303e-01f, 1.25579357e-01f, 2.74228826e-02f, 2.19359860e-01f, 5.11614643e-02f,
  -3.53048414e-01f, -3.38910103e-01f, -1.48774147e-01f, -1.86185583e-01f, -1.29279226e-01f, -3.42632592e-01f,
  8.34245235e-02f, -2.18282983e-01f, 1.81000322e-01f, -9.31855142e-02f, 1.27759010e-01f, 1.87784377e-02f,
  1.73513934e-01f, -1.77697912e-01f, 3.93600166e-01f, -6.45598948e-01f, 3.62626761e-02f, -8.56594220e-02f,
  -1.38851494e-01f, 1.94067985e-01f, 6.37086704e-02f, 1.20272234e-01f, -1.73816811e-02f, 8.35567538e-04f,
  -2.79482221e-04f, 1.07174024e-01f, -3.27558368e-01f, -2.99443901e-02f, -8.47796798e-02f, 9.12416056e-02f,
  -1.07422769e-01f, 4.59948648e-03f, 5.19536547e-02f, 3.11729014e-01f, -6.64598420e-02f, 2.26804405e-01f,
  5.75444065e-02f, -2.49796994e-02f, 4.83703911e-01f, 4.30110335e-01f, 2.22941771e-01f, 9.22377035e-02f,
  4.30254549e-01f, -1.26440048e-01f, 5.72002446e-03f, 1.53880984e-01f, 3.88127923e-01f, -3.73102605e-01f,
  -7.84802288e-02f, -6.35313019e-02f, 1.86655045e-01f, 3.32412980e-02f, 4.52124290e-02f, -1.35294780e-01f,
  -2.15788424e-01f, -1.20047994e-01f, -7.42365140e-03f, 4.04189467e-01f, 1.87348858e-01f, -1.72718063e-01f,
  2.89354295e-01f, 2.77257651e-01f, 1.42272590e-02f, -1.60083786e-01f, -1.13369174e-01f, -3.01804245e-01f,
  -2.39090055e-01f, 5.11345640e-02f, 1.33331329e-01f, 5.19491173e-02f, -4.19349730e-01f, -5.51553704e-02f,
  7.59530514e-02f, -1.56018794e-01f, -7.26781832e-03f, -5.09355292e-02f, 3.55049074e-02f, 3.02816868e-01f,
  6.70602098e-02f, -1.80276871e-01f, -1.95803978e-02f, 1.06296921e-02f, 2.26080000e-01f, 1.17993444e-01f,
  -1.20513141e-02f, 2.22080931e-01f, -3.12293291e-01f, -1.39291927e-01f, -5.29407570e-03f, -1.91432521e-01f,
  -4.10265587e-02f, 1.31413832e-01f, 7.10531920e-02f, 1.57899007e-01f, 1.80266276e-01f, -3.09535563e-02f,
  -4.36395019e-01f, 6.33163527e-02f, 1.44142091e-01f, -3.12442034e-02f, -7.04866350e-02f, 1.66563720e-01f,
  1.28410518e-01f, 4.52091038e-01f, 2.22666329e-03f, 2.95724757e-02f, 4.25373875e-02f, 5.58545217e-02f,
  -1.19304992e-01f, 1.46233793e-02f, -1.74447238e-01f, 1.33670494e-01f, -1.30053014e-01f, 3.11530054e-01f,
  -2.25512102e-01f, 1.02751598e-01f, -6.98067099e-02f, 3.86545062e-01f, -7.48967752e-02f, 1.00304998e-01f,
  2.62579411e-01f, -1.47662833e-02f, 4.81071055e-01f, -3.63463819e-01f, 4.65449989e-02f, 1.49660096e-01f,
  -1.40651837e-01f, -2.14389861e-02f, -8.79785359e-01f, -4.28048402e-01f, 1.42849416e-01f, 1.41846418e-01f,
  -3.62580307e-02f, -3.06668561e-02f, 1.58995301e-01f, 1.84722338e-02f, -5.47087705e-03f, -2.60373980e-01f,
  -2.24440813e-01f, 4.11915891e-02f, 2.55175948e-01f, -1.03006423e-01f, 1.92442343e-01f, 2.56964713e-01f,
  -1.42072931e-01f, 1.30807146e-01f, -7.06804156e-01f, 1.17194541e-01f, -5.84896542e-02f, -3.41064960e-01f,
  1.37671798e-01f, -6.43452927e-02f, 5.48468307e-02f, -4.82746392e-01f, -8.38083774e-02f, 4.82764244e-01f,
  -1.63946494e-01f, 8.69409069e-02f, -3.27759415e-01f, -1.09273098e-01f, -2.34994650e-01f, 7.59888068e-02f,
  -1.86111294e-02f, 1.95360646e-01f, 1.14306146e-02f, -2.65014768e-01f, -5.30164763e-02f, 2.16224924e-01f,
  -2.24549443e-01f, -1.09666571e-01f, -3.23536396e-01f, 1.29078224e-01f, 3.19917835e-02f, 1.74268827e-01f,
  -1.12799406e-01f, -1.70774683e-01f, -2.65388727e-01f, 1.44671500e-02f, -3.50906998e-01f, -9.68899950e-02f,
  1.36169910e-01f, -8.71496946e-02f, -3.10852945e-01f, -2.97071815e-01f, -1.14991568e-01f, -1.95833683e-01f,
  -1.26872152e-01f, 1.72716513e-01f, 5.00704609e-02f, 1.40290949e-02f, -9.73434225e-02f, -9.15843770e-02f,
  -3.59588414e-01f, -5.25085986e-01f, 7.33392537e-02f, 4.85202074e-01f, 6.34094700e-03f, 3.40979129e-01f,
  -5.88181257e-01f, 1.10932834e-01f, -6.00130148e-02f, 4.93730605e-03f, 1.18129134e-01f, 9.94274989e-02f,
  -6.49596937e-03f, -1.81510255e-01f, -1.15050664e-02f, -2.09269121e-01f, -1.49422750e-01f, -5.40822670e-02f,
  1.87727451e-01f, -4.07374918e-01f, -4.79718484e-02f, -8.89735967e-02f, -3.45745794e-02f, -4.53162700e-01f,
  1.24879122e-01f, 2.24340215e-01f, 4.84762760e-03f, -9.61938426e-02f, -4.54928465e-02f, 1.17421821e-02f,
  6.35954887e-02f, -3.79352301e-01f, -1.23822391e-01f, -4.46289659e-01f, 5.61442859e-02f, 3.45825613e-03f,
  -1.73433110e-01f, 2.92571127e-01f, 4.37946171e-01f, -2.00225443e-01f, 1.11584179e-01f, -4.22408804e-02f,
  1.13468021e-01f, 3.93863797e-01f, -2.11265106e-02f, -1.64293453e-01f, 4.02978718e-01f, -2.14691117e-01f,
  -7.97961093e-03f, 6.43687621e-02f, -2.54642487e-01f, 7.46998412e-04f, -5.17835375e-03f, 7.37345666e-02f,
  2.51148138e-02f, -2.79709578e-01f, 4.61142920e-02f, -2.17260718e-01f, -4.71036993e-02f, -4.51387584e-01f,
  4.37163711e-02f, 2.36440301e-01f, -1.48189276e-01f, -2.57351160e-01f, 5.15573137e-02f, 3.81223597e-02f,
  5.27069747e-01f, -1.27441153e-01f, -4.14599571e-03f, -4.32678163e-02f, 2.95436978e-01f, 3.49508315e-01f,
  1.26427636e-01f, 1.60520986e-01f, -7.17777461e-02f, 1.30517960e-01f, 4.65512067e-01f, -1.35039806e-01f,
  -2.30638251e-01f, 7.55058601e-02f, -2.94382274e-01f, 2.32804298e-01f, 2.45735154e-01f, -6.17538273e-01f,
  1.83967113e-01f, 1.01161502e-01f, -4.50709760e-01f, -6.73062168e-03f, -1.70775235e-01f, -2.36852050e-01f,
  1.87489048e-01f, 4.15738791e-01f, -4.11630183e-01f, -1.75578490e-01f, -3.36939692e-01f, -1.81792393e-01f,
  1.97556093e-01f, 7.38302097e-02f, -4.77497518e-01f, 3.38336676e-01f, 4.39253479e-01f, 2.21345155e-03f,
  -1.84583277e-01f, -1.65032685e-01f, 1.90811425e-01f, 1.92600220e-01f, 4.47227746e-01f, 2.03296229e-01f,
  1.51994675e-01f, -1.00904070e-01f, 1.45377129e-01f, -6.26689568e-02f, 1.99110523e-01f, 6.40120089e-01f,
  1.21797249e-01f, -4.27197367e-02f, -4.66460250e-02f, 6.65028691e-02f, -9.97706279e-02f, 1.92081645e-01f,
  -8.12806785e-02f, -2.28681594e-01f, -2.79640287e-01f, 1.27739117e-01f, 1.86664052e-02f, 3.87898058e-01f,
  1.44806564e-01f, 6.24727547e-01f, -1.75487883e-02f, -8.11333299e-01f, 3.57998796e-02f, 1.85988441e-01f,
  4.58394438e-02f, -1.24899987e-02f, -3.63634020e-01f, -3.10244471e-01f, -2.43911281e-01f, -4.90684658e-01f,
  -1.32934123e-01f, 2.76482548e-04f, -7.14774668e-01f, -6.47718728e-01f, -3.26251924e-01f, -2.40508243e-01f,
  -1.20469488e-01f, 1.44044748e-02f, 5.75388610e-01f, -2.03871787e-01f, 6.63497448e-02f, -3.77447605e-01f,
  -3.11218053e-01f, -1.15689479e-01f, 6.82495654e-01f, -1.79251686e-01f, -2.89540458e-02f, 1.13845402e-02f,
  -1.14306204e-01f, 3.18764120e-01f, -1.08015344e-01f, -5.27304769e-01f, -2.24435717e-01f, -2.30765864e-01f,
  -5.01025729e-02f, 3.02177012e-01f, -2.60672987e-01f, 5.47588229e-01f, 2.51609653e-01f, 4.39270996e-02f,
  -1.80693567e-01f, -2.98572302e-01f, 7.70121664e-02f, 2.20818400e-01f, 7.40449652e-02f, 8.64016935e-02f,
  2.84710735e-01f, 1.76643461e-01f, 1.23219237e-01f, -1.65595442e-01f, -2.56357044e-01f, -1.37638777e-01f,
  5.36248572e-02f, -1.18058659e-01f, -1.88622117e-01f, -1.40111700e-01f, 2.11078942e-01f, 5.16880117e-02f,
  6.91082329e-02f, 3.18837315e-01f, 1.88681990e-01f, 3.08318287e-01f, 4.43346575e-02f, -4.13204767e-02f,
  -4.41901714e-01f, -4.79237139e-01f, -2.37949997e-01f, -1.02833182e-01f, -1.38256714e-01f, -2.26922914e-01f,
  2.46083677e-01f, -3.01518589e-01f, 1.62128165e-01f, -1.45749509e-01f, 1.55684099e-01f, -1.64895907e-01f,
  9.27073583e-02f, -1.46627605e-01f, 4.73024368e-01f, -7.08470643e-01f, 5.38532659e-02f, -1.66455224e-01f,
  -3.92113775e-01f, 9.29144248e-02f, -1.27905771e-01f, 4.02357876e-02f, 1.14101388e-01f, 8.61858763e-03f,
  -4.15254943e-03f, 3.18668127e-01f, -3.83368462e-01f, 6.30771816e-02f, -5.25237545e-02f, 2.68298388e-01f,
  1.03571564e-01f, 2.03878492e-01f, -9.83641893e-02f, 5.52587770e-02f, 2.76840273e-02f, 1.05048835e-01f,
  1.68378726e-02f, -5.57033494e-02f, 3.55179757e-01f, 3.49658191e-01f, 7.77408406e-02f, 2.49547124e-01f,
  4.74026799e-01f, -1.23057917e-01f, 2.27785572e-01f, 3.23568165e-01f, 3.49432975e-01f, -4.13520545e-01f,
  -1.33483306e-01f, -1.18390061e-01f, -5.45701385e-02f, -1.93589926e-01f, 1.23150669e-01f, -1.58463389e-01f,
  -1.73664019e-01f, -2.26044267e-01f, 7.30644166e-03f, 1.56330809e-01f, 4.90067936e-02f, -1.80648372e-01f,
  1.37663573e-01f, -6.64472505e-02f, 1.86641105e-02f, 3.63781899e-02f, -2.02108473e-01f, -3.20147753e-01f,
  2.69113109e-02f, -9.15321335e-02f, -1.41314026e-02f, 5.82257062e-02f, -5.65246701e-01f, -4.84225899e-03f,
  1.42520040e-01f, 8.99960324e-02f, 1.21676633e-02f, 2.14561567e-01f, 9.68970805e-02f, 3.13942969e-01f,
  3.01997334e-01f, -2.39950851e-01f, -1.70396522e-01f, -3.46860141e-02f, -7.00846838e-04f, 2.66938448e-01f,
  2.43109763e-02f, 3.20334919e-02f, -2.56844997e-01f, -3.51735294e-01f, -1.28153294e-01f, -3.08017880e-01f,
  1.37327492e-01f, 1.69586077e-01f, 1.84273347e-01f, 3.17457497e-01f, 1.39066055e-01f, 8.28279033e-02f,
  -4.61484879e-01f, 1.72424555e-01f, 1.48993179e-01f, -8.77808407e-02f, -1.29967704e-01f, 1.44348308e-01f,
  2.07920223e-01f, 1.99716330e-01f, -3.99873732e-03f, -3.52922343e-02f, 3.74247623e-03f, -4.56839465e-02f,
  -8.27950165e-02f, -7.53671378e-02f, -6.06797412e-02f, 3.60517204e-01f, -3.76087949e-02f, 1.27131581e-01f,
  -2.37628192e-01f, 8.66307244e-02f, 8.45229626e-02f, 4.16853398e-01f, -1.44135535e-01f, 1.63664043e-01f,
  3.30459923e-01f, -3.32901627e-02f, 5.74878275e-01f, -2.29296774e-01f, 4.18763288e-04f, 2.57521182e-01f,
  -1.76559344e-01f, 1.73621118e-01f, -8.40289891e-01f, -4.07831699e-01f, 2.60381818e-01f, 2.11897016e-01f,
  1.91861525e-01f, 6.59930333e-03f, 2.78698981e-01f, -8.49330649e-02f, -1.90214291e-02f, -3.06493789e-01f,
  -1.75941527e-01f, -1.00393005e-01f, 2.76161224e-01f, -3.34626108e-01f, -4.38331142e-02f, 3.10318738e-01f,
  -1.68255061e-01f, 7.67599046e-02f, -7.97743142e-01f, 3.09248548e-02f, 1.81948930e-01f, -2.30240151e-01f,
  3.18120331e-01f, 6.04554042e-02f, 4.35854457e-02f, -4.26881641e-01f, -7.29272291e-02f, 4.02738512e-01f,
  -2.04701915e-01f, 7.98930675e-02f, -4.50139910e-01f, -1.07269414e-01f, -6.94858655e-03f, 9.58050489e-02f,
  -1.46025270e-01f, 1.91385582e-01f, -7.05502331e-02f, -2.02544838e-01f, -1.16514802e-01f, 8.48761871e-02f,
  -2.07805172e-01f, -9.03107673e-02f, -1.74989134e-01f, -1.74942818e-02f, -2.45909803e-02f, 1.10816590e-01f,
  -1.68704018e-01f, -3.61345679e-01f, -2.17335775e-01f, 3.14506516e-02f, -2.55118281e-01f, -1.61155000e-01f,
  -2.61818543e-02f, -6.40202984e-02f, -4.44799036e-01f, -1.05167255e-01f, -6.64886758e-02f, -1.53189078e-01f,
  -1.03253670e-01f, 9.75597464e-03f, 2.85179853e-01f, 6.68149590e-02f, -1.84758697e-02f, -1.14521191e-01f,
  -2.41144955e-01f, -5.89642584e-01f, -5.34670316e-02f, 5.62542975e-01f, 1.52024984e-01f, 2.40269527e-01f,
  -6.77709162e-01f, 4.27255072e-02f, -7.52468258e-02f, -1.42415594e-02f, 2.15972923e-02f, -1.41798668e-02f,
  -6.59891963e-02f, -2.52943560e-02f, -6.30416051e-02f, 7.80651122e-02f, -1.05550312e-01f, 1.10975288e-01f,
  5.02893366e-02f, -2.97983468e-01f, 1.92054249e-02f, -1.52350292e-01f, 7.26704448e-02f, -2.49464199e-01f,
  4.49659862e-02f, 3.51800770e-02f, -9.44286957e-02f, -2.73730695e-01f, 2.05656253e-02f, -2.91881468e-02f,
  -4.67523783e-02f, -4.36508387e-01f, -1.33542135e-01f, -4.13434744e-01f, 1.16482735e-01f, 2.21130639e-01f,
  -2.75524199e-01f, 2.89931476e-01f, 3.74183357e-01f, -2.72901267e-01f, 2.23330379e-01f, 2.29660437e-01f,
  1.17381543e-01f, 2.88865536e-01f, -2.11973339e-02f, -1.47944868e-01f, 4.67881709e-01f, -1.52694836e-01f,
  1.32713854e-01f, 8.81001279e-02f, -2.92861015e-01f, 2.85472926e-02f, -1.15067819e-02f, 2.43671373e-01f,
  1.32826895e-01f, -3.70391816e-01f, -3.57381552e-02f, -3.18023503e-01f, 1.65826902e-01f, -4.41551268e-01f,
  -2.97068264e-02f, 1.45879492e-01f, -2.56654888e-01f, -6.90930262e-02f, 7.69439265e-02f, -8.12949389e-02f,
  5.59054136e-01f, -1.01740815e-01f, -1.25491768e-01f, -8.44836049e-03f, 1.57134563e-01f, 3.02434742e-01f,
  9.07243975e-03f, 3.13437879e-01f, -8.35667700e-02f, 1.69982016e-01f, 3.61115366e-01f, -1.77004054e-01f,
  -2.47381940e-01f, 1.87009379e-01f, -2.69113183e-01f, 7.47283697e-02f, 6.11427799e-02f, -7.12309718e-01f,
  1.32214859e-01f, 2.38250196e-01f, -4.11900878e-01f, -1.81168213e-01f, -2.35325947e-01f, -5.03873944e-01f,
  1.67691454e-01f, 3.31808507e-01f, -3.98869783e-01f, -5.53349890e-02f, -2.24296510e-01f, -3.02742153e-01f,
  1.91025585e-01f, 2.96947777e-01f, -4.59944934e-01f, 1.08345777e-01f, 4.41199273e-01f, 6.46309629e-02f,
  -2.04133391e-01f, -1.78373292e-01f, 3.00631970e-01f, 2.86840796e-01f, 5.64903080e-01f, 2.29420394e-01f,
  2.14431509e-02f, -3.40774767e-02f, 1.08581305e-01f, -9.03885067e-02f, 4.01242487e-02f, 5.09235919e-01f,
  6.53262958e-02f, -7.43890852e-02f, 2.17526332e-02f, -1.01471283e-01f, -5.93201369e-02f, 1.38239697e-01f,
  -1.44217551e-01f, -2.50744242e-02f, -4.14641678e-01f, -5.43876812e-02f, 1.32155374e-01f, 2.31670991e-01f,
  1.31812423e-01f, 6.49597466e-01f, -4.91955094e-02f, -6.41172588e-01f, 1.17306588e-02f, 3.65052909e-01f,
  -5.36480779e-03f, 5.92356063e-02f, -4.70994771e-01f, -1.14613682e-01f, -4.46897708e-02f, -4.48417723e-01f,
  -1.46334887e-01f, -1.12463422e-01f, -8.03668618e-01f, -5.67054689e-01f, -8.77147317e-02f, -3.45146000e-01f,
  -1.73962191e-01f, 2.67336238e-03f, 5.45795083e-01f, -3.11966538e-01f, 1.63651943e-01f, -1.35210499e-01f,
  -1.54645175e-01f, -1.92712471e-01f, 8.04084778e-01f, 9.51801613e-02f, 1.10180296e-01f, 1.01121455e-01f,
  -1.56503990e-01f, 5.33656776e-01f, -1.26405776e-01f, -4.22582090e-01f, -3.03061515e-01f, -5.14652073e-01f,
  -1.18937165e-01f, 6.93817809e-02f, -2.63561159e-01f, 6.31305397e-01f, 1.89799756e-01f, 2.03564212e-01f,
  1.32597992e-02f, -4.45777357e-01f, 1.43280134e-01f, 3.19954038e-01f, 1.68334380e-01f, 6.08327724e-02f,
  1.68199971e-01f, 3.99424314e-01f, 6.87290728e-03f, -3.26328091e-02f, -6.94887340e-02f, -1.65424436e-01f,
  5.35929427e-02f, 1.49305284e-01f, -7.88039342e-02f, 7.38491956e-03f, 3.66191976e-02f, 1.25212535e-01f,
  1.14133008e-01f, 2.62132406e-01f, 3.48194927e-01f, 2.25956082e-01f, -1.01030231e-01f, 9.21159163e-02f,
  -4.75076824e-01f, -4.66476142e-01f, -5.96426688e-02f, -1.08992472e-01f, -1.44778118e-02f, -2.77182251e-01f,
  1.96487948e-01f, -2.18190596e-01f, 2.46892482e-01f, -2.31657833e-01f, 4.77957726e-02f, -1.40749421e-02f,
  2.33006939e-01f, 1.32499281e-02f, 3.96999240e-01f, -6.39778912e-01f, 6.31070044e-03f, -1.38470322e-01f,
  -3.92284125e-01f, 7.69209489e-02f, 8.45321342e-02f, 2.35451147e-01f, 2.50251532e-01f, -1.55423313e-01f,
  3.94112803e-02f, 4.32975560e-01f, -2.67317653e-01f, -5.18461317e-02f, 7.71360546e-02f, 1.34271830e-01f,
  1.66223466e-01f, 3.19130272e-01f, -1.56608239e-01f, -2.99734641e-02f, -8.94196779e-02f, 5.34751229e-02f,
  -2.32107118e-01f, -2.04624191e-01f, 1.75565138e-01f, 1.51362538e-01f, 1.86159521e-01f, 2.22674638e-01f,
  4.23113853e-01f, -2.16778919e-01f, 1.71473503e-01f, 2.96106309e-01f, 3.07682067e-01f, -3.36093128e-01f,
  -7.79588744e-02f, -3.06843799e-02f, -1.28661364e-01f, -1.70917988e-01f, -7.88226053e-02f, -1.01004303e-01f,
  -1.99768599e-02f, -2.22722068e-01f, 4.44912054e-02f, 1.31813854e-01f, 2.62759738e-02f, -1.47694528e-01f,
  9.33246166e-02f, -1.31794646e-01f, -1.50626123e-01f, 1.43763632e-01f, -3.08226943e-01f, -3.20762783e-01f,
  1.57124713e-01f, -3.77968624e-02f, 1.42753616e-01f, 2.24145815e-01f, -5.35139799e-01f, -2.14792132e-01f,
  6.12271838e-02f, 2.36433715e-01f, 1.75178573e-01f, 2.33242914e-01f, 2.23776832e-01f, 2.82808781e-01f,
  2.15992451e-01f, -2.08188131e-01f, -3.05419266e-01f, 2.02907950e-01f, 1.43834859e-01f, 2.61567593e-01f,
  -8.46457183e-02f, 1.19648643e-01f, -3.94144416e-01f, -3.56456429e-01f, -9.23804045e-02f, -3.42745408e-02f,
  1.84563920e-01f, 9.08699632e-02f, 6.33033291e-02f, 3.13128561e-01f, -5.77952079e-02f, -1.19588405e-01f,
  -3.33572090e-01f, 8.52622762e-02f, 2.73154140e-01f, -6.69094324e-02f, -1.30855426e-01f, 2.72585332e-01f,
  2.33052954e-01f, 1.43946454e-01f, -5.01364917e-02f, 8.30946565e-02f, -1.22750968e-01f, 1.50629403e-02f,
  -1.81950182e-01f, 1.15667857e-01f, -2.29350954e-01f, 4.89038765e-01f, -1.75173119e-01f, 6.57682121e-02f,
  -2.69603461e-01f, 1.95310980e-01f, 4.32996685e-03f, 3.22544456e-01f, -1.11455470e-01f, 2.37045124e-01f,
  2.72458434e-01f, -1.21504748e-02f, 5.67113340e-01f, -1.77423492e-01f, 2.94367280e-02f, 1.52686521e-01f,
  -1.91495776e-01f, 1.41963456e-03f, -8.34204793e-01f, -3.63255978e-01f, 3.65651309e-01f, 1.01427488e-01f,
  1.91528630e-02f, 8.14449266e-02f, 2.70942926e-01f, -1.64331004e-01f, 3.23228650e-02f, -1.91364124e-01f,
  -2.13912383e-01f, -2.09016558e-02f, 4.33656722e-01f, -3.89865398e-01f, -6.97119609e-02f, 1.10199615e-01f,
  -1.55326158e-01f, 2.46973798e-01f, -5.56633830e-01f, 7.47708827e-02f, 1.39390990e-01f, -1.08659364e-01f,
  5.16432285e-01f, 4.82497131e-03f, 1.51490867e-01f, -3.59128982e-01f, 2.35769283e-02f, 4.47340220e-01f,
  -1.49694830e-01f, -1.26072675e-01f, -5.49924076e-01f, -3.16208713e-02f, 3.53001505e-02f, -1.15516275e-01f,
  -4.35626023e-02f, -3.94241847e-02f, -1.37059942e-01f, -1.70618623e-01f, -1.81870744e-01f, 4.88774180e-02f,
  -3.17572832e-01f, -1.59974750e-02f, -1.20932348e-01f, 9.21544246e-03f, 1.25927284e-01f, 3.00351419e-02f,
  -2.35553086e-01f, -1.52538344e-01f, 5.44112585e-02f, 1.78862989e-01f, -1.36206925e-01f, -2.52754271e-01f,
  -3.17719008e-04f, -2.00339511e-01f, -2.68839538e-01f, -1.45135969e-01f, -1.93868577e-01f, -1.77027330e-01f,
  -9.43418220e-02f, -3.22864428e-02f, 3.29564065e-01f, 1.75073743e-01f, -1.04897596e-01f, -2.68431813e-01f,
  -2.05880150e-01f, -6.60100758e-01f, 8.32650587e-02f, 5.43599010e-01f, 2.51880586e-01f, 1.86244592e-01f,
  -6.97121322e-01f, 5.14008626e-02f, 3.51121351e-02f, -1.83118403e-01f, 1.58824414e-01f, 2.71074623e-02f,
  7.44046494e-02f, 2.60951936e-01f, -1.22377202e-01f, 1.92392394e-01f, -1.61573961e-02f, 2.35118583e-01f,
  -1.26216739e-01f, -3.87840956e-01f, -5.60438856e-02f, -6.94945455e-02f, 2.02378809e-01f, -3.28246295e-01f,
  1.31647035e-01f, 1.32559076e-01f, -1.72444224e-01f, -2.62581676e-01f, -7.19270930e-02f, -2.15477303e-01f,
  1.16769589e-01f, -2.93367445e-01f, -2.87722826e-01f, -3.71407628e-01f, 6.30851164e-02f, 3.24935555e-01f,
  -3.51653606e-01f, 1.10728443e-01f, 4.67528224e-01f, -1.57118917e-01f, 1.29097566e-01f, 2.00601608e-01f,
  1.83001176e-01f, 3.48334938e-01f, 5.44258505e-02f, 5.31712994e-02f, 2.54834771e-01f, -6.78734556e-02f,
  9.76675600e-02f, 2.76336104e-01f, -1.10965297e-01f, 4.02996838e-02f, 2.13514656e-01f, 3.52456093e-01f,
  8.83186981e-02f, -1.59399599e-01f, 2.88454886e-03f, -3.29298705e-01f, 3.17217708e-01f, -4.22824085e-01f,
  -1.33252954e-02f, 2.60041654e-01f, -1.97509438e-01f, -6.42479062e-02f, -1.38061509e-01f, -1.90369546e-01f,
  3.17635506e-01f, -9.59798992e-02f, -1.53757215e-01f, 1.56829566e-01f, 1.92797199e-01f, 2.18565047e-01f,
  1.16942488e-02f, 2.16527611e-01f, -5.79020344e-02f, 3.51736337e-01f, 2.23630220e-01f, -1.68536261e-01f,
  -3.02340955e-01f, 2.86582708e-01f, -9.89011675e-02f, 1.22570612e-01f, 2.19025105e-01f, -6.74522161e-01f,
  2.29362711e-01f, 2.45815709e-01f, -9.88105014e-02f, -1.39218003e-01f, -2.77737111e-01f, -8.96056652e-01f,
  1.20232120e-01f, 4.94172543e-01f, -7.05490589e-01f, -1.06488168e-01f, 1.68246764e-03f, -4.40114409e-01f,
  3.21320742e-01f, 1.92857295e-01f, -5.34657717e-01f, 2.16041178e-01f, 4.23804969e-01f, -1.70197740e-01f,
  1.59949318e-01f, -8.63661021e-02f, 1.32446095e-01f, 2.05160841e-01f, 8.16550970e-01f, 1.35274827e-02f,
  2.19627947e-01f, 4.47995253e-02f, 9.15763602e-02f, 9.13833827e-02f, -4.16431762e-02f, 7.18921125e-01f,
  4.14718576e-02f, -2.41570637e-01f, -2.00823799e-01f, -3.57872427e-01f, 2.49394044e-01f, -9.47685242e-02f,
  -5.03368005e-02f, 2.23029897e-01f, -2.73040831e-01f, -1.74407005e-01f, 3.77225466e-02f, 2.68247008e-01f,
  1.19021451e-02f, 6.66228116e-01f, -1.96858514e-02f, -4.61825013e-01f, 1.70791954e-01f, 3.29977125e-01f,
  -5.57631105e-02f, 2.52505578e-02f, -3.82487923e-01f, -9.84194428e-02f, 1.11924186e-01f, -1.05110057e-01f,
  -5.46889864e-02f, 8.77678171e-02f, -7.36543477e-01f, -8.56579468e-02f, 1.92616303e-02f, -6.45519972e-01f,
  -3.50211859e-01f, 2.22851962e-01f, 2.85451412e-01f, -2.60124266e-01f, 1.38826981e-01f, -1.12452239e-01f,
  -1.93554208e-01f, -3.09249103e-01f, 8.07000756e-01f, -3.49900350e-02f, 1.97048724e-01f, 1.36141926e-01f,
  -8.27904120e-02f, 5.41672170e-01f, -5.14234602e-02f, -4.32639837e-01f, -3.16086441e-01f, -4.18409377e-01f,
  -5.57826906e-02f, 5.39951213e-02f, -1.83522195e-01f, 6.39272928e-01f, 2.23995984e-01f, 3.71637046e-01f,
  -8.26030374e-02f, -5.16877830e-01f, 7.69075081e-02f, 3.12017351e-01f, 1.85389072e-01f, 3.15295793e-02f,
  -6.94791153e-02f, 3.48539591e-01f, 1.17190436e-01f, 8.03596377e-02f, -1.69982523e-01f, -7.08350390e-02f,
  1.44132506e-03f, 4.36543703e-01f, 8.42494592e-02f, -3.32822800e-02f, 8.84975791e-02f, -1.27352670e-01f,
  -4.91341110e-03f, 1.68633848e-01f, 1.64674640e-01f, 2.24224284e-01f, -1.92018867e-01f, 1.81034505e-02f,
  -3.79305631e-01f, -3.75888735e-01f, -1.57731369e-01f, 7.01062521e-03f, 2.23386943e-01f, -3.28105569e-01f,
  1.17574863e-01f, -1.56529993e-01f, 2.75782973e-01f, -4.85193431e-02f, 6.31106435e-04f, 5.86178005e-02f,
  -5.52947726e-03f, 5.38852923e-02f, 4.72510248e-01f, -4.34948534e-01f, -1.31098449e-01f, -5.81133068e-02f,
  -4.85405028e-01f, -1.71771049e-01f, 4.77219466e-03f, 2.38347843e-01f, 1.32512271e-01f, 1.10502511e-01f,
  -5.23057533e-03f, 3.61014098e-01f, -1.39705643e-01f, 5.47067933e-02f, 2.36545816e-01f, 5.39267212e-02f,
  2.61795938e-01f, 2.80797422e-01f, -2.64544070e-01f, -1.46914124e-02f, -2.28998438e-01f, 7.91175216e-02f,
  -2.05131888e-01f, -2.05938950e-01f, 2.28300944e-01f, 3.14919084e-01f, 1.39304787e-01f, 2.72407532e-01f,
  1.80171549e-01f, -3.48219238e-02f, 2.88805783e-01f, 3.08725417e-01f, 2.40841001e-01f, -2.77725399e-01f,
  -1.59835458e-01f, 3.39958072e-02f, -1.54823184e-01f, -2.43060142e-01f, -1.51003078e-01f, 1.04021339e-03f,
  -6.56530559e-02f, 2.31714416e-02f, -1.38925184e-02f, -2.21411794e-01f, 9.26586837e-02f, -2.34664343e-02f,
  2.26111874e-01f, -3.51949424e-01f, -8.79640058e-02f, 1.43028786e-02f, -2.48179883e-01f, -8.12464654e-02f,
  7.04652071e-02f, -7.21938685e-02f, 1.26250371e-01f, 1.90974459e-01f, -3.45724881e-01f, -2.80704647e-01f,
  8.63889083e-02f, 1.59895524e-01f, 2.40696937e-01f, 3.75874430e-01f, 2.07602918e-01f, -3.35478745e-02f,
  6.72348365e-02f, -1.78524941e-01f, -2.17803851e-01f, 5.33166707e-01f, 1.37000130e-02f, -2.13375613e-02f,
  -1.27524540e-01f, 3.41899088e-03f, -1.76277742e-01f, -2.11441308e-01f, -2.20703363e-01f, 7.80630670e-03f,
  1.55527825e-02f, 2.41707325e-01f, 6.77337358e-03f, 2.24629045e-01f, -1.28707796e-01f, -2.88537219e-02f,
  -2.85769910e-01f, -1.49876565e-01f, 3.16929221e-01f, 1.02335297e-01f, 4.06233110e-02f, 2.80292690e-01f,
  1.80935934e-01f, 1.04800798e-01f, 3.39177847e-02f, 1.14508294e-01f, -2.04069287e-01f, 1.71241403e-01f,
  -2.49917984e-01f, 1.44000307e-01f, -1.26075968e-01f, 6.03518486e-01f, -1.97292725e-03f, -1.65019318e-01f,
  -4.76188272e-01f, 3.40175658e-01f, -1.66377917e-01f, 1.79636061e-01f, -2.93715328e-01f, 3.13269287e-01f,
  6.71279579e-02f, -2.36072694e-03f, 4.73688245e-01f, -2.44816244e-02f, -1.21816501e-01f, 3.51424962e-01f,
  -2.00541452e-01f, 1.09035388e-01f, -5.25540888e-01f, -3.29137087e-01f, 4.84756559e-01f, 1.02077546e-02f,
  1.25999479e-02f, 1.55328847e-02f, 1.46144032e-01f, -4.28029329e-01f, 1.02163032e-01f, -2.10375682e-01f,
  -1.53817847e-01f, 6.88636526e-02f, 4.59771514e-01f, -5.09258151e-01f, -2.82901764e-01f, 4.38930131e-02f,
  1.48974597e-01f, 2.89264053e-01f, -3.82474005e-01f, -8.33817273e-02f, 3.61620665e-01f, -3.88133004e-02f,
  5.67225218e-01f, -6.49664775e-02f, -3.47387381e-02f, -2.70094156e-01f, 1.43616259e-01f, 3.69467080e-01f,
  1.45410269e-01f, -9.04662535e-02f, -7.01982558e-01f, -9.33502540e-02f, 2.94189211e-02f, 4.33943681e-02f,
  -6.08994439e-02f, 7.64081031e-02f, -1.11210592e-01f, -1.51988328e-01f, -2.30298694e-02f, -1.67915761e-01f,
  -2.36316651e-01f, -7.73102939e-02f, -1.75595045e-01f, 6.90941513e-02f, 1.39794022e-01f, 4.89111617e-02f,
  -3.49183828e-01f, -2.19075680e-01f, 4.46374565e-01f, 1.11752234e-01f, -9.00754556e-02f, -2.08149254e-01f,
  -6.67931065e-02f, -1.23965710e-01f, -3.99305195e-01f, -2.05420375e-01f, -3.59282531e-02f, -2.44595125e-01f,
  -4.87244986e-02f, -1.40243908e-02f, 3.94184917e-01f, 2.09943354e-01f, 5.30813970e-02f, -9.19540748e-02f,
  -2.21939087e-02f, -4.69159901e-01f, -8.37202072e-02f, 3.09559047e-01f, 1.16459914e-01f, 4.16404568e-02f,
  -4.18385983e-01f, 3.62029970e-02f, 2.84964945e-02f, -1.99410051e-01f, -8.81621242e-03f, -3.06779961e-03f,
  -2.54927371e-02f, 3.74862015e-01f, -3.77270579e-03f, 6.29328191e-01f, -9.27070379e-02f, 1.42223120e-01f,
  -3.47276539e-01f, -3.80612344e-01f, -1.93323344e-01f, -7.60697275e-02f, 9.63514205e-03f, -3.23480874e-01f,
  2.97039241e-01f, -1.41888499e-01f, -2.00951323e-01f, -1.88952431e-01f, -1.70543835e-01f, -1.33937538e-01f,
  1.34630963e-01f, -1.26718193e-01f, -3.58003289e-01f, -3.08574677e-01f, 1.84802875e-01f, 4.82232243e-01f,
  -4.60267812e-01f, 5.26742712e-02f, 5.14780581e-01f, -2.79576093e-01f, 1.54187948e-01f, 1.62875429e-01f,
  1.79531708e-01f, 2.10411355e-01f, 2.36257836e-01f, -7.18520358e-02f, 2.79249638e-01f, -6.53210133e-02f,
  9.71645191e-02f, 1.67323217e-01f, -9.70555022e-02f, 5.17237186e-02f, 1.74936295e-01f, 5.55059433e-01f,
  1.02061540e-01f, -2.76441991e-01f, 4.42353822e-02f, -5.88686407e-01f, 4.07315761e-01f, -2.16663793e-01f,
  8.97936843e-05f, 2.60442734e-01f, -4.04515058e-01f, -9.05669183e-02f, 3.74299809e-02f, -3.52699667e-01f,
  2.46559083e-01f, -1.70534849e-01f, -3.09478104e-01f, 4.22004491e-01f, 2.73836255e-01f, 8.86345357e-02f,
  -2.33856201e-01f, 2.56988376e-01f, 4.57962751e-02f, 3.67756546e-01f, 1.87243164e-01f, -2.00151876e-01f,
  -1.14139825e-01f, 2.35963777e-01f, 1.33991659e-01f, 5.89928962e-02f, 9.06198695e-02f, -7.41246283e-01f,
  8.46796632e-02f, 2.62481719e-01f, -7.14999214e-02f, -1.21059135e-01f, -3.46152037e-01f, -8.15491676e-01f,
  2.83250153e-01f, 5.14381528e-01f, -8.46266508e-01f, -1.99691296e-01f, 6.21683337e-02f, -2.06973106e-01f,
  7.29862303e-02f, 1.60016328e-01f, -5.69819152e-01f, 2.57541656e-01f, 1.93323329e-01f, -2.62374878e-01f,
  3.01061183e-01f, -3.03483039e-01f, 1.76803634e-01f, -3.71746719e-03f, 9.65222359e-01f, 6.27239868e-02f,
  8.93421657e-03f, 1.26896575e-01f, -5.46064079e-02f, 1.19645111e-01f, -1.28157482e-01f, 5.13262272e-01f,
  8.20550844e-02f, -1.33806448e-02f, -2.32686713e-01f, -3.04222405e-01f, 3.24532002e-01f, -5.21939918e-02f,
  1.42806172e-01f, 3.40544581e-01f, -1.80050567e-01f, -2.12351918e-01f, 1.15093082e-01f, 2.69784451e-01f,
  2.37210602e-01f, 5.91839492e-01f, -9.30393934e-02f, -4.63129014e-01f, 6.77586272e-02f, 5.08509755e-01f,
  2.27492869e-01f, -2.00545392e-03f, -2.93653488e-01f, 2.16756873e-02f, 1.58726454e-01f, -9.91047621e-02f,
  -2.72067003e-02f, 1.06658660e-01f, -7.55507052e-01f, 4.81492020e-02f, 2.64089108e-01f, -6.22304916e-01f,
  -4.05790240e-01f, 5.39803743e-01f, 3.45192194e-01f, -2.55629748e-01f, 1.73823405e-02f, -1.62271693e-01f,
  -3.36326450e-01f, -2.45007604e-01f, 7.02212811e-01f, 9.72348303e-02f, 1.39777794e-01f, 1.66545674e-01f,
  -1.73626736e-01f, 3.36420238e-01f, -1.72108427e-01f, -2.55819350e-01f, -2.51205772e-01f, -4.48324025e-01f,
  -1.67484835e-01f, 1.03940070e-01f, -9.86483395e-02f, 4.75603968e-01f, 2.86995828e-01f, 5.16234517e-01f,
  1.43409045e-02f, -7.86339760e-01f, 1.07098520e-01f, 4.06088382e-01f, 3.71755898e-01f, 1.16747513e-01f,
  -5.93694625e-03f, 3.09349716e-01f, 5.06375618e-02f, 1.20952100e-01f, -7.08823651e-02f, -8.54670852e-02f,
  -3.48764099e-02f, 5.23763001e-01f, 3.83265167e-01f, -6.46985769e-02f, -3.27101499e-02f, -1.29363343e-01f,
  1.07434712e-01f, 1.19844591e-03f, 1.38191685e-01f, 2.08383620e-01f, -1.23789772e-01f, 7.79977813e-02f,
  -1.22978501e-01f, -1.49157420e-01f, -2.09981680e-01f, -1.28192469e-01f, 2.73041278e-01f, -2.30483919e-01f,
  2.83487201e-01f, -1.16392225e-01f, 3.90125364e-01f, 1.25119716e-01f, 4.11400273e-02f, 3.29546988e-01f,
  7.39732757e-02f, -6.14119275e-03f, 2.87374079e-01f, -3.48007560e-01f, -7.91441277e-02f, 5.28778136e-02f,
  -5.07102847e-01f, -1.39289469e-01f, -7.09291175e-02f, 2.18947068e-01f, 3.13094676e-01f, 8.86891261e-02f,
  3.06965355e-02f, 3.94374400e-01f, -2.47165203e-01f, -6.68008849e-02f, 4.43256497e-01f, -6.82594022e-03f,
  3.32817554e-01f, 4.44916725e-01f, -2.74181664e-01f, 8.93055797e-02f, -3.45121026e-01f, 2.48885415e-02f,
  -3.63891006e-01f, -2.44643331e-01f, 4.60888296e-02f, 3.06619909e-02f, 2.81111896e-01f, 3.14193338e-01f,
  1.06019840e-01f, -1.99305907e-01f, 1.87727347e-01f, 5.15664518e-02f, 1.89090341e-01f, -3.98216814e-01f,
  -2.46514962e-03f, 6.07883632e-02f, -4.46496420e-02f, -1.48468688e-01f, -3.71167995e-02f, -2.05990180e-01f,
  4.96147759e-02f, -7.95952901e-02f, 6.69393390e-02f, -4.01702195e-01f, -6.90093488e-02f, 3.10527440e-03f,
  1.33317113e-01f, -2.20724732e-01f, -1.34755865e-01f, 1.98085397e-01f, -1.76784843e-01f, -9.39900428e-02f,
  2.64390521e-02f, 1.00772358e-01f, 3.33745927e-01f, 4.18830544e-01f, -3.31299990e-01f, -2.08202317e-01f,
  9.14674550e-02f, 1.89368352e-01f, 4.11665171e-01f, 3.04270715e-01f, 1.00217387e-01f, -7.94383362e-02f,
  6.39414787e-02f, -8.71311650e-02f, -3.99930686e-01f, 5.07330835e-01f, 6.32026643e-02f, -7.33109489e-02f,
  -4.52625528e-02f, -7.51117244e-02f, -8.71663988e-02f, -2.47158900e-01f, -2.52335072e-01f, -1.38910115e-02f,
  -1.55579979e-02f, 1.97768956e-01f, 8.54896531e-02f, 1.55755594e-01f, 4.23026383e-02f, 1.68024331e-01f,
  -1.98878437e-01f, -3.02721858e-01f, 4.04517472e-01f, 1.94375560e-01f, -1.12320930e-01f, 2.15637639e-01f,
  1.71524554e-01f, 1.62848890e-01f, 2.26972148e-01f, 1.27688751e-01f, -1.90762714e-01f, 1.65744066e-01f,
  -2.52570182e-01f, 8.19988698e-02f, 1.16970418e-02f, 4.08122718e-01f, -7.45963156e-02f, -2.89505571e-01f,
  -6.59967124e-01f, 3.20967644e-01f, -1.63240105e-01f, 5.57279065e-02f, -2.47920174e-02f, 1.98908627e-01f,
  2.70919383e-01f, 2.16538440e-02f, 5.12161970e-01f, -1.65983245e-01f, 6.68207929e-03f, 2.36787885e-01f,
  -1.68507159e-01f, -2.89658383e-02f, -3.14034969e-01f, -4.02382612e-01f, 6.43110633e-01f, -2.58066118e-01f,
  -8.31968859e-02f, 6.48411140e-02f, 2.64958948e-01f, -3.99460614e-01f, -1.26737554e-03f, 6.58283308e-02f,
  -6.17985055e-02f, -7.96820894e-02f, 4.42526847e-01f, -4.34964687e-01f, -4.46293920e-01f, 1.66852146e-01f,
  -3.72328935e-03f, 2.93019325e-01f, -2.91337937e-01f, -1.67934582e-01f, 2.43626311e-01f, 4.29784656e-02f,
  4.85871047e-01f, -2.04571888e-01f, -5.92978001e-02f, -7.54485130e-02f, -4.74953763e-02f, 1.86010852e-01f,
  3.09861690e-01f, -3.64232510e-01f, -6.37137055e-01f, 1.17482781e-01f, 1.92737117e-01f, -1.40020913e-02f,
  1.70270931e-02f, 9.67473760e-02f, -1.11243978e-01f, -1.12867624e-01f, -7.07351938e-02f, -1.09550014e-01f,
  -3.72912675e-01f, 2.62096152e-02f, -1.98372707e-01f, 5.55072986e-02f, 6.96517527e-02f, 2.54921895e-02f,
  -4.73816782e-01f, -2.50128776e-01f, 6.62869751e-01f, 6.32891208e-02f, -8.13979879e-02f, -2.28854671e-01f,
  -1.98418647e-02f, -1.95286512e-01f, -3.31911534e-01f, -1.49266988e-01f, 4.97825351e-03f, -1.75357506e-01f,
  3.26236784e-02f, 1.22135662e-01f, 2.38393098e-01f, 2.00098723e-01f, -8.46141875e-02f, -7.25439116e-02f,
  1.14659533e-01f, -4.47328866e-01f, -6.65784925e-02f, 1.89278081e-01f, 1.17349379e-01f, 1.94108393e-02f,
  -3.83862406e-01f, 1.48028031e-01f, 7.56076425e-02f, -1.20292276e-01f, 1.08127847e-01f, 2.06516124e-02f,
  1.91674829e-01f, 3.76711816e-01f, 1.45298298e-02f, 7.40187883e-01f, -1.64547563e-01f, 1.52919561e-01f,
  -3.45719337e-01f, -3.33946466e-01f, -1.91985726e-01f, -2.65593737e-01f, 9.86407697e-02f, -2.11823270e-01f,
  1.50895849e-01f, -1.41348213e-01f, -1.71616137e-01f, -4.88527818e-03f, -6.69513717e-02f, -2.91524142e-01f,
  1.46259308e-01f, -1.57105327e-01f, -4.79495227e-01f, -2.38807529e-01f, 4.24091779e-02f, 5.94826460e-01f,
  -3.39226365e-01f, 2.81609669e-02f, 4.62273806e-01f, -2.85507619e-01f, 2.25043610e-01f, 2.96371967e-01f,
  1.89356342e-01f, 2.52506882e-01f, 2.63876975e-01f, 2.63358094e-02f, 1.13117762e-01f, 4.34189886e-02f,
  1.51931038e-02f, 3.31958473e-01f, -3.21249038e-01f, 1.04527451e-01f, -1.30472973e-01f, 6.36621773e-01f,
  9.55790579e-02f, -1.93305492e-01f, 1.55526266e-01f, -6.63158596e-01f, 3.17268074e-01f, -1.65590540e-01f,
  3.43097784e-02f, 4.07516479e-01f, -5.29217720e-01f, 2.30898522e-02f, 1.40671000e-01f, -4.04098064e-01f,
  2.38092601e-01f, -5.98502867e-02f, -3.37591588e-01f, 5.36754727e-01f, 2.67389327e-01f, -9.05525126e-03f,
  -2.06450254e-01f, 3.05287600e-01f, 4.13138866e-02f, 2.93478936e-01f, 3.45368534e-01f, -1.91474125e-01f,
  -2.27215588e-01f, 2.94228226e-01f, 1.85276046e-01f, 1.18585020e-01f, 1.60142019e-01f, -9.79388356e-01f,
  1.35976866e-01f, 2.31709898e-01f, -7.39252716e-02f, -2.18892738e-01f, -2.79036850e-01f, -9.63421106e-01f,
  1.72532856e-01f, 4.39346343e-01f, -6.74540520e-01f, -1.09021023e-01f, 3.13660413e-01f, -1.68619350e-01f,
  9.45661440e-02f, 1.85143366e-01f, -6.27116382e-01f, 2.35421672e-01f, 7.06208795e-02f, -3.04025948e-01f,
  3.74905497e-01f, -1.81791306e-01f, 1.10256180e-01f, -6.72961697e-02f, 8.06412041e-01f, -3.29869650e-02f,
  6.63655326e-02f, 1.20666191e-01f, 2.59823017e-02f, 1.43791407e-01f, -1.25827119e-01f, 4.88969862e-01f,
  -4.32473533e-02f, -8.22657198e-02f, -2.61178792e-01f, -3.32177341e-01f, 2.87218958e-01f, -5.28377742e-02f,
  5.28175943e-02f, 5.70553541e-01f, 5.30087240e-02f, -3.27903070e-02f, 1.85847990e-02f, 1.04557827e-01f,
  2.74391621e-01f, 6.59529865e-01f, 6.88789710e-02f, -4.37451035e-01f, 1.16510265e-01f, 3.70483696e-01f,
  1.04191683e-01f, 7.71029219e-02f, -2.19479144e-01f, 1.58067405e-01f, 2.73749083e-01f, 2.52140444e-02f,
  1.17400177e-01f, 1.24756306e-01f, -9.49745834e-01f, 3.04871112e-01f, 3.33922982e-01f, -5.68240881e-01f,
  -1.71551213e-01f, 6.46005392e-01f, 2.95962334e-01f, -2.28125468e-01f, 6.60422370e-02f, -7.59982243e-02f,
  -1.68233678e-01f, -1.99869737e-01f, 5.03614187e-01f, 1.29786327e-01f, 2.55477488e-01f, 3.52395996e-02f,
  -1.38476327e-01f, 4.48713422e-01f, -4.44090925e-02f, -2.20029145e-01f, -3.80504400e-01f, -3.88822705e-01f,
  -1.00058235e-01f, 1.48692340e-01f, -7.42525654e-03f, 2.85239100e-01f, 1.85540155e-01f, 5.09759068e-01f,
  9.19416994e-02f, -6.40039802e-01f, 6.34974316e-02f, 3.07014436e-01f, 4.66751277e-01f, 1.08884931e-01f,
  -3.73439640e-02f, 4.46711123e-01f, 2.53284816e-02f, 2.22188607e-01f, 6.90102205e-02f, -9.55177993e-02f,
  1.73031967e-02f, 5.97513318e-01f, 4.49125290e-01f, 3.43937315e-02f, -5.98204173e-02f, -4.23299104e-01f,
  -3.18067521e-02f, 1.69551652e-02f, 2.23043576e-01f, 1.13431156e-01f, -2.12913677e-01f, 1.87318847e-02f,
  -7.70591274e-02f, -2.32000455e-01f, -2.00401559e-01f, 1.10718891e-01f, 2.51791686e-01f, -2.28761584e-01f,
  2.88489014e-01f, -1.32884160e-01f, 3.45871359e-01f, 1.88100889e-01f, -7.67646730e-02f, 3.60646188e-01f,
  -4.17688116e-02f, 7.29893968e-02f, 3.01795661e-01f, -8.45081806e-02f, -3.12416792e-01f, 2.68814880e-02f,
  -3.55438560e-01f, -1.10943854e-01f, -2.21362069e-01f, 1.05115838e-01f, 3.46535772e-01f, 7.68198371e-02f,
  1.14384346e-01f, 2.33883440e-01f, -2.16218397e-01f, -1.37925148e-01f, 3.69665086e-01f, 1.58432946e-02f,
  2.62479901e-01f, 3.29883069e-01f, -2.20992655e-01f, 4.73274477e-02f, -2.30953872e-01f, 6.11583702e-02f,
  -2.89340138e-01f, -2.99301058e-01f, -1.08818235e-02f, 2.00797737e-01f, 2.82362431e-01f, 2.85408974e-01f,
  2.78385818e-01f, 4.97823656e-02f, 1.37367725e-01f, 2.91865636e-02f, 7.85332769e-02f, -4.02650267e-01f,
  3.72884274e-02f, 2.95926575e-02f, -4.50202450e-02f, -2.66251773e-01f, -1.08128384e-01f, -4.66079591e-03f,
  1.14957057e-01f, 8.12961813e-03f, -4.28881757e-02f, -2.06118152e-01f, -7.88814873e-02f, 2.03318611e-01f,
  7.77720436e-02f, -2.11702436e-01f, 5.35106147e-03f, 5.51171303e-02f, -9.64153558e-02f, -4.01574671e-02f,
  1.29850537e-01f, 1.53891951e-01f, 3.39882374e-01f, 3.58601928e-01f, -2.35887319e-01f, -2.97425479e-01f,
  -3.82676199e-02f, 1.98295087e-01f, 2.79993266e-01f, 2.77602494e-01f, 1.19757988e-01f, -4.66501515e-04f,
  2.60800034e-01f, -3.16601023e-02f, -1.90278769e-01f, 5.31801820e-01f, -4.24326323e-02f, 4.65836488e-02f,
  -2.71453261e-02f, -2.29931429e-01f, -7.67899230e-02f, -1.03956707e-01f, -1.79911762e-01f, 7.53395185e-02f,
  -1.17305974e-02f, 2.15189829e-02f, 1.70754001e-01f, -3.92831536e-03f, -5.84111884e-02f, 1.58483416e-01f,
  -1.78435951e-01f, -4.77848321e-01f, 3.42377037e-01f, 1.98951647e-01f, -1.56540975e-01f, 1.47944614e-01f,
  1.11202776e-01f, 2.66979009e-01f, 2.45566994e-01f, 2.07743403e-02f, -1.75809652e-01f, 1.99681655e-01f,
  -2.07506850e-01f, 8.71513188e-02f, 5.27926721e-02f, 4.87835795e-01f, 1.41094372e-01f, -2.97556132e-01f,
  -6.40228689e-01f, 4.08939838e-01f, -4.16470692e-02f, 2.39854231e-01f, -1.29689455e-01f, 7.18319416e-02f,
  1.23558491e-01f, 1.12476490e-01f, 3.98303717e-01f, -1.48642391e-01f, -1.17709249e-01f, 3.85371894e-01f,
  -2.23098859e-01f, 2.24010441e-02f, -1.69903785e-01f, -2.61996537e-01f, 8.18012595e-01f, -4.04655695e-01f,
  4.57527041e-02f, 1.94716364e-01f, 9.40531492e-02f, -2.88448513e-01f, 1.03106983e-01f, 7.85769969e-02f,
  -1.57789484e-01f, -3.90924178e-02f, 3.11290443e-01f, -3.79922450e-01f, -3.01349849e-01f, 1.72859542e-02f,
  4.85004298e-02f, 2.86746919e-01f, -3.15937340e-01f, -9.01791304e-02f, 2.03704253e-01f, 1.60489649e-01f,
  5.49375534e-01f, -3.24369490e-01f, -4.94413935e-02f, -1.41608223e-01f, -3.59582319e-03f, 1.72901139e-01f,
  3.22981954e-01f, -3.63017768e-01f, -4.94039953e-01f, 3.13382521e-02f, 1.26346380e-01f, -4.88385074e-02f,
  -3.68178189e-02f, 1.44468956e-02f, -1.19694814e-01f, -3.24512571e-01f, -9.61419269e-02f, -1.82599545e-01f,
  -4.13743198e-01f, -1.20162658e-01f, -1.97729513e-01f, 1.09749481e-01f, 1.04685016e-01f, -3.30183394e-02f,
  -4.97049123e-01f, -1.15511730e-01f, 4.54887301e-01f, 1.77129403e-01f, -1.41798723e-02f, -5.54347113e-02f,
  -1.01380043e-01f, -1.74266309e-01f, -3.36556584e-01f, -2.83906888e-02f, 2.13655457e-02f, -1.44315109e-01f,
  -1.19339034e-01f, 5.86949177e-02f, 3.15360248e-01f, 6.37782142e-02f, -1.42359480e-01f, -1.39898986e-01f,
  -1.23716621e-02f, -3.66569072e-01f, -8.44717324e-02f, 2.18347177e-01f, 1.36659980e-01f, 1.09265290e-01f,
  -2.06789166e-01f, 2.15524584e-01f, 4.91810124e-03f, -3.92454565e-01f, 5.91302738e-02f, 8.33373368e-02f,
  1.44214734e-01f, 2.64066607e-01f, -1.41974986e-01f, 7.94443905e-01f, -1.43487126e-01f, 1.54644484e-02f,
  -5.26672184e-01f, -2.56959677e-01f, -1.70961767e-01f, -8.74837190e-02f, 5.00806943e-02f, -2.54609585e-01f,
  1.68219537e-01f, -3.39865506e-01f, -1.60038352e-01f, -9.47002396e-02f, -1.90251231e-01f, -9.73670408e-02f,
  1.30201876e-01f, -1.12850368e-01f, -4.39741999e-01f, -2.87373245e-01f, 2.06522107e-01f, 4.54214305e-01f,
  -3.86820287e-01f, -3.89149897e-02f, 2.52557874e-01f, -4.49138403e-01f, 1.32153243e-01f, 1.17828473e-01f,
  9.08679813e-02f, 3.23997378e-01f, 7.83151910e-02f, -7.63073638e-02f, 1.10997453e-01f, -6.06995821e-02f,
  -7.55886808e-02f, 3.00366133e-01f, -2.17981890e-01f, 1.85722902e-01f, -5.49004460e-03f, 4.60261524e-01f,
  -7.07433596e-02f, 2.31496859e-02f, 1.92115977e-01f, -6.87207222e-01f, 3.61343235e-01f, -3.94314788e-02f,
  -3.55856381e-02f, 2.74512291e-01f, -4.78734642e-01f, 1.54703945e-01f, -2.02595047e-03f, -1.89540356e-01f,
  2.74162024e-01f, -2.20954627e-01f, -3.25151533e-01f, 5.55641949e-01f, 1.50240690e-01f, -6.80251941e-02f,
  -2.64766067e-01f, 2.67657995e-01f, -1.70920476e-01f, 4.50073153e-01f, 3.23517442e-01f, -1.95321031e-02f,
  -6.75843284e-02f, 2.97655225e-01f, 1.57963067e-01f, 7.18537867e-02f, 2.33755156e-01f, -1.07844853e+00f,
  1.49472058e-01f, 3.08878481e-01f, -6.33526146e-02f, -1.88636228e-01f, -3.16296697e-01f, -9.26271737e-01f,
  2.32058868e-01f, 3.45657527e-01f, -8.49268496e-01f, -6.91628084e-02f, 2.85797536e-01f, -4.71872538e-02f,
  2.28111476e-01f, 2.38935631e-02f, -5.54046690e-01f, 2.82987714e-01f, 2.06456348e-01f, -3.04232389e-01f,
  3.70973676e-01f, -3.60319138e-01f, -2.82115508e-02f, -9.98508781e-02f, 9.36184227e-01f, -2.53333271e-01f,
  -1.00520262e-02f, 1.60459094e-02f, -6.29255027e-02f, 7.65378177e-02f, -2.02773493e-02f, 5.10049164e-01f,
  -8.09101909e-02f, -1.36166364e-01f, -3.54816288e-01f, -3.16618532e-01f, 2.56149650e-01f, -9.31027681e-02f,
  -2.01591756e-03f, 7.97855198e-01f, 2.84774229e-02f, -4.29662094e-02f, 5.20520657e-02f, 3.17788422e-01f,
  1.64150506e-01f, 3.67688626e-01f, 1.47137329e-01f, -2.09016830e-01f, 2.23547190e-01f, 3.13956141e-01f,
  1.97534412e-01f, -7.73450062e-02f, -7.53942430e-02f, 5.22706918e-02f, 1.85776442e-01f, 1.66466564e-01f,
  7.56338164e-02f, -1.81655996e-02f, -9.17161524e-01f, 3.44022393e-01f, 2.05076113e-01f, -4.57773298e-01f,
  -1.46048963e-01f, 5.47706723e-01f, 1.09142594e-01f, -3.95522006e-02f, 1.81510568e-01f, -6.35676831e-02f,
  -2.43620530e-01f, -1.76169395e-01f, 5.19114971e-01f, 1.21869378e-01f, 1.74021780e-01f, 1.07998759e-01f,
  5.52222580e-02f, 2.65543610e-01f, -9.84170958e-02f, -1.88723579e-01f, -3.03014904e-01f, -4.72610176e-01f,
  -5.61601967e-02f, 9.76186022e-02f, -1.19349053e-02f, 3.76333028e-01f, 6.26025721e-02f, 4.43896264e-01f,
  1.98272578e-02f, -5.70521772e-01f, 2.11678639e-01f, 2.10511625e-01f, 5.85644782e-01f, 9.02966186e-02f,
  -1.93464190e-01f, 4.60135251e-01f, -3.77949625e-02f, 1.75289169e-01f, 1.30277798e-01f, -7.33504770e-04f,
  -1.87610641e-01f, 4.31241184e-01f, 3.65716457e-01f, 1.92444287e-02f, 2.25654840e-01f, -3.41099739e-01f,
  9.40348133e-02f, -1.95167273e-01f, 9.36842412e-02f, -2.62857098e-02f, -1.01847544e-01f, -1.02453806e-01f,
  -5.42071741e-03f, -2.09309578e-01f, -2.01363280e-01f, 1.93825215e-01f, 2.41823599e-01f, -2.33992979e-01f,
  2.62643546e-01f, -1.36190102e-01f, 1.58193693e-01f, 2.51521915e-01f, 1.48033341e-02f, 2.49482095e-01f,
  -5.35530746e-02f, -5.88454306e-03f, 1.56246483e-01f, -1.13276821e-02f, -2.37552673e-01f, -1.03646636e-01f,
  -2.57349491e-01f, -2.02058509e-01f, -2.13429600e-01f, 1.77648500e-01f, 4.60577697e-01f, 2.93557584e-01f,
  -6.82895705e-02f, 1.76104307e-01f, -8.94158036e-02f, -1.50873527e-01f, 2.57650226e-01f, -2.21737951e-01f,
  1.50945470e-01f, 3.22429597e-01f, -2.68503278e-01f, -2.96267960e-03f, -4.01691347e-01f, -1.45759761e-01f,
  -1.62705839e-01f, -3.72948378e-01f, 2.66014598e-02f, 7.40608200e-02f, 1.88427716e-01f, 8.82323459e-02f,
  3.31421137e-01f, -1.81555040e-02f, 7.09934905e-02f, 3.94767448e-02f, -1.49635836e-01f, -3.65271807e-01f,
  -5.61866164e-02f, -4.00071256e-02f, 6.98671490e-02f, -1.00892678e-01f, -4.08520773e-02f, 9.26340744e-02f,
  -8.86505693e-02f, -1.12706810e-04f, -6.21776208e-02f, -2.74629712e-01f, 4.04988714e-02f, 2.10087970e-02f,
  1.06116965e-01f, -3.95688921e-01f, -1.51290134e-01f, 3.55565399e-02f, -1.11519910e-01f, 7.35958591e-02f,
  -3.95442173e-02f, 7.55660534e-02f, 1.95870072e-01f, 2.63520360e-01f, 1.54472683e-02f, -1.67265356e-01f,
  4.70108166e-02f, 6.71247989e-02f, 4.22432005e-01f, 9.17171389e-02f, 3.17388892e-01f, 8.00061673e-02f,
  2.14496180e-01f, 1.54449537e-01f, -2.30320752e-01f, 2.77075857e-01f, -1.56674281e-01f, -1.17539084e-02f,
  -3.45075242e-02f, -1.96163177e-01f, -3.51091325e-02f, -1.18085057e-01f, -2.00599477e-01f, 6.29484355e-02f,
  -9.49230343e-02f, 1.36335999e-01f, -3.26089934e-03f, 8.47295150e-02f, 4.28232551e-03f, 1.69099584e-01f,
  -1.73073038e-01f, -5.44656813e-01f, 3.03442687e-01f, 3.06344688e-01f, -1.49048954e-01f, 2.01853737e-01f,
  4.61182110e-02f, 2.80409932e-01f, 2.87238657e-01f, 6.42174184e-02f, -1.67736694e-01f, 1.51239529e-01f,
  -1.25701293e-01f, 1.18680760e-01f, 1.99093185e-02f, 5.09030044e-01f, 7.88866132e-02f, -3.29150200e-01f,
  -5.72413683e-01f, 4.49861884e-01f, -1.04207501e-01f, 2.72089899e-01f, 1.26338869e-01f, 1.49498448e-01f,
  -3.95161882e-02f, 1.75761133e-01f, 3.01750928e-01f, 3.23849544e-02f, -2.74204761e-01f, 3.31852496e-01f,
  -9.80406702e-02f, -1.82399273e-01f, -9.94104743e-02f, -2.54402429e-01f, 6.92037225e-01f, -1.79536030e-01f,
  9.00074616e-02f, -1.37741622e-02f, 9.16362330e-02f, -4.04241621e-01f, 5.05858548e-02f, 2.82332972e-02f,
  -9.34798736e-03f, -7.25356191e-02f, 1.34766504e-01f, -2.96323806e-01f, -3.98204386e-01f, 2.12702915e-01f,
  1.71415389e-01f, 5.79116978e-02f, -7.97569007e-02f, -4.34151292e-02f, 2.12265983e-01f, 1.56106040e-01f,
  6.25201881e-01f, -2.65988857e-01f, -1.13655820e-01f, -5.01241200e-02f, -6.65982068e-02f, 1.00385539e-01f,
  2.45728001e-01f, -5.28242707e-01f, -3.48847002e-01f, -2.44352296e-02f, 1.94159836e-01f, -1.53168231e-01f,
  1.10276088e-01f, -1.82252061e-02f, -1.72225341e-01f, -1.36984736e-01f, 5.93506731e-02f, -1.20296821e-01f,
  -3.72444481e-01f, -2.86328476e-02f, -2.52184004e-01f, 4.72813509e-02f, 1.86051223e-02f, 5.27442731e-02f,
  -6.07094049e-01f, 4.79469262e-02f, 3.48662883e-01f, 1.25862747e-01f, -4.05261405e-02f, -1.48905635e-01f,
  -6.06765375e-02f, -6.97310865e-02f, -1.01660229e-01f, -9.62095931e-02f, 1.75347745e-01f, -2.33553544e-01f,
  4.06088829e-02f, 8.75386596e-03f, 2.79486477e-01f, 2.96863783e-02f, 2.88833920e-02f, -2.72184372e-01f,
  3.95087786e-02f, -4.64901417e-01f, -9.14138779e-02f, 1.68760270e-01f, 1.15787871e-01f, 1.19579442e-01f,
  -2.36348845e-02f, 5.57868071e-02f, 3.10597047e-02f, -3.89300585e-01f, 8.75653997e-02f, -5.30012697e-02f,
  2.37779960e-01f, 2.55593985e-01f, -1.92296252e-01f, 4.60008800e-01f, 4.15506102e-02f, 1.48619741e-01f,
  -4.95575875e-01f, -1.50739223e-01f, -1.16800785e-01f, -1.44793078e-01f, -8.28417391e-02f, -2.31894389e-01f,
  2.73338892e-02f, -3.29765797e-01f, -7.65917078e-02f, 1.02451622e-01f, 2.93645766e-02f, -2.33403817e-01f,
  1.54685065e-01f, -9.86539274e-02f, -2.83252150e-01f, -5.36705889e-02f, 7.84775987e-02f, 4.82538313e-01f,
  -3.03039819e-01f, 1.34804487e-01f, 3.44216883e-01f, -4.36834127e-01f, 1.04585484e-01f, 1.53258458e-01f,
  2.59194314e-01f, 2.93473899e-01f, 7.61348009e-03f, 1.61759079e-01f, -1.11929365e-01f, 4.33676243e-02f,
  -9.31166336e-02f, 2.97643393e-01f, -2.82664448e-01f, 1.35457665e-01f, 2.12255239e-01f, 3.53665948e-01f,
  2.39789579e-02f, -4.66259383e-02f, 1.24850400e-01f, -6.16621494e-01f, 3.96739393e-01f, -5.71694896e-02f,
  -1.17673762e-01f, 2.94548094e-01f, -4.10272509e-01f, 1.25561059e-01f, 1.74029171e-01f, -1.27310589e-01f,
  5.18444777e-01f, -7.14871213e-02f, -2.61327744e-01f, 4.43431020e-01f, 4.79542576e-02f, 2.45830230e-02f,
  -2.22495243e-01f, 1.98499963e-01f, -1.29291624e-01f, 2.69285500e-01f, 4.31629159e-02f, -8.06736872e-02f,
  3.38298492e-02f, 1.63755193e-01f, 1.73831746e-01f, -2.37451792e-02f, 1.99461564e-01f, -9.46473420e-01f,
  4.23551425e-02f, 3.37296814e-01f, -1.13989264e-01f, -3.15835416e-01f, -2.20741302e-01f, -6.97356641e-01f,
  4.61593717e-01f, 3.74659985e-01f, -6.74363613e-01f, -3.70733365e-02f, 1.96961403e-01f, -8.05860162e-02f,
  4.56757545e-02f, -2.20991261e-02f, -4.44205135e-01f, 6.59764260e-02f, 2.57112801e-01f, -2.46112421e-01f,
  3.47993255e-01f, -3.99859309e-01f, 2.20272079e-01f, 7.64308646e-02f, 8.88674140e-01f, -3.30273896e-01f,
  -2.80293971e-01f, -9.30085126e-03f, -2.67329812e-01f, 1.68094680e-01f, -2.76335955e-01f, 3.00810277e-01f,
  -4.12095450e-02f, -3.14530939e-01f, -2.20950261e-01f, -1.89528912e-01f, 7.26901889e-02f, 5.58874235e-02f,
  -4.03470770e-02f, 6.56503081e-01f, 3.54026146e-02f, 1.46842226e-01f, -4.86286730e-02f, 1.66955054e-01f,
  1.55727670e-01f, 4.51681286e-01f, -2.91017927e-02f, -3.19245905e-01f, 2.75754869e-01f, 1.83511853e-01f,
  4.05476332e-01f, -1.29038841e-01f, -2.41210252e-01f, -1.68652266e-01f, 1.50397882e-01f, 2.45526116e-02f,
  1.08343691e-01f, 7.90928155e-02f, -8.09753120e-01f, 2.60089606e-01f, 1.22478142e-01f, -3.08413416e-01f,
  -3.05059135e-01f, 4.43009764e-01f, 1.22619160e-01f, -1.85654953e-01f, 2.98222780e-01f, -4.52018119e-02f,
  -3.54129225e-01f, 6.50562253e-03f, 4.55767870e-01f, 2.29205742e-01f, 2.59653151e-01f, -7.74940252e-02f,
  -1.09606467e-01f, 3.89119089e-01f, -1.88395500e-01f, -2.64130801e-01f, -2.54992694e-01f, -3.50308120e-01f,
  -1.01958826e-01f, 2.90183455e-01f, -4.01736563e-03f, 2.02576488e-01f, 1.04887970e-01f, 2.06609979e-01f,
  -3.65624465e-02f, -3.99440706e-01f, 2.84100026e-01f, 2.31563777e-01f, 5.20266116e-01f, -1.29910395e-01f,
  -1.12329073e-01f, 3.73743147e-01f, 1.02640418e-02f, 2.39853352e-01f, 4.81024534e-02f, -1.18387915e-01f,
  -1.06368557e-01f, 4.77211922e-01f, 4.17950630e-01f, -7.17789158e-02f, 2.36138389e-01f, -2.65076637e-01f,
  -3.27475183e-02f, -2.78262138e-01f, -6.14682818e-03f, 1.72849484e-02f, -1.07898317e-01f, 4.54125041e-03f,
  5.09022065e-02f, -2.69515336e-01f, -6.32044300e-02f, 2.63112754e-01f, 1.58869430e-01f, -5.22507578e-02f,
  7.51041993e-02f, -3.92333344e-02f, 2.81525820e-01f, 1.44622922e-01f, -1.81342185e-01f, 2.68783495e-02f,
  1.19756116e-02f, -1.14150919e-01f, -1.59959450e-01f, 1.88194647e-01f, -3.78226250e-01f, -1.32109210e-01f,
  -2.63705134e-01f, -2.26390615e-01f, -1.32637769e-01f, 1.47712201e-01f, 3.03515583e-01f, 1.96964547e-01f,
  1.30889535e-01f, 2.88613746e-03f, -2.41478041e-01f, -3.24475557e-01f, 3.21578950e-01f, -2.87827760e-01f,
  -1.45362234e-02f, 7.36642778e-02f, -1.30492494e-01f, -1.38857260e-01f, -3.33875537e-01f, -1.71206713e-01f,
  -2.75969565e-01f, -3.49365532e-01f, -1.41616285e-01f, -1.13285139e-01f, 2.24008620e-01f, 3.10501494e-02f,
  3.06525528e-01f, 6.71924353e-02f, 6.29484653e-02f, -1.82694420e-02f, -1.57302514e-01f, -4.22642201e-01f,
  1.36722162e-01f, -7.43964687e-02f, 6.27116263e-02f, -3.31354067e-02f, -9.28133056e-02f, 4.41826433e-02f,
  -3.31356525e-02f, -6.10032193e-02f, -1.04671605e-01f, -5.46894185e-02f, -1.03158399e-01f, 3.30316126e-02f,
  -3.00275453e-04f, -3.27214986e-01f, -6.69450760e-02f, 2.03885958e-01f, -8.20997357e-02f, 8.25927779e-02f,
  1.15089901e-02f, 1.68018550e-01f, 4.66368347e-01f, 4.28513020e-01f, -3.91732678e-02f, -1.65762797e-01f,
  5.99726290e-02f, 1.83819771e-01f, 3.82255435e-01f, 1.41832391e-02f, 1.81552291e-01f, 8.75412766e-03f,
  2.80821145e-01f, 1.13206208e-01f, -2.03508511e-01f, -1.43667638e-01f, 6.04358735e-03f, -2.20458791e-01f,
  6.47711977e-02f, -2.24611223e-01f, 3.86206619e-02f, 1.33259103e-01f, 2.02495717e-02f, 2.67101228e-01f,
  -2.94779420e-01f, -3.82547155e-02f, 1.45004854e-01f, 1.88834384e-01f, -9.26828310e-02f, 2.10357904e-02f,
  6.51110411e-02f, -6.06559396e-01f, 2.31317043e-01f, 1.01791613e-01f, -9.63201225e-02f, 1.25301942e-01f,
  7.39395171e-02f, 6.25944585e-02f, 2.08259568e-01f, -7.71510899e-02f, -2.87561536e-01f, 2.42990196e-01f,
  -3.88094150e-02f, 7.79674202e-03f, 6.20362423e-02f, 3.32834125e-01f, 4.63868119e-02f, -3.49902302e-01f,
  -3.48257005e-01f, 2.82352656e-01f, 1.37390811e-02f, 2.90939242e-01f, 3.30828339e-01f, 1.65016893e-02f,
  -6.82962919e-03f, 1.35599211e-01f, 2.07966596e-01f, -1.39180735e-01f, -3.12385410e-01f, 1.38463080e-01f,
  -2.88061172e-01f, -5.27805761e-02f, 7.71572366e-02f, -3.04249763e-01f, 7.16972351e-01f, -1.74298704e-01f,
  5.66179231e-02f, 9.37580317e-02f, 2.37723649e-01f, -1.88498050e-01f, -1.64298452e-02f, -6.83766007e-02f,
  -5.30189574e-02f, -1.11353375e-01f, 6.22062758e-02f, -4.72905725e-01f, -2.78455496e-01f, 1.96601152e-01f,
  6.50765896e-02f, 2.42615730e-01f, -1.75199822e-01f, -1.18060887e-01f, 1.15939371e-01f, 2.84845442e-01f,
  5.76607406e-01f, -3.41351509e-01f, -1.40301675e-01f, -5.72517104e-02f, 1.10093229e-01f, -1.58317626e-01f,
  8.33276510e-02f, -4.99327600e-01f, -4.97755438e-01f, 4.37377132e-02f, 1.30533338e-01f, -2.08841801e-01f,
  5.64437807e-02f, -2.90873777e-02f, 2.21807882e-02f, -1.94880128e-01f, -5.83456568e-02f, -1.98779657e-01f,
  -3.69434804e-01f, 1.56478390e-01f, -1.69696033e-01f, -1.76235288e-02f, -1.48806274e-01f, 1.20855011e-01f,
  -8.01168442e-01f, 7.20865652e-02f, 3.34811866e-01f, 2.32030675e-01f, -8.04566592e-02f, 8.06468278e-02f,
  -1.75108805e-01f, 8.38842914e-02f, -9.26486477e-02f, 3.92481349e-02f, 1.13522023e-01f, -2.19335794e-01f,
  -7.31957108e-02f, -6.37319162e-02f, 2.18834981e-01f, -6.29492030e-02f, -1.11973220e-02f, -2.02066079e-01f,
  1.43851310e-01f, -4.41776305e-01f, -2.27993935e-01f, 2.00568497e-01f, 2.17069551e-01f, 2.33566776e-01f,
  9.81309637e-02f, 2.31881708e-01f, 1.25373200e-01f, -4.99039650e-01f, 4.78408672e-02f, 1.60266712e-01f,
  1.93493322e-01f, 2.79667377e-01f, -1.62109181e-01f, 4.72015679e-01f, -7.90502876e-02f, 1.14267051e-01f,
  -3.38980019e-01f, 8.28284472e-02f, 1.80967689e-01f, 5.70399081e-03f, 1.02228284e-01f, -6.35387301e-02f,
  -1.57614779e-02f, -3.32525253e-01f, -1.45584092e-01f, 2.07047939e-01f, 5.45480959e-02f, -3.88244539e-01f,
  3.22221071e-01f, 4.27663960e-02f, -7.23141953e-02f, -1.05291568e-01f, 4.53427061e-02f, 3.45798105e-01f,
  -2.18043640e-01f, 1.80884764e-01f, 4.25964952e-01f, -4.73475307e-01f, 1.00037545e-01f, 1.62762299e-01f,
  2.52444386e-01f, 1.86410636e-01f, -4.28808406e-02f, 3.71573493e-02f, -1.00426286e-01f, -7.33351931e-02f,
  -1.88076437e-01f, 9.19922069e-02f, -3.67110670e-02f, 8.82992223e-02f, 1.82732210e-01f, 3.51140410e-01f,
  -1.96954280e-01f, -1.17741346e-01f, 1.63408712e-01f, -4.89090800e-01f, 4.47767407e-01f, 1.35880858e-01f,
  -2.04338446e-01f, 4.57472324e-01f, -4.65670466e-01f, 3.62813286e-02f, 2.08101079e-01f, -1.68141291e-01f,
  4.42734241e-01f, 4.54719439e-02f, -2.64115304e-01f, 4.21654940e-01f, 1.81847781e-01f, -4.39271815e-02f,
  -2.33922154e-02f, 2.23544240e-01f, -1.77378938e-01f, 2.61186659e-01f, 9.97714996e-02f, -5.21434955e-02f,
  -4.81787473e-02f, 9.38635394e-02f, -1.88441053e-01f, 2.29549408e-01f, 3.79699230e-01f, -7.17419326e-01f,
  1.78570405e-03f, 1.35026395e-01f, -1.70142099e-01f, -1.66539818e-01f, 2.34771594e-02f, -7.13338137e-01f,
  4.96537566e-01f, 3.56203288e-01f, -7.13857830e-01f, -1.72916800e-01f, 2.97196329e-01f, -3.12006362e-02f,
  2.50890166e-01f, -7.48577043e-02f, -3.64799440e-01f, 1.11217469e-01f, 2.02092573e-01f, -2.40509421e-01f,
  2.76167333e-01f, -4.04825121e-01f, 1.15811341e-01f, 3.72407995e-02f, 9.21591640e-01f, -1.59781635e-01f,
  -3.11751992e-01f, 6.38884539e-03f, -1.58483818e-01f, 1.08106405e-01f, -2.42338270e-01f, 2.30891094e-01f,
  -2.39369106e-02f, -3.23660910e-01f, -3.65429610e-01f, -6.62479624e-02f, 5.62394857e-02f, 6.09421134e-02f,
  3.07606310e-02f, 6.57221317e-01f, 6.45064563e-02f, 2.52813816e-01f, -1.22735448e-01f, 3.96266073e-01f,
  3.94891471e-01f, 2.35692948e-01f, -6.32529035e-02f, -2.91594118e-01f, 1.51592508e-01f, 3.42563391e-01f,
  2.59829819e-01f, -6.96551800e-02f, -1.17428213e-01f, 1.07512902e-03f, 1.60581201e-01f, 1.59596205e-01f,
  6.08968250e-02f, 1.26588598e-01f, -4.07429695e-01f, 3.97950649e-01f, 3.07014361e-02f, -1.67457163e-01f,
  -1.48833975e-01f, 5.76625943e-01f, 1.50674328e-01f, -2.30034471e-01f, 2.70148993e-01f, -7.64869228e-02f,
  -1.78014770e-01f, -9.69178900e-02f, 2.94861317e-01f, 2.46037260e-01f, 1.00184746e-01f, -1.90918982e-01f,
  -1.32027239e-01f, 2.69755214e-01f, 3.62406746e-02f, -3.86395305e-01f, -3.57206643e-01f, -3.74108225e-01f,
  -2.14551851e-01f, 2.96471983e-01f, 5.49260676e-02f, 1.89980641e-02f, -4.33911644e-02f, 1.41734451e-01f,
  -7.18052313e-02f, -2.63876200e-01f, 3.24304134e-01f, 4.53141868e-01f, 4.53012526e-01f, -1.10173829e-01f,
  8.66986737e-02f, 3.29551429e-01f, -1.27681583e-01f, 3.21324617e-01f, 8.71744528e-02f, -1.09643780e-01f,
  8.81393813e-03f, 5.74475110e-01f, 2.22615227e-01f, -7.38875568e-02f, 2.86936134e-01f, -1.28555998e-01f,
  2.72600912e-02f, -2.32274294e-01f, -1.31883278e-01f, -1.48304984e-01f, 4.44853045e-02f, -1.13117531e-01f,
  -1.09442584e-01f, -3.14629167e-01f, -1.58570513e-01f, 1.56740069e-01f, 2.82409072e-01f, -1.84951261e-01f,
  2.14657903e-01f, 9.61704832e-03f, 2.75021970e-01f, 1.98117152e-01f, -1.11203335e-01f, 4.55586314e-02f,
  4.44348045e-02f, -1.05385982e-01f, -1.74604267e-01f, 3.07987213e-01f, -5.24591506e-01f, 3.95826697e-02f,
  -9.77982730e-02f, -1.80986896e-01f, -3.12612974e-03f, 6.66705593e-02f, 4.73898262e-01f, 1.02081709e-01f,
  2.44558588e-01f, 4.48690355e-02f, -9.26268548e-02f, -2.21103176e-01f, 2.48587579e-01f, -3.34100872e-01f,
  1.03583276e-01f, -3.67440134e-02f, 1.02906317e-01f, -2.07773805e-01f, -4.85338151e-01f, -9.30188820e-02f,
  -3.51981297e-02f, -2.87706763e-01f, -1.66063115e-01f, -6.49223551e-02f, 2.40571976e-01f, -8.60264227e-02f,
  5.19127131e-01f, -1.02642424e-01f, 9.55751836e-02f, -1.39386430e-01f, -1.38587445e-01f, -2.51548022e-01f,
  1.12213276e-01f, 1.28521457e-01f, -8.77486840e-02f, 2.15014592e-02f, 1.64904848e-01f, 8.06100667e-02f,
  -1.50819406e-01f, -1.82352141e-01f, -2.36713618e-01f, -4.07957248e-02f, -5.89284562e-02f, -5.90706579e-02f,
  -5.35582118e-02f, -1.77206069e-01f, -2.08337769e-01f, 1.46013513e-01f, -4.05483972e-03f, 2.40071982e-01f,
  -2.38973364e-01f, 1.92489758e-01f, 4.27613020e-01f, 3.74625295e-01f, 5.17028160e-02f, -1.42209440e-01f,
  7.88836833e-03f, 2.00679943e-01f, 4.02216733e-01f, 2.46663354e-02f, 2.26310208e-01f, 2.46097699e-01f,
  2.49329194e-01f, 8.25371519e-02f, -8.52111503e-02f, -2.19677091e-01f, -1.12683214e-01f, -2.26782933e-01f,
  7.67377615e-02f, -1.84047356e-01f, 5.04530966e-02f, 9.10836086e-02f, -8.45394433e-02f, 3.99962276e-01f,
  -2.48427927e-01f, -1.50652632e-01f, 1.61142141e-01f, 3.47090513e-02f, 2.99076792e-02f, 3.51220146e-02f,
  2.31151022e-02f, -6.93351865e-01f, 2.02061757e-01f, 1.88445095e-02f, 1.11849099e-01f, 1.62514344e-01f,
  1.41194686e-01f, 6.17818944e-02f, 3.60295065e-02f, -5.06166667e-02f, -4.12799895e-01f, 9.70010608e-02f,
  -8.19021985e-02f, -1.81210548e-01f, 8.42128471e-02f, 3.77100408e-01f, 2.35117137e-01f, -3.55639219e-01f,
  -2.38412902e-01f, 3.37632984e-01f, 1.75400645e-01f, 1.77849680e-01f, 4.09441143e-01f, -1.45630511e-02f,
  -1.67642206e-01f, 3.25330704e-01f, 6.77012131e-02f, -6.00067191e-02f, -3.53794277e-01f, 1.56773895e-01f,
  -2.13502049e-01f, -1.06019706e-01f, 2.50192940e-01f, -1.84486449e-01f, 6.97425902e-01f, -3.12433660e-01f,
  -1.44967943e-01f, -1.41892359e-01f, 2.29963645e-01f, -2.31245071e-01f, 6.22698199e-03f, 1.08201779e-01f,
  -8.34038630e-02f, 5.76723702e-02f, -5.62186204e-02f, -3.20587963e-01f, -1.25684693e-01f, 1.32950306e-01f,
  2.10556611e-01f, 1.47781178e-01f, 2.93718092e-02f, -1.25918472e-02f, 1.08457662e-01f, 2.21647575e-01f,
  5.68309724e-01f, -2.61593342e-01f, -1.06222674e-01f, 2.16922268e-01f, -9.00334306e-03f, -6.55829459e-02f,
  8.46270844e-03f, -6.95939004e-01f, -4.63717282e-01f, -1.00122228e-01f, 3.34248729e-02f, -1.56761512e-01f,
  6.06036782e-02f, 1.24538206e-01f, -4.91958372e-02f, -2.93522507e-01f, -1.56893861e-02f, -3.56336147e-01f,
  -3.26716661e-01f, 2.95285493e-01f, -2.89922595e-01f, -6.33448511e-02f, -4.10936587e-02f, 1.55357614e-01f,
  -6.86953485e-01f, 1.91599250e-01f, 2.93557167e-01f, 5.85187413e-02f, -1.02633506e-01f, 8.45503435e-02f,
  -1.58077195e-01f, 1.01080149e-01f, -5.20961545e-02f, -2.17433609e-02f, 3.23889673e-01f, -3.09695065e-01f,
  2.30878256e-02f, 4.37470600e-02f, 2.05926552e-01f, -2.56822482e-02f, 8.15710111e-04f, -2.90954243e-02f,
  2.07691550e-01f, -2.64266878e-01f, -1.93363633e-02f, 3.10895830e-01f, 2.10814942e-02f, 2.84902573e-01f,
  1.90675884e-01f, 9.56647694e-02f, 8.60212743e-02f, -5.02218902e-01f, -2.40169019e-02f, 9.42699090e-02f,
  2.67809182e-01f, 2.62379050e-01f, -1.21608831e-01f, 4.30408239e-01f, -1.45066559e-01f, 1.08743109e-01f,
  -3.69522661e-01f, 8.73060152e-02f, 1.20011844e-01f, -8.54010042e-03f, 2.78612226e-02f, -2.54248887e-01f,
  -5.70786670e-02f, -3.05176735e-01f, -8.29053074e-02f, 1.12731032e-01f, -8.61350223e-02f, -3.65785748e-01f,
  3.10129553e-01f, 1.41832516e-01f, -2.26612717e-01f, -5.58546297e-02f, 9.44102332e-02f, 2.83538938e-01f,
  -1.13862753e-02f, 3.83036397e-02f, 3.62448245e-01f, -3.65126252e-01f, 1.85767382e-01f, 1.11458413e-01f,
  1.79219082e-01f, 2.41313219e-01f, -1.26023024e-01f, 1.95735190e-02f, -5.82341403e-02f, -7.35445172e-02f,
  -2.00715885e-01f, 1.55568406e-01f, -5.76496907e-02f, 1.86923862e-01f, 1.80657998e-01f, 2.80622780e-01f,
  -9.38767102e-03f, -7.57099390e-02f, 1.07218802e-01f, -3.02447140e-01f, 5.64541459e-01f, -1.08302407e-01f,
  -2.64538914e-01f, 3.29817623e-01f, -2.99206197e-01f, 3.31880450e-02f, 2.99334377e-01f, 4.28620027e-03f,
  3.79356682e-01f, 1.38611495e-01f, -2.55794317e-01f, 4.48199064e-01f, 1.42187059e-01f, -1.64734840e-01f,
  6.92092720e-03f, 3.41045737e-01f, -1.57442421e-01f, 4.04423803e-01f, -2.20554154e-02f, -1.04759656e-01f,
  1.14120364e-01f, 2.19364539e-01f, -2.05365345e-01f, 2.20927447e-01f, 2.42645204e-01f, -6.23207927e-01f,
  2.40679979e-02f, 3.65511745e-01f, -2.04384118e-01f, -1.98823839e-01f, -4.64259572e-02f, -5.60276091e-01f,
  2.89744794e-01f, 2.57333845e-01f, -5.44472098e-01f, -1.60128668e-01f, 2.23179162e-01f, -6.07126318e-02f,
  4.86075543e-02f, -3.55435535e-02f, -2.70578980e-01f, 1.09988958e-01f, 3.77273769e-04f, -2.23812431e-01f,
  2.04328168e-02f, -4.97592479e-01f, 1.30283624e-01f, -8.24693777e-03f, 7.12219656e-01f, -2.45517492e-01f,
  -2.24319890e-01f, 4.39843573e-02f, -2.31526628e-01f, 2.14750040e-02f, -2.84015723e-02f, 1.06240474e-01f,
  -6.87643662e-02f, -1.47040531e-01f, -1.20122753e-01f, -2.64722239e-02f, -2.73292530e-02f, 1.21444359e-01f,
  7.73409307e-02f, 5.65644920e-01f, 1.50533125e-01f, 1.64322764e-01f, -1.89754352e-01f, 4.49213296e-01f,
  3.86372566e-01f, 1.87759668e-01f, 9.80428606e-02f, -3.02922994e-01f, 1.51417434e-01f, 3.29897732e-01f,
  2.22884417e-01f, -4.57223654e-02f, -1.76378191e-01f, 8.73727724e-04f, 1.42580122e-01f, -1.02613926e-01f,
  8.25023130e-02f, 7.76950642e-02f, -1.48973927e-01f, 2.24383980e-01f, 5.02646714e-02f, -1.55059218e-01f,
  -1.92874700e-01f, 3.21129560e-01f, 1.38521120e-01f, -2.61041880e-01f, 2.15643913e-01f, -1.17559776e-01f,
  -2.69740641e-01f, -2.69424379e-01f, 4.52139467e-01f, 1.09319679e-01f, 1.50399640e-01f, -1.51737526e-01f,
  9.79781598e-02f, 1.26442969e-01f, -1.33368462e-01f, -2.99159169e-01f, -1.28469989e-01f, -3.87402356e-01f,
  -2.31309518e-01f, 3.84855390e-01f, -3.26369517e-02f, -4.98001650e-02f, 1.55650735e-01f, 1.74757928e-01f,
  -3.05025131e-02f, -2.57403731e-01f, 1.59257054e-01f, 2.25178659e-01f, 2.89825886e-01f, -2.16867402e-02f,
  -4.40382138e-02f, 1.92720070e-01f, 2.14728732e-02f, 1.12967849e-01f, 1.34176075e-01f, -2.69219100e-01f,
  -8.51178393e-02f, 4.26725537e-01f, 1.65881932e-01f, -1.94903776e-01f, 3.75011235e-01f, -1.44472793e-01f,
  4.21428271e-02f, -3.61636907e-01f, -1.15134962e-01f, -5.20757474e-02f, -1.11908242e-02f, -1.45238519e-01f,
  6.73063546e-02f, -2.72219241e-01f, 2.95537803e-02f, 3.22275132e-01f, 1.37384444e-01f, -1.66794702e-01f,
  4.70994040e-02f, -9.96785611e-03f, 5.38194962e-02f, 1.73749402e-01f, -5.48830368e-02f, -4.56687585e-02f,
  1.34429354e-02f, -7.59801641e-02f, -2.82402575e-01f, 3.63707185e-01f, -5.25140405e-01f, 2.60999836e-02f,
  -1.84308320e-01f, -3.44198167e-01f, 3.46325487e-02f, 2.20209330e-01f, 3.46758962e-01f, 1.11453041e-01f,
  3.25105727e-01f, -1.23843653e-02f, -5.28849326e-02f, -2.84474045e-01f, 1.74709633e-01f, -4.89139736e-01f,
  -7.65427873e-02f, -6.87748715e-02f, 8.83666426e-02f, -2.75366724e-01f, -4.64946985e-01f, -2.52430588e-01f,
  -6.10836111e-02f, -3.30312341e-01f, -2.19153672e-01f, 1.01396392e-04f, 2.15128005e-01f, -1.65330410e-01f,
  4.47711676e-01f, 6.24061413e-02f, 5.00010327e-02f, -1.57908961e-01f, -2.19659254e-01f, -2.30746731e-01f,
  1.77069709e-01f, 1.06958807e-01f, 5.81098087e-02f, 3.51836607e-02f, 2.17498988e-01f, 8.57172906e-02f,
  -1.50362343e-01f, -2.12227643e-01f, -2.04020888e-01f, -1.18239164e-01f, -1.32378548e-01f, -1.56813368e-01f,
  -1.61170945e-01f, 3.88188437e-02f, -2.26468310e-01f, 1.64985344e-01f, 1.19329721e-01f, 4.23236549e-01f,
  -2.40237311e-01f, 2.50498384e-01f, 3.83947521e-01f, 1.51103631e-01f, 7.90632814e-02f, -6.50791377e-02f,
  -6.77161142e-02f, 1.03176162e-01f, 3.43172580e-01f, -1.22004822e-01f, 1.82329237e-01f, 2.25865513e-01f,
  1.14587113e-01f, -2.27592457e-02f, -2.06432194e-01f, -3.33123118e-01f, -1.52697101e-01f, -9.53080505e-02f,
  1.06173970e-01f, -9.05555561e-02f, 3.37649256e-01f, -8.47920030e-02f, -4.39362274e-03f, 5.79528749e-01f,
  -2.93717623e-01f, -9.72960666e-02f, -1.73583832e-02f, 6.52312040e-02f, 3.83096337e-02f, 6.88796937e-02f,
  1.42114148e-01f, -4.52917576e-01f, 4.57766652e-02f, 8.78722593e-02f, -1.05673708e-02f, 6.02211952e-02f,
  4.51380312e-02f, 9.57474932e-02f, -2.17511486e-02f, -7.42458627e-02f, -2.36870542e-01f, 8.64359736e-02f,
  -8.04674998e-03f, -1.43386364e-01f, -1.03045039e-01f, 2.51080275e-01f, 1.70073137e-01f, -2.71420598e-01f,
  2.35122871e-02f, 7.26577789e-02f, 2.70619482e-01f, 1.73565209e-01f, 3.65177155e-01f, -1.21018440e-02f,
  -1.45488024e-01f, 4.64770317e-01f, 6.80995956e-02f, -3.12637657e-01f, -2.04381049e-01f, 2.11133540e-01f,
  -3.41443151e-01f, -1.59630820e-01f, 2.69114196e-01f, -2.02301726e-01f, 8.07121217e-01f, -2.86752641e-01f,
  4.73538414e-02f, -4.70043607e-02f, 2.10683763e-01f, -1.05671726e-01f, 2.67270505e-02f, 1.68747813e-01f,
  -8.39979351e-02f, -8.18440169e-02f, 1.33571431e-01f, -2.62744874e-01f, -1.65721521e-01f, 1.85529038e-01f,
  4.94571440e-02f, 2.99060851e-01f, -3.93621176e-02f, 2.11108029e-02f, 5.55722713e-02f, 2.92373985e-01f,
  5.56915224e-01f, -2.21643597e-01f, -9.47468635e-03f, 2.47132480e-01f, 3.92323993e-02f, -9.32174325e-02f,
  -1.28527181e-02f, -5.92378557e-01f, -4.37994450e-01f, -4.01487164e-02f, 1.35252923e-01f, -9.50540975e-02f,
  -3.18189561e-02f, 9.04370397e-02f, -1.89223997e-02f, -2.11729988e-01f, -1.11952230e-01f, -3.60340536e-01f,
  -1.25423267e-01f, 3.46666217e-01f, -2.75632560e-01f, -1.11042276e-01f, -3.31679918e-02f, -2.73866635e-02f,
  -4.26667005e-01f, 1.06834829e-01f, 2.49742851e-01f, 1.18292354e-01f, -2.49464482e-01f, -5.87140769e-02f,
  5.76479593e-03f, 2.86147654e-01f, -4.71789427e-02f, 6.03079386e-02f, 2.18309239e-01f, -2.73704320e-01f,
  -1.00479171e-01f, 1.29850969e-01f, 4.59316634e-02f, -2.58677229e-02f, 1.68824166e-01f, 7.56740198e-02f,
  1.60102710e-01f, -1.92836553e-01f, -1.58437744e-01f, 3.53204280e-01f, 3.11886631e-02f, 3.26276213e-01f,
  1.23136444e-02f, 3.38998646e-01f, 6.86478764e-02f, -2.49530703e-01f, -1.03376299e-01f, 2.73170143e-01f,
  4.03917909e-01f, 9.82601643e-02f, -1.57046601e-01f, 3.46197963e-01f, -1.69543341e-01f, 4.69958782e-02f,
  -1.16090417e-01f, 1.79486230e-01f, 9.43408832e-02f, 1.23863734e-01f, 7.90806636e-02f, -1.84301272e-01f,
  7.36685917e-02f, -2.69745439e-01f, 7.42943306e-03f, 1.92316964e-01f, -9.42947865e-02f, -2.26019114e-01f,
  1.92633212e-01f, 3.27589177e-02f, -1.24115303e-01f, 1.66591391e-01f, 4.35925275e-03f, 3.34945679e-01f,
  -5.21895662e-02f, 1.10684536e-01f, 2.99874514e-01f, -4.91010070e-01f, 3.24473232e-01f, -9.80744138e-02f,
  1.96800396e-01f, 2.62075394e-01f, -1.65756568e-02f, 2.22824886e-01f, 8.53733346e-03f, 7.43842646e-02f,
  -9.09240693e-02f, -1.45312324e-02f, -6.71618730e-02f, 1.20233655e-01f, -1.54597387e-01f, 3.31254214e-01f,
  6.69111460e-02f, -6.03408031e-02f, -2.25583799e-02f, -3.75388265e-01f, 5.40018857e-01f, -5.51215857e-02f,
  -3.37909341e-01f, 4.93248016e-01f, -3.46570939e-01f, 1.58083782e-01f, 2.07097486e-01f, 5.12252115e-02f,
  2.96210170e-01f, 1.13464832e-01f, -1.00150533e-01f, 2.54722893e-01f, -8.13436434e-02f, -2.05235764e-01f,
  -7.91923609e-03f, 2.40194514e-01f, -2.87630651e-02f, 2.46881515e-01f, 3.10555492e-02f, -1.33784652e-01f,
  -5.82884289e-02f, 1.43277198e-01f, -4.22806084e-01f, 2.83179402e-01f, 4.12569314e-01f, -3.47272396e-01f,
  -1.03645198e-01f, 3.63812268e-01f, -1.59628600e-01f, -1.98306397e-01f, 1.28676906e-01f, -4.44681048e-01f,
  3.79710019e-01f, 1.43067583e-01f, -4.69680309e-01f, -1.01722211e-01f, 4.79146950e-02f, 1.28651276e-01f,
  1.79311097e-01f, 1.91023663e-01f, -1.60345480e-01f, 1.50836259e-01f, 1.41491443e-01f, -2.33965218e-01f,
  2.15262920e-01f, -3.20052922e-01f, 9.32167917e-02f, -2.42890138e-02f, 5.24188817e-01f, -1.59557283e-01f,
  -9.85046029e-02f, -8.74401480e-02f, -1.14036195e-01f, 6.97438940e-02f, 2.47426033e-02f, 4.43541855e-02f,
  -2.54633516e-01f, -3.55108559e-01f, -3.00237238e-01f, 1.81534722e-01f, -1.94671243e-01f, 2.70954907e-01f,
  -5.60444705e-02f, 4.12637204e-01f, 3.84572804e-01f, 2.03221962e-01f, -2.07471251e-01f, 4.63804781e-01f,
  3.37317646e-01f, 1.63832903e-01f, -6.05363213e-02f, -1.48790449e-01f, 1.65915906e-01f, 2.02702776e-01f,
  2.19721600e-01f, -1.99361190e-01f, -2.75904357e-01f, -1.15266383e-01f, 9.28322449e-02f, -1.59936529e-02f,
